0.06653882563114166 -0.013732283376157284 -0.01755065657198429,-0.08101800084114075 -0.00032127919257618487 -0.042176198214292526,-0.052907586097717285 0.05181650444865227 0.00410501379519701!-0.056728243827819824 -0.07113423943519592 -0.03010985627770424,0.029261011630296707 -0.0526295006275177 -0.07077957689762115,-0.045520082116127014 -0.08461953699588776 0.012593524530529976!0.05008535832166672 -0.08617108315229416 0.012629218399524689,0.022506918758153915 0.0008602812886238098 -0.03727348521351814,0.02413954958319664 0.025411324575543404 0.005867124535143375!-0.027771860361099243 -0.029052378609776497 0.0034642424434423447,-0.034907225519418716 -0.0412614643573761 0.03691684827208519,0.05177559331059456 -0.02867686189711094 -0.033415019512176514!-0.010333974845707417 -0.03275037184357643 -0.004081778693944216,0.004483713768422604 -0.10117993503808975 -0.05555414408445358,0.05080462992191315 0.009847871027886868 -0.022390233352780342!-0.05024214833974838 -0.05098375678062439 -0.07464724034070969,-0.027163535356521606 0.028142016381025314 0.053135138005018234,0.038474779576063156 -0.07366200536489487 -0.05011354014277458!-0.025096409022808075 0.04965540021657944 -0.018580470234155655,-0.040462709963321686 -0.0006268744473345578 -0.06467355042695999,-0.07513530552387238 0.04132304713129997 -0.05653615668416023!-0.019325891509652138 -0.10826648026704788 0.03915247321128845,0.05699950084090233 0.029831979423761368 -0.07434329390525818,-0.10178528726100922 -0.07039306312799454 0.06731917709112167!0.03929588571190834 0.07242050021886826 0.03890916332602501,0.017758091911673546 -0.0059157502837479115 -0.0857464000582695,-0.08602317422628403 -0.08483891189098358 0.042065978050231934!-0.04091399908065796 -0.016771048307418823 -0.047958772629499435,-0.015185296535491943 -0.058652907609939575 -0.05445130914449692,0.027642568573355675 -0.02476636692881584 0.05144526809453964!-0.040096841752529144 -0.07835475355386734 -0.03839609771966934,-0.06042369455099106 -0.04917097091674805 -0.10509707033634186,0.02658471092581749 -0.08322808146476746 0.017850058153271675!0.03781535476446152 0.05953606218099594 -0.0639210045337677,0.05993306636810303 -0.03939596936106682 0.030922433361411095,0.07825955748558044 -0.011752655729651451 -0.0006444553728215396!-0.03608020022511482 -0.07844050973653793 0.032661791890859604,-0.10358035564422607 0.03469320386648178 0.0532868318259716,0.059026870876550674 -0.037203844636678696 -0.09493496268987656!0.0017204806208610535 0.03820456191897392 -0.0895620658993721,-0.039926595985889435 -0.06159912794828415 0.005794883705675602,-0.05906205251812935 -0.052015066146850586 -0.05173817276954651!-0.09627287089824677 0.03936808928847313 0.04544760659337044,-0.03356281295418739 -0.0379999503493309 -0.058289770036935806,-0.09687401354312897 -0.1038656085729599 0.014741675928235054!-0.0457538478076458 -0.05357308313250542 -0.006501933094114065,-0.027750929817557335 -0.026960065588355064 0.0026775996666401625,-0.017676036804914474 -0.02869270369410515 -0.03990049287676811
-0.030558547005057335 0.08350042253732681 -0.2569505572319031,0.18354889750480652 0.08174888044595718 -0.3588702976703644,0.29091811180114746 0.39228498935699463 -0.28970101475715637!0.04610409215092659 0.05088290572166443 -0.1092376857995987,0.1583217829465866 0.13634216785430908 -0.2801620364189148,0.07876826077699661 0.3639282286167145 -0.2413509488105774!0.10074551403522491 0.01613749749958515 -0.009388318285346031,-0.21133865416049957 -0.2959597706794739 -0.08107181638479233,-0.22728851437568665 -0.20671431720256805 0.06969478726387024!-0.03376668691635132 -0.06673046201467514 -0.00903841108083725,0.04934366047382355 -0.15904012322425842 0.09049731492996216,-0.10927844792604446 -0.12638698518276215 0.10721266269683838!0.03952723741531372 0.012984507717192173 -0.07207689434289932,0.02831287682056427 0.0038690161891281605 -0.12756630778312683,0.14569729566574097 0.17312702536582947 -0.09893066436052322!0.020199518650770187 0.02296752855181694 0.0456591472029686,0.06334336847066879 0.046406250447034836 -0.08262508362531662,0.007390717975795269 0.05047942325472832 -0.007702122442424297!-0.007143790367990732 0.08477186411619186 -0.19209274649620056,0.05243151634931564 -0.05937829986214638 -0.3088577091693878,0.19361403584480286 0.28847622871398926 -0.18769338726997375!-0.11957287043333054 0.033118683844804764 -0.18293391168117523,0.2898746430873871 0.38973793387413025 -0.1510552614927292,0.1693325638771057 0.5639182329177856 0.13823583722114563!-0.39554622769355774 -0.029539966955780983 0.07732819765806198,-0.5865756869316101 -0.3013092875480652 -0.38290271162986755,-0.2573707401752472 0.17596086859703064 0.5349202752113342!0.07581742107868195 -0.07100429385900497 -0.03182993456721306,0.05998452752828598 -0.0181556548923254 -0.0026749130338430405,-0.0347326397895813 0.057442180812358856 0.04087526723742485!0.04962532967329025 0.0690557211637497 -0.05612151697278023,0.1518099457025528 0.14184686541557312 0.04221164062619209,0.12866903841495514 0.09683869779109955 0.19185635447502136!0.0037598609924316406 -0.020508378744125366 -0.07546581327915192,-0.07835479080677032 -0.03983458876609802 -0.04236011952161789,0.025962799787521362 -0.024259230121970177 -0.032601844519376755!0.10446587204933167 -0.014883099123835564 0.08721362054347992,-0.058384403586387634 -0.2350633144378662 0.03765307739377022,-0.14609912037849426 -0.21025770902633667 0.04828260466456413!0.03978990763425827 -0.08048003911972046 0.09927792102098465,-0.11205265671014786 -0.24752815067768097 -0.050263695418834686,-0.32259103655815125 -0.268231064081192 -0.028516551479697227!0.1065760999917984 -0.021770376712083817 -0.042812179774045944,0.09114743024110794 0.11151861399412155 -0.21224498748779297,0.06384963542222977 0.6510351896286011 -0.6161882281303406!0.010103246197104454 -0.02518320083618164 0.06059391424059868,-0.0021664302330464125 0.06504996120929718 0.08012337982654572,-0.04059924930334091 -0.06079242751002312 0.06685850024223328
0.06409293413162231 -0.02255340851843357 -0.3211023807525635,-0.11014976352453232 0.18326129019260406 -0.07875284552574158,-0.09003713726997375 0.050583671778440475 0.10957856476306915!0.14679649472236633 0.037204526364803314 -0.2399028092622757,0.08909487724304199 0.2345714122056961 -0.09954197704792023,-0.13863003253936768 0.10557302087545395 0.031828030943870544!-0.027628272771835327 -0.04776789993047714 0.25748011469841003,0.015057560056447983 -0.08915631473064423 0.072982557117939,0.2677118480205536 -0.1196620762348175 -0.2570766508579254!-0.04719879478216171 -0.07823565602302551 0.00720369815826416,-0.050003912299871445 -0.14442433416843414 0.16107888519763947,-0.04307425022125244 -0.10888691246509552 -0.015595930628478527!-0.010862911120057106 -0.017524074763059616 -0.03515520319342613,0.033877838402986526 0.21943388879299164 0.11562678962945938,-0.032231010496616364 0.034636642783880234 0.13482272624969482!0.0013050734996795654 -0.006061037536710501 0.0011453430633991957,0.031118731945753098 0.07748096436262131 -0.021596591919660568,-0.03522631525993347 -0.02018040418624878 -0.04026035591959953!0.03060299903154373 0.06453031301498413 -0.18840444087982178,0.018815457820892334 0.08983404189348221 -0.19266793131828308,-0.09052981436252594 0.043769750744104385 0.11211548000574112!-0.1705014705657959 0.2926814556121826 -0.21307380497455597,-0.2614758610725403 0.385233998298645 0.5309325456619263,-0.32279494404792786 0.08794834464788437 0.27591273188591003!-0.41480642557144165 0.22896847128868103 -0.0926196426153183,-0.6669985055923462 0.0010680672712624073 0.13322119414806366,-0.36948543787002563 -0.5202605128288269 0.14844532310962677!0.01216595433652401 0.022794246673583984 -0.04008890315890312,0.0013435829896479845 0.07917666435241699 0.06915047019720078,-0.003130704164505005 -0.07837757468223572 0.0036523144226521254!-0.2219696342945099 0.12547476589679718 -0.01300680823624134,-0.09309966117143631 0.020684467628598213 0.14301797747612,0.08227147907018661 0.010125375352799892 0.040053099393844604!0.06468513607978821 0.06727593392133713 -0.02877928875386715,-0.01863805577158928 0.040161482989788055 -0.022738974541425705,0.03902199864387512 -0.018205642700195312 -0.05652102828025818!0.04200251027941704 0.008882127702236176 0.19555434584617615,0.10761964321136475 -0.10668209195137024 0.1412057727575302,0.24556677043437958 -0.10692150145769119 -0.20118305087089539!0.02752555161714554 -0.065125472843647 0.16557468473911285,-0.14034025371074677 -0.23840488493442535 -0.07574209570884705,0.12356382608413696 -0.21815191209316254 -0.28658217191696167!0.2311399281024933 0.02097710222005844 -0.29098591208457947,0.17193761467933655 0.32202982902526855 -0.8004351854324341,-0.02929585427045822 0.24080172181129456 -0.21967417001724243!0.073615163564682 0.014290541410446167 0.022661983966827393,-0.048532597720623016 -0.0011497139930725098 0.0045820376835763454,0.02045285701751709 0.03237883374094963 0.07241065800189972
-0.0754123330116272 -0.013885602355003357 -0.026785539463162422,-0.08146923780441284 -0.015371961519122124 -0.07347509264945984,0.0445602610707283 -0.0036317170597612858 -0.05325407162308693!0.03227418661117554 -0.09968598186969757 -0.017108650878071785,-0.035969093441963196 -0.08251118659973145 -0.05258554220199585,-0.023369494825601578 0.05172651261091232 0.07205448299646378!0.042844418436288834 -0.060997601598501205 -0.06827349960803986,0.06151295453310013 0.019827211275696754 -0.007148210424929857,0.0036478161346167326 -0.0698549896478653 -0.027823787182569504!0.06901148706674576 -0.03079572319984436 -0.0157003290951252,-0.08510913699865341 -0.056040868163108826 -0.0111724603921175,-0.061023347079753876 -0.026907160878181458 0.027523227035999298!-0.09296724200248718 0.006867376156151295 -0.06370696425437927,-0.06053432822227478 0.02113896608352661 0.06116856634616852,-0.037194814532995224 -0.044662997126579285 -0.08398173004388809!-0.042971473187208176 -0.07296974956989288 -0.01907254382967949,0.017004620283842087 -0.07807298004627228 0.0727594643831253,0.05228257179260254 -0.0815788209438324 -0.03980275243520737!0.015415915288031101 -0.03552132472395897 -0.02557876706123352,-0.05490781366825104 0.04667143151164055 -0.059747353196144104,0.048150867223739624 -0.01571136899292469 0.006527692079544067!0.06589158624410629 -0.007563709281384945 -0.032637517899274826,-0.018029045313596725 0.054700229316949844 -0.0709364116191864,0.019760653376579285 -0.10319390892982483 0.028054941445589066!0.025364533066749573 0.0073711806908249855 0.05496595799922943,-0.017840126529335976 0.03456766903400421 -0.06806056946516037,-0.014631268568336964 0.02587161771953106 0.06697279959917068!0.042449288070201874 -0.06059786677360535 0.06409140676259995,-0.018583189696073532 -0.017792871221899986 -0.07574247568845749,-0.013117860071361065 0.05894389748573303 0.011620402336120605!-0.059980522841215134 0.013866277411580086 -0.039921339601278305,0.05947272479534149 -0.08813712745904922 -0.03681107610464096,-0.1005280613899231 -0.04638465866446495 0.017581269145011902!0.0802178904414177 0.013995528221130371 0.0816965401172638,0.016304343938827515 0.048128001391887665 0.06680518388748169,0.06966027617454529 -0.04664364457130432 0.0766158327460289!0.03992535173892975 -0.048432402312755585 -0.051557596772909164,-0.07961677014827728 0.01441316120326519 -0.07909729331731796,0.026592092588543892 0.016968414187431335 -0.07396632432937622!0.013268556445837021 -0.01687789149582386 0.022020775824785233,0.03720410168170929 -0.09940289705991745 0.06828095763921738,0.07466765493154526 0.033156972378492355 -0.07616342604160309!-0.04053885489702225 -0.041448161005973816 -0.02412683516740799,0.027421439066529274 0.01756133697926998 0.06273741275072098,-0.04456329345703125 0.015370583161711693 0.02090407907962799!-0.06938257068395615 -0.08083498477935791 -0.043240755796432495,0.05704563856124878 -0.07845497131347656 -0.0725361555814743,0.046683382242918015 0.04496074840426445 0.06853272765874863
-0.06701085716485977 -0.06325004994869232 0.04244158789515495,0.038921553641557693 0.01325520221143961 -0.016624780371785164,0.005479494109749794 0.047285426408052444 -0.07983026653528214!-0.0417119599878788 0.05583873763680458 -0.05762142688035965,-0.07906525582075119 0.02481558546423912 -0.00640389509499073,0.00022368748614098877 -0.06580173969268799 -0.024614032357931137!0.07626940310001373 -0.05001834034919739 0.00065518420888111,0.03963329643011093 -0.05752968788146973 0.07733791321516037,-0.050801295787096024 -0.020011335611343384 -0.024913808330893517!-0.05430490896105766 -0.08177205175161362 0.04630306735634804,-0.003756270743906498 -0.08263272792100906 -0.05825551599264145,0.06430663168430328 0.02766348421573639 0.023432621732354164!-0.05428197979927063 -0.03975163772702217 -0.013943255878984928,-0.04901457950472832 -0.09312069416046143 -0.026644190773367882,-0.021994149312376976 -0.043058156967163086 -0.01910332590341568!-0.0330292209982872 0.02168765664100647 0.031428366899490356,-0.04389491677284241 -0.08263158798217773 0.043619535863399506,0.01987805962562561 -0.04238232970237732 0.08030849695205688!-0.04115334153175354 0.054324448108673096 0.041625116020441055,-0.09999788552522659 0.018343158066272736 -0.10932789742946625,-0.07551722973585129 -0.04696805402636528 -0.08548501878976822!0.07772156596183777 -0.019262125715613365 0.032652728259563446,-0.10052552819252014 0.01601363904774189 -0.05511166527867317,-0.06338927149772644 0.012153168208897114 0.040352266281843185!0.06967099010944366 -0.0529487170279026 -0.04157450422644615,-0.007255740463733673 -0.007559467572718859 0.00471205310896039,0.04573960229754448 -0.01889614388346672 0.04583282396197319!0.06144096702337265 -0.021768461912870407 0.059288106858730316,0.04071496054530144 0.07350440323352814 -0.04735615849494934,-0.04115074872970581 -0.02409490942955017 0.004227191209793091!0.04686737805604935 -0.05031709372997284 0.04002600535750389,-0.05925218015909195 0.016435282304883003 -0.037396080791950226,-0.10402349382638931 -0.07709486782550812 -0.09131371974945068!0.041330210864543915 -0.05587901920080185 -0.006943186279386282,0.01797965168952942 -0.04569955915212631 0.024039169773459435,-0.08136861771345139 -0.05962570756673813 -0.07551028579473495!-0.025206446647644043 -0.030358117073774338 0.011826891452074051,-0.015409539453685284 0.0390290804207325 0.07254531234502792,0.00832290854305029 -0.032830625772476196 -0.08109960705041885!0.030183494091033936 -0.04128815978765488 0.0424063615500927,0.05570707842707634 0.032143376767635345 0.07496792078018188,0.07914970815181732 0.017644992098212242 -0.06071972846984863!0.07055531442165375 -0.04188689589500427 -0.03995142877101898,0.035050082951784134 0.028217792510986328 -0.006999350152909756,-0.025541547685861588 -0.09516914188861847 -0.029624350368976593!0.07992719858884811 0.021221568807959557 0.007134835235774517,-0.017304252833127975 -0.029065191745758057 0.0496685616672039,0.005139043089002371 0.05421451851725578 -0.014749884605407715
0.10380137711763382 -0.01736428402364254 0.04507646709680557,0.04347703978419304 -0.06107747182250023 0.05131696164608002,0.05182252451777458 -0.15197718143463135 -0.05396277457475662!0.08506854623556137 0.0023866845294833183 0.03390193730592728,-0.001989366253837943 -0.0639461800456047 0.09373519569635391,0.026999861001968384 -0.05484282597899437 0.03044389747083187!-0.06343746930360794 -0.1220843717455864 0.027998246252536774,0.07726053148508072 0.040056876838207245 0.009443969465792179,0.0008505823207087815 -0.012055940926074982 -0.15402740240097046!-0.1827486753463745 -0.251526802778244 -0.24084077775478363,-0.14175142347812653 -0.046194516122341156 -0.045221563428640366,-0.09470580518245697 -0.06297413259744644 -0.21380096673965454!0.0666641816496849 0.06162870302796364 0.060027264058589935,0.05797647684812546 -0.04100509360432625 0.1053503155708313,0.013384075835347176 0.03282880038022995 0.16847141087055206!-0.025651276111602783 -0.026265978813171387 0.05027607083320618,-0.030637770891189575 -0.0071562668308615685 0.07781153917312622,-0.03416448086500168 -0.05961751937866211 -0.04663698002696037!0.0754147469997406 -0.03872502222657204 0.02094871550798416,0.09065330773591995 -0.02511870302259922 0.006070232018828392,-0.01893169805407524 -0.07297631353139877 0.031745314598083496!0.0779314637184143 -0.06550592184066772 0.08352552354335785,-0.03449030593037605 -0.11510169506072998 -0.013394640758633614,0.12993305921554565 -0.05873727425932884 0.0910554975271225!0.249141126871109 0.12750624120235443 0.13538219034671783,0.041072893887758255 -0.07002595067024231 0.07284411042928696,0.4820358455181122 0.21012559533119202 0.2513369917869568!0.0005218188161961734 -0.06472256779670715 -0.018258273601531982,-0.009726282209157944 0.0721384733915329 0.0395619198679924,-0.014530926942825317 0.01407739520072937 -0.024055462330579758!0.12534590065479279 0.08889265358448029 0.07052162289619446,0.11926445364952087 0.1509055644273758 0.0876440480351448,0.1067717894911766 0.13879439234733582 0.18092720210552216!0.08292998373508453 0.024688195437192917 -0.02840782329440117,0.042324334383010864 0.07149621099233627 -0.08173617720603943,-0.010323911905288696 -0.05683045834302902 0.015529980883002281!-0.052697788923978806 -0.15389342606067657 -0.10999637842178345,0.038339629769325256 -0.04713016748428345 -0.06721654534339905,0.034452322870492935 -0.08828373998403549 -0.07312525063753128!0.0036119353026151657 -0.04964721202850342 -0.1012597531080246,0.10671302676200867 -0.04269057512283325 -0.01953202672302723,0.03212210163474083 -0.04043037071824074 -0.10128802061080933!0.04680535942316055 0.044663410633802414 0.029214361682534218,-0.013178172521293163 0.006125618703663349 0.015041097067296505,-0.026876917108893394 0.04020777717232704 0.11583773791790009!0.0460243746638298 -0.05853699892759323 0.026599746197462082,0.047365814447402954 0.046271681785583496 -0.07761846482753754,-0.03180035203695297 -0.07163047045469284 -0.05273428559303284
0.00783710740506649 -0.04597393423318863 0.041374322026968,-0.08031471818685532 -0.038695093244314194 -0.07850102335214615,0.04460044950246811 -0.05846331641077995 -0.03051014617085457!-0.03526763617992401 -0.0026386429090052843 0.10188010334968567,0.10760250687599182 -0.09221573173999786 0.05628126487135887,0.06150040403008461 -0.014730575494468212 0.12651538848876953!0.03208049759268761 -1.1148932799187605e-06 -0.05904432758688927,-0.009985815733671188 -0.10082317143678665 -0.05108349770307541,0.008605408482253551 -0.11480087041854858 -0.0824206992983818!-0.15403816103935242 -0.22825190424919128 -0.1868121325969696,0.022350778803229332 -0.1277330070734024 -0.1073143407702446,-0.21210454404354095 -0.16319754719734192 -0.29917699098587036!-0.012461856938898563 0.09742726385593414 0.1406005173921585,0.1761709451675415 0.0013234392972663045 0.13793586194515228,0.04794125258922577 0.12080896645784378 0.129959836602211!0.06448924541473389 0.06000427529215813 0.052131108939647675,0.0016219716053456068 0.038290299475193024 -0.02981424331665039,0.036286234855651855 -0.026783496141433716 -0.0013992786407470703!-0.08364440500736237 -0.0273542869836092 -0.0378098338842392,-0.018880996853113174 -0.07174598425626755 -0.08310718834400177,0.05201195925474167 0.07524868100881577 0.10729844868183136!-0.07533977180719376 -0.02983139082789421 -0.01570972613990307,-0.05917942523956299 0.05284131318330765 -0.023561513051390648,-0.052662476897239685 0.1421632319688797 0.023099906742572784!-0.20431487262248993 0.1584281027317047 0.06957793235778809,-0.2393963634967804 -0.28210023045539856 -0.2040446251630783,-0.25861454010009766 0.07068709284067154 -0.029835030436515808!0.050213925540447235 0.01668679714202881 0.022084206342697144,0.0010078537743538618 0.034227948635816574 -0.023020679131150246,-0.07854827493429184 -0.032016925513744354 0.06529488414525986!-0.0194642785936594 0.11969052255153656 0.022014668211340904,0.13369572162628174 0.1948545128107071 0.14260278642177582,0.02650797925889492 0.08461572974920273 0.13127155601978302!-0.04888814687728882 0.06851615011692047 -0.08008131384849548,0.03723902627825737 0.08307617157697678 0.0417357012629509,0.0284148957580328 -0.0801788866519928 0.08015777170658112!-0.04678231105208397 -0.13537302613258362 0.005941239185631275,-0.04379196837544441 -0.10277450084686279 0.00025984147214330733,-0.1158846914768219 -0.1633973866701126 -0.1474415510892868!0.06673165410757065 0.03345945104956627 -0.0783313736319542,0.0641939714550972 -0.1381208598613739 -0.16490712761878967,-0.063301220536232 -0.03683453053236008 -0.18812893331050873!0.10297749191522598 0.11537664383649826 0.08389309793710709,0.11231346428394318 -0.036401089280843735 0.0723063051700592,0.23880068957805634 0.17174124717712402 0.04939381778240204!0.07606843113899231 0.006459146738052368 0.04008042812347412,0.06472302973270416 0.07104243338108063 -0.06496123969554901,0.07297199219465256 -0.056597910821437836 0.006247173063457012
-0.20844000577926636 0.07323841005563736 -0.03243804723024368,-0.10082720220088959 0.21659325063228607 -0.0754101499915123,0.09459450840950012 0.3106129467487335 -0.08612979203462601!-0.14207115769386292 0.20295055210590363 -0.03527754917740822,-0.027246670797467232 0.26781779527664185 -0.258172869682312,0.05281032621860504 0.28888821601867676 -0.2952817678451538!0.12859472632408142 -0.14611753821372986 -0.09437563270330429,0.24878081679344177 -0.1281861662864685 0.04932456463575363,0.1556430608034134 -0.1532333493232727 -0.11086580902338028!0.030723953619599342 0.0071840230375528336 -0.02350613661110401,0.24244028329849243 0.02476361021399498 0.16563551127910614,0.11041122674942017 -0.04537529870867729 0.28743621706962585!-0.1928214281797409 -0.01288692094385624 0.020629074424505234,-0.0484086349606514 0.22059963643550873 0.011027555912733078,0.10203297436237335 0.10612458735704422 -0.02955748699605465!0.06993656605482101 -0.041152626276016235 0.07659833133220673,0.06247024983167648 0.000912698800675571 0.04017937183380127,-0.02913512848317623 -0.0726819857954979 0.021065007895231247!-0.1354111135005951 0.001019966322928667 -0.007786289323121309,-0.20248714089393616 0.2360249161720276 -0.02660624124109745,0.012324328534305096 0.19571496546268463 -0.09094327688217163!-0.18883097171783447 0.1879304051399231 0.12915471196174622,0.06030494347214699 0.5102365612983704 0.16804033517837524,-0.13435056805610657 0.22626668214797974 -0.03232097253203392!-0.4509700834751129 -0.2587766945362091 -0.19165556132793427,-0.9715359807014465 -0.7294831275939941 -0.5889257192611694,-0.9886460304260254 -0.5523554682731628 -0.3227212429046631!0.008097599260509014 -0.009684662334620953 -0.08266118168830872,-0.0030204318463802338 -0.007981608621776104 -0.011581520549952984,0.07656504213809967 -0.018183261156082153 0.053534768521785736!-0.192246213555336 -0.1851118952035904 0.017986739054322243,-0.10297385603189468 -0.014004640281200409 0.07434163987636566,-0.04762113466858864 0.10639139264822006 0.08207836747169495!0.05014541745185852 -0.010661005973815918 -0.08216078579425812,0.006261120550334454 0.026924502104520798 -0.024996738880872726,0.028990289196372032 -0.07125841081142426 0.05775132775306702!0.12419027835130692 -0.09102729707956314 -0.2031579166650772,0.20419475436210632 -0.10043715685606003 -0.08046909421682358,0.056482285261154175 -0.1388632357120514 -0.07096389681100845!0.22719426453113556 -0.08233214169740677 -0.1734110713005066,0.21976043283939362 -0.1047736257314682 -0.005341548938304186,0.10714353621006012 -0.050019774585962296 -0.16298943758010864!-0.18180911242961884 0.27622848749160767 -0.09289472550153732,0.04294215887784958 0.36746272444725037 -0.4739619791507721,0.22990471124649048 0.40848180651664734 -0.8364548087120056!0.021092306822538376 -0.044779133051633835 0.04700325056910515,0.05541744828224182 -0.057821523398160934 0.0008072853088378906,0.0002312163560418412 0.026759644970297813 0.07763203978538513
0.13003696501255035 0.3486582338809967 0.34120243787765503,-0.37409213185310364 0.09371384233236313 0.29419928789138794,-0.43193623423576355 -0.302900493144989 -0.0024215797893702984!0.062250807881355286 0.28552985191345215 0.15756842494010925,-0.3039836883544922 0.048058051615953445 0.2812192440032959,-0.24158117175102234 -0.32944822311401367 0.09639228135347366!0.07114893943071365 -0.029609009623527527 -0.2474852353334427,0.22362002730369568 0.157280832529068 -0.4710257053375244,0.3125326931476593 0.4523797035217285 -0.06922385841608047!-0.018122762441635132 -0.08747164905071259 -0.25329911708831787,0.13027489185333252 0.09772474318742752 -0.33624279499053955,0.1645192950963974 0.2564333975315094 -0.24283893406391144!-0.011022224090993404 0.22222182154655457 0.1649065613746643,-0.25216859579086304 0.09753076732158661 0.1596209853887558,-0.19368289411067963 -0.20082347095012665 -0.0490620955824852!0.058879315853118896 0.011637399904429913 -0.02386651560664177,-0.054925233125686646 0.019532522186636925 -0.07947938144207001,0.02194814942777157 0.041203729808330536 -0.07310004532337189!0.06993143260478973 0.2769889533519745 0.2769382894039154,-0.20132996141910553 0.14055675268173218 0.3514966368675232,-0.32792240381240845 -0.22000204026699066 0.1918603777885437!-0.18331849575042725 0.4345182776451111 0.347000390291214,-0.38170385360717773 0.06187964975833893 0.45745912194252014,-0.29160353541374207 -0.33369168639183044 -0.14818793535232544!-0.574533998966217 0.12950021028518677 0.3742576837539673,-1.08450448513031 -0.595229983329773 0.5707818269729614,-0.09303034842014313 -0.2060307413339615 0.31118977069854736!-0.0256191398948431 0.0494973286986351 0.010435710661113262,0.0024326597340404987 0.015945415943861008 -0.04242682084441185,-0.06926652044057846 -0.02618430182337761 -0.07765450328588486!-0.13879607617855072 0.04118989408016205 0.06056671589612961,-0.21122951805591583 -0.14162735641002655 0.05513070896267891,-0.22955285012722015 -0.061429448425769806 -0.1187465712428093!0.02383296750485897 0.003763953922316432 -0.041614145040512085,-0.02869032882153988 -0.0009604791994206607 -0.05199877545237541,0.006523748394101858 -0.00588381290435791 0.032331548631191254!0.18447335064411163 0.12926405668258667 -0.20727205276489258,0.14235347509384155 0.35931891202926636 -0.2984555661678314,0.3225841522216797 0.5673059821128845 0.06942931562662125!0.11831197887659073 0.021824616938829422 -0.3420383036136627,0.1887463629245758 0.25871098041534424 -0.7406393885612488,0.31343644857406616 0.5110859274864197 -0.11337614059448242!0.07026220858097076 0.05240631476044655 -0.08316124975681305,0.004203004762530327 0.08952930569648743 0.04870755597949028,-0.2967473566532135 -0.2978786826133728 0.213065043091774!0.03811962530016899 -0.07248031347990036 -0.03129519149661064,0.0013612012844532728 -0.07204854488372803 0.04695454239845276,0.0754777044057846 0.014738480560481548 -0.061917901039123535
0.006779483985155821 0.023665325716137886 -0.002534838393330574,-0.043398529291152954 -0.05723084136843681 -0.06730713695287704,-0.008275509811937809 -0.1223200187087059 0.0016847447259351611!-0.022003162652254105 0.0776803120970726 -0.08934218436479568,0.14527224004268646 0.08837898820638657 0.01023227907717228,0.07345988601446152 -0.011439718306064606 0.1332821100950241!-0.03653975576162338 0.00024862680584192276 0.09637049585580826,0.06777436286211014 -0.039719514548778534 -0.031074747443199158,0.014389852993190289 0.04149666056036949 -0.2651901841163635!-0.23963861167430878 -0.1715676188468933 -0.07152523845434189,0.0037012258544564247 -0.01987369917333126 0.004860763903707266,-0.05127078667283058 -0.06507384032011032 -0.18903684616088867!-0.012990693561732769 -0.014053860679268837 -0.04047856852412224,-0.006457612384110689 -0.007428284268826246 0.0893125981092453,0.09729411453008652 0.08762258291244507 0.13440749049186707!-0.0047994754277169704 0.016170552000403404 -0.04985998198390007,0.0322100929915905 -0.07990334182977676 0.039306074380874634,0.015284627676010132 0.025608688592910767 0.030512362718582153!-0.03241046890616417 0.09666220098733902 -0.005210676230490208,0.07174911350011826 0.025666367262601852 -0.0223504938185215,0.08964676409959793 0.036144208163022995 0.1332358568906784!-0.06252341717481613 -0.014800084754824638 -0.03269907459616661,-0.03747227415442467 0.14652489125728607 0.1348741352558136,-0.09209524095058441 -0.2277369499206543 0.10651835054159164!-0.03722814470529556 0.07389937341213226 -0.14483119547367096,-0.23698543012142181 -0.37501469254493713 -0.5071905851364136,-0.11310599744319916 -0.43872538208961487 -0.04921802505850792!-0.02558274194598198 -0.0430217906832695 -0.026795586571097374,-0.017626460641622543 0.07972000539302826 0.04455677419900894,0.08200943470001221 0.022849630564451218 0.018869271501898766!-0.011670505627989769 0.0641462504863739 -0.019255544990301132,-0.05010804533958435 0.09210760146379471 0.088736392557621,0.05290660634636879 0.13200479745864868 0.13567978143692017!0.016964396461844444 -0.02844110131263733 -0.06266885995864868,-0.061034224927425385 -0.04977812618017197 0.025133630260825157,0.04502267763018608 0.0729093849658966 -0.026359310373663902!-0.033125098794698715 -0.09817466139793396 0.030653091147542,0.028922630473971367 -0.0221259705722332 -0.013804319314658642,-0.004485371522605419 0.022909794002771378 -0.19554898142814636!0.026756832376122475 -0.0018835879163816571 0.11851312965154648,0.0031429387163370848 -0.016581837087869644 -0.04533063620328903,0.01620391383767128 -0.06336504966020584 -0.3075454831123352!0.06295134872198105 0.1265089064836502 -0.08190059661865234,0.12154791504144669 0.041643574833869934 -0.14446085691452026,0.05281876027584076 0.06716590374708176 -0.05537661910057068!0.0497504286468029 0.020380130037665367 -0.05559306591749191,0.029015570878982544 -0.04997779056429863 -0.026231735944747925,-0.03972240537405014 -0.05669284984469414 0.0656309574842453
0.07890167832374573 -0.17233730852603912 0.04323200508952141,0.0733209177851677 -0.17469105124473572 0.26553207635879517,0.05606893077492714 -0.1394982486963272 0.36188217997550964!-0.03804326429963112 -0.17745615541934967 0.12156741321086884,-0.06235736608505249 -0.1765315979719162 0.23124383389949799,-0.053860459476709366 -0.15127918124198914 0.2774825990200043!-0.0018779283855110407 0.11203193664550781 -0.14588883519172668,-0.07841230183839798 0.16897492110729218 -0.07451440393924713,0.10352587699890137 0.17189355194568634 -0.1348276138305664!-0.09849075973033905 0.14438751339912415 0.03565436974167824,0.06072061508893967 0.0922200083732605 -0.049489594995975494,0.0542156845331192 0.08482509851455688 -0.17224787175655365!-0.10567876696586609 -0.08712209016084671 0.07829936593770981,0.007702349219471216 -0.055564917623996735 0.11119040101766586,-0.050269681960344315 -0.06058172136545181 0.1508818119764328!-0.04126197099685669 0.07186442613601685 -0.0644710585474968,0.012212356552481651 -0.07322686165571213 -0.0028272271156311035,-0.0370301716029644 0.02742895483970642 -0.0467948317527771!0.19039687514305115 -0.18620604276657104 0.10285146534442902,-0.030277041718363762 -0.04538661241531372 0.08056613802909851,0.1213681548833847 -0.13812315464019775 0.2715367376804352!0.08870048075914383 -0.5443788170814514 0.02811553329229355,0.043207570910453796 -0.5023366808891296 0.19614562392234802,0.04747774824500084 -0.34874194860458374 0.4839484691619873!0.5091298818588257 -0.8538040518760681 -0.40790656208992004,0.6050048470497131 -1.4513765573501587 -0.41195932030677795,0.3183010220527649 -0.8318923115730286 -0.10427254438400269!-0.008953243494033813 0.06092790886759758 0.0640772208571434,0.012867669574916363 0.03976265713572502 -0.07766641676425934,0.00019685427832882851 -0.07372363656759262 0.028362464159727097!-0.09066671878099442 -0.09299807995557785 0.045295171439647675,0.08075930178165436 -0.0797891840338707 -0.007429692428559065,0.04177619144320488 0.00567754078656435 0.022633111104369164!-0.026024192571640015 -0.054736971855163574 0.035572975873947144,0.08164682239294052 -0.04033992812037468 0.03930531069636345,0.040699552744627 0.06698308885097504 -0.009487817995250225!-0.07372092455625534 0.18011853098869324 0.008676767349243164,0.020524917170405388 0.09980322420597076 -0.03405238687992096,0.053234051913022995 0.10014012455940247 -0.11782550066709518!-0.07786419242620468 0.21200114488601685 -0.13623423874378204,-0.03512090444564819 0.18949349224567413 -0.2238510698080063,-0.026506397873163223 0.15619876980781555 -0.1461493968963623!-0.11109472066164017 -0.11836349964141846 0.13329529762268066,-0.03259255364537239 -0.03551151603460312 0.20187316834926605,-0.11329609155654907 -0.020073357969522476 0.2817472219467163!0.01614641211926937 0.01952008530497551 -0.02852322719991207,-0.04907379671931267 0.055171988904476166 0.011197715997695923,0.03487914055585861 -0.031560808420181274 0.04036412760615349
0.2501142621040344 -0.07562431693077087 0.0379716157913208,0.28196102380752563 -0.18556244671344757 -0.10974723100662231,0.4268282353878021 0.022872187197208405 -0.3101995587348938!0.028954803943634033 -0.09218543022871017 0.05648663640022278,0.10160808265209198 -0.25822773575782776 0.016034157946705818,0.1918216496706009 -0.07690396159887314 -0.18524649739265442!-0.1324031800031662 0.10345126688480377 0.00826199259608984,-0.309334933757782 0.032960064709186554 0.11860167980194092,-0.33135104179382324 -0.028842901811003685 0.0727522224187851!-0.05396444723010063 -0.011232510209083557 -0.05677336826920509,0.030554775148630142 0.06670162081718445 -0.07641620934009552,-0.3314857482910156 -0.05938147380948067 -0.06058841198682785!0.09104212373495102 -0.09455648809671402 0.038379281759262085,0.07479120790958405 -0.09248898178339005 -0.0001526840787846595,0.17795947194099426 0.005029527470469475 -0.185547336935997!-0.06384097784757614 -0.004003326408565044 -0.07726147770881653,-0.07569664716720581 0.07357596606016159 -0.00633828854188323,-0.041199199855327606 -0.028584739193320274 -0.06506021320819855!0.23227104544639587 -0.1566837728023529 -0.0016427284572273493,0.02678219974040985 -0.20085571706295013 -0.1113763079047203,0.28498968482017517 -0.09873594343662262 -0.22685258090496063!0.11227469146251678 0.0783940851688385 0.022795069962739944,0.3022898733615875 -0.045491885393857956 0.11497516185045242,0.3003869354724884 0.1601186841726303 -0.2643575966358185!-0.06269006431102753 -0.15020230412483215 0.16884368658065796,-0.17391902208328247 -0.32313117384910583 0.3115703761577606,-0.028750458732247353 0.0235688928514719 0.013205538503825665!-0.021801909431815147 0.05156363174319267 -0.06639354676008224,-0.01672714576125145 0.06100344657897949 0.039394352585077286,-0.011097709648311138 -0.01946088671684265 -0.05088454484939575!0.341532826423645 -0.0033365886192768812 -0.07976704835891724,0.3422139585018158 0.12836185097694397 -0.09411883354187012,0.24477513134479523 0.13317209482192993 0.03651372715830803!-0.04099470376968384 -0.08243834227323532 0.015459279529750347,0.04382450506091118 0.019904762506484985 0.059109531342983246,-0.06612284481525421 0.04202383756637573 -0.05180661007761955!0.010129791684448719 0.13171255588531494 0.06206448748707771,-0.14518894255161285 -0.01372883003205061 -0.014743921346962452,-0.45565265417099 0.005355673376470804 0.097475565969944!-0.07263126224279404 0.18544542789459229 0.1696673333644867,-0.41942331194877625 0.05352144315838814 0.08794228732585907,-0.44108298420906067 0.006500768940895796 0.08754056692123413!-0.21060216426849365 0.017355524003505707 0.05681882053613663,-0.22996072471141815 -0.30671200156211853 0.016218386590480804,-0.09172961115837097 -0.2548987865447998 -0.16828517615795135!0.0018721421947702765 -0.056977223604917526 -0.050516437739133835,0.06159480661153793 0.04058492183685303 0.043936651200056076,-0.02483140490949154 -0.014349689707159996 -0.021356474608182907
0.18190044164657593 -0.0402052216231823 0.10268744081258774,0.13708563148975372 -0.13007526099681854 -0.05044630542397499,-0.007356986403465271 -0.09577521681785583 0.010939521715044975!0.08556206524372101 0.09858909994363785 0.007573948707431555,0.09359914064407349 -0.10294289886951447 -0.04806206002831459,0.03307037800550461 0.10374493151903152 0.06663712859153748!-0.10873763263225555 -0.0006376955425366759 -0.07646695524454117,-0.08273877203464508 -0.15589042007923126 -0.15118736028671265,0.0169428288936615 -0.07448725402355194 -0.1564714014530182!-0.09450319409370422 -0.07186006009578705 -0.12055495381355286,-0.013410785235464573 -0.15283939242362976 -0.2017403393983841,-0.19031621515750885 -0.08904193341732025 -0.14379115402698517!0.13996699452400208 0.05410001054406166 0.10672060400247574,0.03455052524805069 0.11033337563276291 0.11592274159193039,-0.041658878326416016 0.011341242119669914 -0.05175898224115372!0.03540223836898804 -0.0728069394826889 -0.039400987327098846,0.08326437324285507 -0.07957635819911957 0.0614837110042572,0.007039924617856741 0.06663622707128525 -0.04229077696800232!0.1778005063533783 0.04850929602980614 0.09230103343725204,0.12035533785820007 -0.1141563206911087 -0.08758486062288284,0.12669868767261505 -0.03708769753575325 -0.033954065293073654!0.20048320293426514 0.056727126240730286 0.05283888801932335,0.15568552911281586 0.24168966710567474 0.08374155312776566,-0.11004037410020828 -0.046098653227090836 -0.059239912778139114!0.29148921370506287 0.15291345119476318 0.13843506574630737,0.3042544424533844 0.38202983140945435 0.38144662976264954,0.06184450164437294 0.017821138724684715 0.10366275161504745!0.029191335663199425 0.057629507035017014 -0.006509820930659771,-0.031789958477020264 -0.05646158382296562 -0.01816454902291298,0.02974470518529415 -0.07017987966537476 -0.010174731723964214!0.13486815989017487 0.13762393593788147 0.07768621295690536,0.1365388035774231 0.13792401552200317 0.1115780919790268,0.12131128460168839 0.03363683074712753 0.009316162206232548!-0.018000176176428795 -0.015113651752471924 0.006119768135249615,-0.009165018796920776 0.033690713346004486 0.055379174649715424,-0.033785026520490646 -0.07907172292470932 -0.042754970490932465!-0.1119672879576683 0.01880897395312786 -0.1221107468008995,-0.09355327486991882 -0.08689192682504654 -0.16504687070846558,-0.023991495370864868 -0.024007955566048622 -0.06723465770483017!-0.08287380635738373 -0.019076885655522346 -0.014888431876897812,-0.08539751172065735 -0.12512004375457764 -0.12144695222377777,-0.0659424439072609 -0.042671870440244675 -0.1612095832824707!0.0324050597846508 -0.0707077831029892 0.13790220022201538,-0.01881188526749611 -0.10476334393024445 0.07526702433824539,0.09779533743858337 0.022862404584884644 0.10580859333276749!-0.0485791377723217 0.029865067452192307 -0.00018794338393490762,-0.06778925657272339 -0.03227457404136658 0.021207263693213463,0.015920152887701988 0.06059461832046509 0.05574941635131836
-0.5086455345153809 0.2703395187854767 0.49371543526649475,-0.23289401829242706 -0.5209991335868835 -0.4280451536178589,0.16491958498954773 0.027977891266345978 -0.10042386502027512!-0.07261775434017181 0.11396504938602448 0.3667432963848114,-0.08631206303834915 -0.3652828633785248 -0.18384100496768951,0.010123657993972301 0.015143212862312794 -0.10817104578018188!0.049142900854349136 0.050248876214027405 0.004465064965188503,-0.017182739451527596 0.12925779819488525 0.17492665350437164,-0.014201418496668339 -0.026806479319930077 0.061398137360811234!-0.08162973821163177 0.028165122494101524 -0.012665442191064358,0.013170978985726833 -0.014865372329950333 0.10713765770196915,0.03994620591402054 0.12045308202505112 0.04572078213095665!0.01265890896320343 0.061724692583084106 0.05817115306854248,-0.028842352330684662 -0.19042013585567474 -0.02548251673579216,-0.03902939334511757 -0.010488182306289673 0.010485688224434853!0.006917695514857769 0.03572096675634384 0.05301784723997116,-0.06503820419311523 0.05513003468513489 -0.012478232383728027,-0.019379090517759323 0.016773462295532227 0.06517931073904037!-0.18950921297073364 0.20182542502880096 0.3679579794406891,-0.1164676770567894 -0.1279859095811844 -0.03984161093831062,0.11908376961946487 0.013837999664247036 -0.17092986404895782!-0.7695763111114502 -0.3949563503265381 0.6116858720779419,0.22495459020137787 -0.6841122508049011 -0.9937663078308105,0.2840155363082886 0.29405006766319275 0.335588276386261!-0.28192004561424255 -0.8911669850349426 0.7310697436332703,0.5970794558525085 0.3857469856739044 -0.7244810461997986,0.4728164076805115 0.29077470302581787 0.438419371843338!0.027852218598127365 0.06571924686431885 0.0207957923412323,0.05597732588648796 0.054003190249204636 0.02114136889576912,0.028974046930670738 0.0268903486430645 0.008643895387649536!-0.026408854871988297 0.09576188027858734 0.08266586065292358,0.004463039804250002 0.02054058201611042 -0.13915644586086273,0.12121449410915375 -4.715274917543866e-05 0.023852646350860596!-0.0064029693603515625 -0.062174826860427856 0.05944490432739258,-0.03643796965479851 0.021926045417785645 0.04721209406852722,-0.07787713408470154 0.005530327558517456 -0.02960219979286194!0.13390597701072693 -0.021350326016545296 0.025297483429312706,0.11391139775514603 0.16792058944702148 0.22957803308963776,0.005969238933175802 -0.08156145364046097 0.17434242367744446!0.08895446360111237 -0.0005511028575710952 -0.11530787497758865,0.07873833924531937 0.17403194308280945 0.3061835467815399,0.01669955439865589 -0.009853843599557877 0.22509360313415527!-0.05399249494075775 -0.05631900206208229 0.238419309258461,-0.46212470531463623 -0.2480650395154953 -0.22436660528182983,-0.17124423384666443 -0.1779853254556656 -0.3492710292339325!-0.024176936596632004 0.058566223829984665 0.05073379725217819,0.02579762600362301 -0.0244439747184515 -0.07778092473745346,-0.04477722570300102 0.043448369950056076 -0.03361314535140991
0.2652088701725006 0.29966577887535095 -0.07471046596765518,0.2980790436267853 -0.09727615863084793 -0.3039391338825226,-0.0930592492222786 -0.4882148206233978 0.25948667526245117!0.19946159422397614 0.16142164170742035 -0.04279825836420059,0.06900349259376526 -0.11775524914264679 -0.32267194986343384,-0.13023291528224945 -0.23480768501758575 0.3132927119731903!-0.12727534770965576 -0.15995651483535767 0.07847914844751358,0.031176505610346794 0.08158527314662933 0.33808645606040955,0.14631445705890656 0.12030083686113358 -0.017449423670768738!0.008971101604402065 -0.061643533408641815 0.12316346168518066,0.08131798356771469 0.1878303438425064 0.26390883326530457,0.1594938486814499 0.13346290588378906 0.1096644476056099!0.07980748265981674 0.17829996347427368 -0.11048978567123413,0.11608199775218964 -0.05662614852190018 -0.12256481498479843,-0.05660216137766838 0.011245671659708023 0.2180311530828476!0.020911872386932373 -0.007202416658401489 -0.004671613685786724,-0.03378177806735039 -0.007478117942810059 -0.005757828708738089,0.07091355323791504 0.048770349472761154 -0.06668533384799957!0.19225651025772095 0.20041610300540924 0.0376162976026535,0.1588699072599411 0.061768658459186554 -0.204911470413208,0.09249207377433777 -0.13622866570949554 0.09893274307250977!0.21202321350574493 0.0911545678973198 -0.5885316133499146,0.229226216673851 -0.5162309408187866 -0.8250327110290527,-0.3096928596496582 -0.4796489179134369 0.33408746123313904!-0.2068464457988739 -0.4475008249282837 -1.2401713132858276,-0.14294390380382538 -1.3979572057724 -2.2011382579803467,-0.6602029800415039 -0.9451513290405273 -0.3887767195701599!-0.03316206857562065 -0.0005053778877481818 -0.06619014590978622,-0.05074179172515869 -0.0019005239009857178 0.07403144240379333,-0.025625696405768394 0.04130495712161064 -0.03279586881399155!0.07150769233703613 -0.04243292659521103 0.12794990837574005,0.19664061069488525 0.04306303337216377 0.04680446907877922,0.09929454326629639 0.03364802524447441 0.04411221295595169!-0.07933255285024643 -0.07830589264631271 -0.0639616996049881,0.026065468788146973 -0.07208138704299927 -0.06361205875873566,-0.04039190337061882 -0.07680711150169373 0.00011228521907469258!-0.17242664098739624 -0.15466150641441345 0.0878913626074791,0.015485354699194431 0.014129417948424816 0.25859683752059937,0.12400030344724655 0.10748516023159027 -0.048846207559108734!-0.2703220844268799 -0.10351922363042831 0.11281348764896393,0.026716768741607666 -0.000815653009340167 0.19484616816043854,-0.012427505105733871 0.12448316067457199 0.07905621081590652!0.14326085150241852 0.3875455856323242 0.014567907899618149,0.07128428667783737 -0.1157861053943634 -0.25000348687171936,-0.23871417343616486 -0.05424331873655319 0.4791127145290375!-0.009880751371383667 0.017150938510894775 0.03318409249186516,0.00048551958752796054 -0.06721453368663788 -0.05134271830320358,-0.05661273002624512 -0.0021160244941711426 -0.07628347724676132
-0.05839477479457855 -0.007786755915731192 -0.0046315742656588554,0.08913476020097733 0.07228891551494598 -0.027073660865426064,0.10327700525522232 0.0880727767944336 -0.0525067038834095!0.03582067787647247 0.025267988443374634 -0.07338686287403107,-0.012597998604178429 0.0139476228505373 0.10351864993572235,0.13640578091144562 0.23289214074611664 0.1462269127368927!-0.0006448852946050465 0.05552924796938896 0.11846043169498444,-0.05046204850077629 -0.0856606662273407 -0.09212189167737961,0.007081227842718363 0.019417081028223038 -0.12676307559013367!-0.07217861711978912 -0.020610390231013298 0.015929820016026497,-0.07952270656824112 0.041969601064920425 0.027179572731256485,0.0033382766414433718 -0.01959696039557457 -0.034517109394073486!0.06091468036174774 0.08253294229507446 0.020542630925774574,0.06738106906414032 0.05739010497927666 0.00811775028705597,0.07161877304315567 0.0513143390417099 0.15706145763397217!0.07521897554397583 0.016532551497220993 0.07448359578847885,-0.04291824623942375 0.07243125885725021 0.0717487633228302,-0.0031850836239755154 -0.06687578558921814 -0.02689136192202568!-0.05118705332279205 0.03579320013523102 -0.16517215967178345,0.06192639097571373 -0.05498253181576729 -0.08642968535423279,0.09163211286067963 0.06818166375160217 0.03552892431616783!-0.04559507220983505 0.046286698430776596 0.14281529188156128,0.020230455324053764 0.15124602615833282 0.47853273153305054,0.018046243116259575 -0.08633827418088913 -0.17995260655879974!-0.05001906305551529 -0.26194554567337036 -0.2982019782066345,-0.33361443877220154 -0.6241225600242615 -0.06439579278230667,-0.22353297472000122 -0.6972455978393555 -0.6508920192718506!-0.04921012371778488 -0.034291528165340424 0.050049107521772385,0.03673718124628067 -0.03211434930562973 0.07083570957183838,-0.0517694354057312 -0.06789066642522812 0.018187513574957848!-0.09546275436878204 0.07525219768285751 0.10942540317773819,-0.00038456052425317466 0.030669692903757095 0.1091192364692688,-0.013440795242786407 0.15312719345092773 0.0377236008644104!0.04028832167387009 -0.0662643164396286 -0.0564056858420372,0.009179553017020226 0.0296170711517334 0.06461626291275024,0.06969466060400009 -0.004792630672454834 -0.010713934898376465!-0.007094891741871834 0.017508482560515404 -0.0021222501527518034,-0.1552170068025589 -0.08137337118387222 0.008793601766228676,-0.12600278854370117 0.05298955738544464 -0.07733660936355591!0.04790949448943138 0.13318891823291779 -0.01948297582566738,-0.07511972635984421 -0.05898771807551384 -0.08763591945171356,-0.14407023787498474 -0.005187892355024815 -0.2503921687602997!0.2144203633069992 0.13470332324504852 -0.02773350663483143,0.01380898430943489 -0.010824538767337799 -0.04916400462388992,0.13932687044143677 0.25226709246635437 -0.151370108127594!-0.04525307938456535 0.06637956947088242 0.059951722621917725,0.04825083538889885 -0.06497644633054733 0.06489939987659454,-0.007965992204844952 0.06139642000198364 0.07237912714481354
-0.24938608705997467 -0.44415006041526794 0.20029592514038086,0.05130253732204437 -0.3342077136039734 -0.2843191623687744,0.27040672302246094 -0.15547430515289307 -0.5082692503929138!-0.21615570783615112 -0.3256419003009796 -0.020221300423145294,0.2851696014404297 -0.32090142369270325 0.02202812395989895,0.19359607994556427 -0.15329252183437347 -0.23344573378562927!0.13747967779636383 0.10573596507310867 -0.030937867239117622,0.017336957156658173 0.1320384293794632 0.13780871033668518,0.03213225677609444 0.08137272298336029 0.17016500234603882!0.1662610024213791 0.10940401256084442 -0.03771735355257988,0.08807481080293655 0.08382343500852585 0.11455629020929337,0.11152689158916473 0.15107093751430511 0.09306605160236359!0.06845244020223618 -0.02316376566886902 0.04098600149154663,0.07399746030569077 -0.08410394191741943 -0.037477921694517136,0.07339982688426971 0.04288027808070183 -0.022087376564741135!-0.02162851020693779 -0.05694863200187683 0.07560738176107407,-0.027611684054136276 0.03971273824572563 0.05803418159484863,-0.05477973818778992 -0.010418593883514404 0.048163942992687225!-0.05890689045190811 -0.05255292356014252 0.2965483069419861,0.09052660316228867 -0.1866345852613449 0.04166518896818161,0.26074209809303284 0.16997812688350677 -0.16145581007003784!-0.1875568926334381 -1.1491817235946655 -0.5943589806556702,0.18879182636737823 -0.2964232563972473 -1.1548097133636475,0.36038461327552795 -0.11643138527870178 -0.9631124138832092!0.5613845586776733 -0.09203097224235535 -1.0575227737426758,0.21002738177776337 0.23212403059005737 -1.2285929918289185,0.28777962923049927 0.29148203134536743 -0.7795708775520325!-0.01640407368540764 -0.059596948325634 -0.013826906681060791,-0.08170361816883087 0.04756341502070427 0.06035446375608444,-0.023991506546735764 0.07725413888692856 -0.030857613310217857!0.09262584149837494 0.0003277059004176408 0.046552691608667374,0.09041756391525269 0.12189653515815735 0.03653758019208908,0.03768003731966019 0.13676534593105316 0.10790988802909851!0.013373374938964844 -0.038322996348142624 0.017668794840574265,0.00022283196449279785 0.07613357901573181 0.01234939694404602,0.006427447311580181 0.005696624517440796 0.04433409497141838!0.11328218132257462 0.21526175737380981 0.08368553966283798,0.02697158418595791 0.15149468183517456 0.055799104273319244,-0.05930405110120773 0.08893324434757233 0.21442680060863495!0.09354523569345474 0.2531072199344635 -0.05929039418697357,0.05709664896130562 0.208176851272583 0.11111176013946533,-0.02296464890241623 0.1879359930753708 0.23705236613750458!-0.4031919240951538 -0.14227725565433502 0.18007560074329376,-0.06433948129415512 -0.23486310243606567 0.23578761518001556,0.39728325605392456 -0.08392400294542313 0.04107386991381645!-0.01122417114675045 -0.0689912959933281 -0.03953035920858383,0.02838902734220028 0.058462224900722504 -0.03255870193243027,0.06895159184932709 0.011977186426520348 0.0003310044703539461
-0.17353184521198273 0.02563493140041828 0.2668604552745819,0.1443086862564087 -0.24785549938678741 0.06802347302436829,0.319057434797287 -0.5496432781219482 0.08616213500499725!-0.10899706929922104 0.04478137195110321 -0.034056104719638824,-0.0034570025745779276 -0.15506885945796967 0.0622357577085495,0.05729980021715164 -0.3807482421398163 0.08379418402910233!0.026634452864527702 0.1236981526017189 -0.026237135753035545,-0.011747119948267937 0.19597363471984863 0.005879927426576614,0.04496978223323822 0.24337264895439148 0.0764850601553917!0.010765111073851585 0.09074342250823975 -0.036647994071245193,0.04066913574934006 0.13900066912174225 -0.017984610050916672,0.011879874393343925 0.14187540113925934 0.05257979780435562!-0.05543586239218712 0.05118320882320404 -0.014468246139585972,-0.029454227536916733 0.017853891476988792 0.040698595345020294,-0.020671280100941658 -0.060396596789360046 0.03207501024007797!-0.0518014058470726 -0.05619695037603378 -0.08070576190948486,0.021531959995627403 -0.05376912280917168 0.006350696086883545,-0.018638184294104576 -0.05448833107948303 -0.026591569185256958!-0.06433042883872986 0.1445828527212143 0.1795930117368698,0.056126125156879425 -0.1508476734161377 0.23351815342903137,0.2952507734298706 -0.20647858083248138 0.09017224609851837!-0.724513053894043 -1.122058391571045 0.03529344126582146,-0.1026688665151596 -1.3461463451385498 -0.27487531304359436,-0.0272775050252676 -0.8330910801887512 -0.38374826312065125!-0.20603899657726288 -1.427433729171753 -0.2009337693452835,0.17227379977703094 -0.744299590587616 -1.216135859489441,0.2641364634037018 -0.47638458013534546 -1.1091749668121338!0.023132553324103355 0.07104893028736115 0.0772988423705101,0.00908222608268261 -0.0417204424738884 0.08098708838224411,0.006219198461622 0.05638141557574272 -0.043284785002470016!-0.04577970877289772 -0.08315592259168625 0.10412747412919998,0.049366094172000885 -0.04593886062502861 0.0030383500270545483,0.012767987325787544 0.0203962791711092 0.019132567569613457!-0.04135289788246155 0.014541616663336754 -0.05261513590812683,0.016057979315519333 -0.08046136796474457 0.01327928900718689,0.08279326558113098 0.07675939053297043 0.030398428440093994!0.16283409297466278 0.17383421957492828 -0.005312085617333651,0.07080161571502686 0.1534661054611206 0.12628993391990662,0.07093045115470886 0.09734055399894714 0.13160713016986847!0.04701457545161247 0.16569727659225464 -0.17410045862197876,0.11337263137102127 0.17038311064243317 0.03997351601719856,0.04341913014650345 0.16593997180461884 0.19841140508651733!-0.14978846907615662 -0.03509729355573654 0.030592262744903564,-0.08255903422832489 0.029313674196600914 0.11844713240861893,-0.045626454055309296 -0.2494587004184723 0.12162133306264877!0.0393298864364624 0.03709733486175537 0.03299877047538757,-0.07947814464569092 0.06905659288167953 -0.0348072350025177,0.07211801409721375 0.0686625987291336 0.03088756464421749
0.1715540885925293 0.08888281881809235 0.0003678578941617161,0.13446596264839172 0.2982683479785919 0.34992778301239014,-0.38156363368034363 -0.3071531653404236 -0.10367026925086975!0.12374677509069443 0.03253073990345001 0.0026404988020658493,0.05717983469367027 0.16907957196235657 0.23773546516895294,-0.29500433802604675 -0.328885018825531 -0.1637626737356186!-0.004732389468699694 0.07086260616779327 -0.11589255183935165,-0.09391641616821289 0.05513014644384384 -0.3917841613292694,0.08281310647726059 0.2919620871543884 -0.06390412896871567!-0.035007819533348083 0.12677869200706482 -0.09119686484336853,0.07324142754077911 0.05068584904074669 -0.19443579018115997,0.19062349200248718 0.1886327564716339 0.05764419212937355!-0.05849900469183922 -0.0376201756298542 -0.10058323293924332,-0.0030749626457691193 0.06718128174543381 0.08238445222377777,-0.18023993074893951 -0.16405172646045685 -0.030163468793034554!0.056223027408123016 0.0724945068359375 0.02451888844370842,0.04378826543688774 0.07803262770175934 0.06841996312141418,-0.06403324007987976 -0.01868573948740959 -0.08037208020687103!0.015245378017425537 -0.056251730769872665 -0.049418725073337555,0.1755881905555725 0.19326643645763397 0.19838622212409973,-0.43181395530700684 -0.17209704220294952 -0.07500074058771133!0.41835343837738037 0.5483346581459045 0.24923361837863922,0.23213593661785126 0.6470394730567932 0.7602884769439697,-0.7089663147926331 -0.6818010807037354 -0.7080082297325134!0.1440116912126541 0.08973105251789093 0.20137254893779755,-0.06916379183530807 0.4602304995059967 0.9787355661392212,-0.47756579518318176 -1.0248517990112305 -0.11802063882350922!0.056793212890625 -0.03997685760259628 0.003916760440915823,0.054446641355752945 -0.06955492496490479 -0.05861698091030121,0.028371751308441162 0.07266049087047577 -0.008817991241812706!0.13664552569389343 -0.017548872157931328 -0.05517670512199402,0.04019002988934517 0.09245951473712921 0.06652915477752686,-0.09905029833316803 -0.023850655183196068 -0.14000225067138672!0.017956992611289024 -0.03922738879919052 -0.008462300524115562,0.027302753180265427 0.036908071488142014 0.01911720633506775,-0.06449608504772186 -0.052152715623378754 0.0014550487976521254!0.008313506841659546 0.03230838105082512 0.038474198430776596,-0.06623685359954834 0.013899224810302258 -0.28176847100257874,0.18940280377864838 0.3134644031524658 0.19548526406288147!-0.001588445738889277 0.002317461185157299 -0.010313430801033974,-0.044986918568611145 -0.003119861474260688 -0.5506904125213623,0.10277310758829117 0.23030351102352142 -0.05826416239142418!-0.24848608672618866 -0.17306749522686005 -0.28068503737449646,-0.0063528940081596375 -0.1159415915608406 0.2054356187582016,-0.12326992303133011 -0.38828277587890625 -0.13454051315784454!-0.07538504898548126 -0.042597413063049316 0.019464951008558273,-0.02494218945503235 -0.023588359355926514 -0.031292907893657684,-0.020353317260742188 0.009585599415004253 0.004934847354888916
0.03297188878059387 0.044803064316511154 0.055171508342027664,-0.011154970154166222 -0.04164397343993187 -0.008693131618201733,-0.04851366952061653 0.037524256855249405 -0.020288322120904922!-0.04387018457055092 -0.0768781304359436 0.025590727105736732,0.03909070044755936 0.07188498973846436 -0.04009198397397995,0.020157799124717712 0.003028217703104019 -0.06457190960645676!-0.05734473839402199 0.040869440883398056 -0.049258675426244736,0.04693686217069626 0.01457230281084776 0.021701347082853317,0.035893358290195465 0.025501323863863945 0.021872686222195625!0.03879629448056221 -0.03831522911787033 -0.0464756153523922,-0.02789200283586979 0.029480254277586937 0.05082143843173981,0.04503627493977547 -0.0397382490336895 -0.02369418367743492!-0.07165846973657608 0.043721701949834824 -0.06746714562177658,-0.04834647849202156 0.06092636287212372 0.009078506380319595,-0.04806996509432793 -0.06601323932409286 -0.06999290734529495!0.06725214421749115 -0.076167032122612 0.07201077789068222,0.06666377186775208 0.005163520574569702 -0.0066795749589800835,0.06481017172336578 0.03674806281924248 0.07879260182380676!0.03555574268102646 -0.07007397711277008 0.02408812753856182,0.023037923499941826 -0.06966081261634827 0.02557177096605301,-0.05808559060096741 -0.05871773883700371 -0.008918986655771732!-0.044846951961517334 -0.02695155143737793 -0.1036137193441391,0.0455440990626812 0.07970144599676132 -0.022749608382582664,-0.061676181852817535 -0.011553921736776829 -0.06875742226839066!-0.07063530385494232 -0.04286102578043938 0.04415510222315788,-0.07777375727891922 -0.021686777472496033 -0.027058947831392288,-0.08544080704450607 -0.030815890058875084 -0.011847041547298431!-0.014011740684509277 0.06092794984579086 0.03338019177317619,0.05188290402293205 0.032640766352415085 0.008743127807974815,0.04522993415594101 -0.05316246673464775 0.042461127042770386!0.016561171039938927 -0.04977542906999588 -0.013895358890295029,-0.08100200444459915 -0.0888153538107872 -0.014136138372123241,-0.0015643909573554993 -0.03387385979294777 0.01576388068497181!-0.06433352082967758 -0.04580686613917351 0.057516299188137054,-0.08109767735004425 0.013085117563605309 0.06415604799985886,0.06247394531965256 0.02842653915286064 -0.07590839266777039!0.0037132599391043186 -0.028792178258299828 -0.030619869008660316,0.05085434392094612 -0.043544214218854904 -0.06944119930267334,-0.0857761949300766 0.035907261073589325 -0.009592736139893532!0.08062586188316345 0.01294654794037342 -0.07452555000782013,0.011191042140126228 0.061331674456596375 0.04552985355257988,0.0037084510549902916 -0.07907270640134811 -0.06092434003949165!0.038861457258462906 -0.06130917742848396 -0.011248026974499226,-0.023485304787755013 0.0200637374073267 -0.01718745008111,-0.07805830985307693 -0.04653714597225189 0.05735692009329796!0.009809643030166626 0.04225458949804306 -0.042041897773742676,0.0659700557589531 -0.017838656902313232 -0.028088649734854698,0.016904544085264206 -0.029859444126486778 -0.033487461507320404
-0.013376083225011826 0.03258312866091728 0.02766808308660984,0.08599677681922913 -0.052454348653554916 0.12115839868783951,0.1547664850950241 0.10143488645553589 -0.22732111811637878!-0.007053753361105919 0.04402453452348709 0.20362228155136108,0.10056138783693314 0.032125260680913925 0.11967834830284119,0.21283435821533203 0.17430247366428375 -0.1273796409368515!-0.14748716354370117 0.1272958517074585 0.06091701611876488,-0.02448422461748123 -0.17918379604816437 0.013585226610302925,-0.09661270678043365 -0.059634726494550705 0.03313480317592621!-0.2600823640823364 0.13911284506320953 0.12115684896707535,-0.05663657188415527 0.03097989223897457 -0.061287086457014084,-0.044203776866197586 -0.08328118920326233 -0.001197691773995757!-0.034391000866889954 0.04143887013196945 0.057772595435380936,-0.05009080842137337 0.017940549179911613 0.1044674664735794,0.011583885177969933 -0.03179507702589035 -0.09470120072364807!-0.013586084358394146 0.03001190349459648 0.0741061270236969,0.0015465717297047377 0.02983693964779377 0.04794759675860405,-0.03633764386177063 -0.027651410549879074 0.05527549237012863!0.07613985240459442 0.043391186743974686 -0.017832282930612564,0.08039358258247375 -0.09465546905994415 0.10977324843406677,0.0828947201371193 0.125120148062706 -0.1511024534702301!0.021146535873413086 0.1755835860967636 0.35630038380622864,0.1707034558057785 0.497983455657959 0.351194828748703,-0.17848597466945648 0.016256311908364296 -0.40573784708976746!-0.01699681766331196 -0.11902077496051788 0.006517570000141859,-0.2776448130607605 -0.4923951327800751 -0.0932970717549324,-0.9992420077323914 -0.9474285840988159 -0.4851653277873993!-0.00015211105346679688 0.023144017904996872 -0.00914674997329712,0.06289459019899368 -0.028751980513334274 -0.01171752531081438,-0.01978914998471737 0.014877498149871826 0.06676836311817169!-0.13897503912448883 -0.005291895009577274 -0.004819642752408981,-0.06733699142932892 -0.0026494849007576704 -0.07538019120693207,-0.01652313768863678 -0.009127939119935036 0.04039615020155907!0.0049787163734436035 -0.05470545217394829 -0.05602451413869858,-0.08139374107122421 -0.0466151237487793 0.023279529064893723,0.005077153444290161 0.06267517060041428 -0.07327620685100555!-0.10290445387363434 -0.03649909421801567 -0.09558580070734024,-0.09348920732736588 -0.25809404253959656 0.05450260639190674,-0.21694785356521606 0.022129226475954056 -0.05047211796045303!0.032601673156023026 0.17498788237571716 -0.04958038777112961,-0.12927019596099854 -0.16079314053058624 -0.13066549599170685,-0.06287853419780731 -0.1177419126033783 0.009996381588280201!-0.10730308294296265 -0.137928768992424 0.15569090843200684,-0.11811079829931259 0.035012222826480865 0.09624660015106201,0.2476014941930771 0.01963527500629425 -0.29434341192245483!-0.027409464120864868 0.01985030435025692 -0.06292092800140381,0.03417116403579712 -0.0039478144608438015 -0.039390724152326584,-0.07496696710586548 0.043589018285274506 -0.030158769339323044
0.10347969830036163 0.09255892783403397 0.07315705716609955,0.16311892867088318 0.20169836282730103 0.16403916478157043,0.06310448050498962 0.27015221118927 0.12689761817455292!0.10417890548706055 0.02802213467657566 0.08640382438898087,0.24216382205486298 0.13585157692432404 0.2344958484172821,0.14461933076381683 0.10580171644687653 0.21047735214233398!0.194002166390419 0.39418137073516846 0.15189146995544434,0.4997718334197998 0.6167891025543213 0.2244914025068283,0.4736207127571106 0.3883764147758484 -0.5200554728507996!-0.11818122118711472 0.032907914370298386 0.09349900484085083,0.19100868701934814 0.3610791265964508 0.28179582953453064,0.24973687529563904 0.3309987485408783 -0.2600710093975067!-0.15646450221538544 -0.025499247014522552 -0.0641813799738884,-0.10198000818490982 0.030843239277601242 -0.06245623901486397,-0.1087033748626709 0.13300344347953796 -0.04051968455314636!0.0371941439807415 -0.018556546419858932 -0.01687493920326233,-5.3822994232177734e-05 0.06499409675598145 -0.011528005823493004,0.06895547360181808 0.04875898361206055 0.05716739222407341!-0.17939946055412292 -0.0981244444847107 -0.16399069130420685,0.05960645154118538 0.12188365310430527 0.1423323005437851,0.1346157044172287 0.22243598103523254 0.08485157787799835!0.168670654296875 0.3091098666191101 0.21870289742946625,0.22132977843284607 0.27151715755462646 0.18775954842567444,0.16697819530963898 0.2680378258228302 0.28215745091438293!-0.05156368762254715 -0.09299967437982559 -0.3164014220237732,-0.5249063372612 -0.2134786993265152 -0.5059204697608948,-0.7576565742492676 -0.3756333887577057 -0.06261561810970306!-0.050581544637680054 0.022531699389219284 0.011825582012534142,-0.019588328897953033 0.07112150639295578 -0.05961587652564049,0.02937084436416626 -0.04585430026054382 -0.018975716084241867!-0.5718144774436951 -0.392333447933197 -0.39969760179519653,-0.4186716377735138 -0.24813666939735413 -0.19330865144729614,-0.5476889610290527 -0.1989370584487915 -0.2181919664144516!0.06982704997062683 -0.022459467872977257 0.04831015318632126,0.022989323362708092 0.05068355053663254 0.05264235660433769,0.03381799906492233 -0.025128941982984543 -0.023388873785734177!0.1185096949338913 0.29836735129356384 0.16344569623470306,0.40798625349998474 0.47516772150993347 0.26544395089149475,0.39941707253456116 0.45667564868927 -0.3836456835269928!0.2532300055027008 0.4653981924057007 0.2002071589231491,0.5191936492919922 0.6029582619667053 -0.013786813244223595,0.4972987473011017 0.3745560348033905 -0.7236907482147217!-0.08969133347272873 -0.24751700460910797 -0.14500638842582703,0.012338808737695217 -0.10083485394716263 -0.12193400412797928,0.10088302195072174 -0.06291428208351135 0.026736384257674217!-0.04148712754249573 0.0420246422290802 0.012364238500595093,-0.08101092278957367 -0.01472722552716732 -0.022609373554587364,-0.03555912896990776 -0.04622481390833855 -0.06760519742965698
0.10741645842790604 -0.17574481666088104 -0.009736532345414162,-0.12560006976127625 0.013710263185203075 0.07116898149251938,-0.016039587557315826 0.001748471986502409 0.05349438637495041!-0.02863209694623947 -0.13261596858501434 0.04861252382397652,-0.07393431663513184 0.08876138180494308 0.17793264985084534,0.05720836669206619 0.013485687784850597 0.07206344604492188!0.02852705679833889 0.01603737100958824 -0.04837367311120033,0.0059277210384607315 0.014641202986240387 -0.16432639956474304,0.11091239750385284 0.03892938792705536 -0.25892120599746704!-0.015425687655806541 -0.07013696432113647 -0.11232171207666397,0.008021126501262188 -0.1261425018310547 -0.14968013763427734,-0.13265538215637207 0.0014076374936848879 -0.108000747859478!-0.04470522329211235 0.03966332972049713 0.04613198712468147,-0.032731033861637115 0.1453714370727539 0.1337544471025467,0.06235986202955246 0.0025545817334204912 -0.034384436905384064!-0.044839560985565186 0.0313086211681366 0.022448858246207237,-0.04987481236457825 0.0758294016122818 0.04855145141482353,-0.03181730955839157 0.04311494156718254 -0.03532486408948898!0.08869258314371109 -0.009535975754261017 -0.1441182643175125,-0.07459597289562225 0.0058231111615896225 0.07854487001895905,-0.02042587473988533 -0.017276063561439514 0.041424430906772614!-0.11214198917150497 -0.040802281349897385 0.06940528005361557,0.004227598663419485 0.2925344705581665 0.517256498336792,-0.08074603974819183 -0.22421862185001373 -0.1560233235359192!-0.17851968109607697 0.1178380623459816 0.08637169003486633,0.4216814637184143 0.43709343671798706 0.5493742823600769,0.04027688503265381 -0.6046398282051086 -0.44278809428215027!-0.06588780879974365 -0.07497347891330719 0.07847529649734497,-0.06348758190870285 -0.06914617121219635 -0.018345588818192482,0.004679779522120953 0.019086172804236412 -0.04106520861387253!-0.0027120187878608704 0.022756610065698624 0.07686375826597214,0.11654391139745712 0.07321299612522125 0.07073444873094559,0.08115868270397186 -0.006634408142417669 0.09565582871437073!-0.04843815416097641 0.06498846411705017 -0.07366564869880676,0.03096272610127926 -0.06851529330015182 0.048637352883815765,0.015237471088767052 0.07150323688983917 -0.0628514513373375!0.08160287141799927 -0.012555386871099472 -0.09756298363208771,0.0557163842022419 -0.06592089682817459 -0.21076415479183197,-0.019523851573467255 -0.008975284174084663 -0.15419846773147583!0.15491116046905518 0.12771697342395782 0.0007926558027975261,0.010535319335758686 -0.14019037783145905 -0.14870427548885345,0.041574764996767044 -0.027874497696757317 -0.3247499167919159!-0.014143776148557663 -0.05641218274831772 0.02302812971174717,-0.16467063128948212 -0.0021221651695668697 0.040789686143398285,0.013593992218375206 -0.11139426380395889 0.014246119186282158!0.06087655946612358 0.0704357922077179 -0.06798898428678513,-0.07044246047735214 -0.012454500421881676 -0.006357213016599417,0.045994799584150314 0.07844658195972443 0.02139979600906372
0.019924286752939224 -0.057480406016111374 0.08566593378782272,0.08813659101724625 -0.16204024851322174 -0.05734997242689133,-0.07489084452390671 -0.07225203514099121 0.10352350026369095!0.01297764666378498 0.026177290827035904 -0.04563191533088684,0.11601296067237854 -0.007577168755233288 0.04162311181426048,0.0500389002263546 0.04954462870955467 0.0390845388174057!-0.14022085070610046 -0.05861252173781395 0.049285441637039185,-0.14090843498706818 -0.061552226543426514 -0.24815227091312408,-0.04138776659965515 -0.04484774172306061 -0.260211318731308!-0.2073633372783661 -0.20926907658576965 -0.1945933848619461,-0.2239518016576767 -0.13414576649665833 -0.2789946496486664,-0.17112033069133759 -0.06976945698261261 -0.275537371635437!0.10334061831235886 0.09873663634061813 0.010581213049590588,0.05429484322667122 0.06505340337753296 0.1121116578578949,0.07727190852165222 -0.030502494424581528 -0.025582576170563698!-0.07368485629558563 -0.037061743438243866 -0.016821444034576416,-0.02990025281906128 0.05491039529442787 -0.05743103474378586,-0.06651052832603455 -0.06514304876327515 -0.049188099801540375!0.1877104938030243 0.02737913839519024 0.06790405511856079,0.02100721001625061 -0.1282196044921875 -0.06602735072374344,0.08243831992149353 0.08788511157035828 0.1405024528503418!0.03712495416402817 -0.1546223908662796 -0.10598965734243393,0.263699471950531 0.13597595691680908 0.26178210973739624,-0.11816351860761642 0.05731867253780365 0.04997439309954643!0.027002627030014992 -0.1923852115869522 -0.07391469180583954,0.16358619928359985 0.39194974303245544 0.4253721535205841,-0.09781336784362793 -0.11697588860988617 0.06906246393918991!-0.07097243517637253 -0.07893313467502594 0.010452738031744957,-0.037653665989637375 0.0030221939086914062 -0.026456160470843315,-0.05639409273862839 0.056191056966781616 0.047159820795059204!0.09972579032182693 0.11632029712200165 -0.03088373877108097,0.015356593765318394 0.0006141542107798159 0.12176293879747391,0.06584732234477997 0.11321131885051727 -0.007100426591932774!-0.044690877199172974 0.08123977482318878 -0.06617307662963867,-0.05550052970647812 0.03067922592163086 -0.07284614443778992,-0.023561259731650352 0.03540888428688049 0.06826953589916229!-0.16529816389083862 -0.10824760794639587 -0.0227504912763834,-0.03790038079023361 -0.11971670389175415 -0.1579209268093109,-0.0958143100142479 -0.0015384514117613435 -0.15403956174850464!-0.02516499161720276 0.037779975682497025 -0.07228085398674011,-0.11888977140188217 -0.015589742921292782 -0.18158352375030518,-0.09522534906864166 -0.06795106083154678 -0.15170656144618988!-0.09661989659070969 -0.10433092713356018 0.054251495748758316,-0.10789467394351959 -0.0381266251206398 -0.06829499453306198,0.03902559354901314 -0.10935717821121216 0.11271379888057709!0.05777203291654587 0.004004260059446096 0.001998136518523097,-0.03144949674606323 -0.04454340785741806 -0.0315207839012146,0.027287662029266357 -0.01498894952237606 0.056564830243587494
-0.014453079551458359 0.14591507613658905 -0.0135967331007123,-0.1270289570093155 -0.4009903073310852 -0.16103647649288177,0.17427875101566315 0.22966481745243073 0.38816821575164795!0.06966359913349152 -0.03717280551791191 -0.10690908133983612,-0.23165075480937958 -0.19494181871414185 -0.08729234337806702,-0.0011386711848899722 0.21537178754806519 0.2898958623409271!0.0030884109437465668 -0.14426776766777039 0.23002411425113678,0.1597682386636734 0.22931869328022003 0.28070271015167236,-0.013479522429406643 -0.0324520580470562 -0.12234724313020706!-0.1318627893924713 -0.11510862410068512 0.07581563293933868,-0.03948815166950226 0.09712010622024536 0.19331277906894684,0.047145336866378784 0.08549213409423828 0.016161013394594193!0.06570130586624146 0.005648944992572069 0.09417630732059479,-0.11950233578681946 -0.12641480565071106 -0.14005132019519806,0.06488756090402603 0.06854190677404404 0.2109256237745285!-0.054517101496458054 -0.06971879303455353 -0.013338605873286724,-0.06663334369659424 0.01601370982825756 0.0011224548798054457,-0.030559390783309937 0.05217773839831352 0.05398844927549362!0.09556011855602264 0.2319641411304474 0.22993940114974976,-0.17648638784885406 -0.22220668196678162 -0.1933254599571228,0.07879138737916946 0.06775027513504028 0.23667365312576294!-0.5037261843681335 -0.9892828464508057 -0.7902364730834961,0.14389698207378387 0.019754324108362198 -0.05452640354633331,0.2770290672779083 0.5157293677330017 0.5310980677604675!-0.3476669192314148 -0.42482975125312805 -0.4276657998561859,0.35629674792289734 0.35991427302360535 0.21307788789272308,0.22576215863227844 0.36019375920295715 0.628374457359314!-0.04083140939474106 -0.028738748282194138 -0.07360947132110596,-0.06051799654960632 0.0654105469584465 0.05435726046562195,-0.061307620257139206 0.0017864506226032972 -0.06787072122097015!0.00043439390719868243 -0.01658705063164234 -0.024764224886894226,-0.13308030366897583 -0.07258455455303192 -0.06478437781333923,-0.046658094972372055 -0.013664045371115208 0.074912428855896!-0.005049417726695538 0.008604755625128746 0.006187885999679565,-0.0010645489674061537 0.05003083869814873 0.04509105533361435,-0.044630467891693115 0.07957183569669724 0.047950416803359985!-0.06180017441511154 -0.017227573320269585 0.1364312469959259,0.14066775143146515 0.10337573289871216 0.2579745650291443,0.04781177267432213 -0.10030581802129745 -0.1007586270570755!-0.10776869207620621 -0.18751411139965057 0.19852623343467712,0.1510334461927414 0.1811767816543579 0.3137246072292328,-0.029364952817559242 -0.08985989540815353 -0.1248428076505661!0.1048969030380249 -0.2177862823009491 -0.10850776731967926,-0.2786850929260254 -0.41735032200813293 -0.14285141229629517,-0.14921632409095764 0.06910579651594162 0.3375150263309479!-0.06743967533111572 -0.06183183193206787 -0.030585289001464844,-0.05994996428489685 0.02612815424799919 -0.05459914728999138,-0.06362290680408478 0.024271827191114426 0.05029318854212761
0.016269132494926453 -0.22439594566822052 0.020844582468271255,-0.2947239279747009 -0.009538120590150356 0.24917642772197723,-0.24045079946517944 0.16817796230316162 0.42804598808288574!-0.030755802989006042 -0.3120521903038025 0.06114549934864044,-0.33041736483573914 -0.040088020265102386 0.19622313976287842,-0.17074668407440186 0.35453659296035767 0.3643189072608948!-0.045158304274082184 0.04987317696213722 -0.11804834753274918,0.2220151424407959 0.29368457198143005 -0.24946023523807526,0.26327329874038696 0.11048448830842972 -0.6081254482269287!-0.1260911375284195 0.07775044441223145 -0.05636898800730705,0.2091939002275467 0.33649709820747375 0.0046527874656021595,0.24934053421020508 0.18371306359767914 -0.21449777483940125!0.071563221514225 -0.16725951433181763 0.03209032490849495,-0.10906624048948288 -0.028740378096699715 0.030558032914996147,-0.17200002074241638 0.06767304241657257 0.21821993589401245!-0.07820327579975128 -0.07671558111906052 -0.055633436888456345,0.06797488778829575 0.054015498608350754 0.05583712458610535,0.0639406070113182 -0.03886508196592331 -0.04647394269704819!0.047792304307222366 -0.055823538452386856 -0.0137138981372118,-0.23884691298007965 -0.21013741195201874 0.0992627888917923,-0.39619776606559753 0.047754205763339996 0.1992180049419403!-0.11947418004274368 -0.27368488907814026 0.24931366741657257,-0.540979266166687 0.15202781558036804 0.5142478942871094,-0.10549210011959076 0.6566576361656189 0.5944116115570068!0.29575952887535095 -0.1454336941242218 0.11469716578722,-0.681376039981842 -0.48892343044281006 -0.056666381657123566,-0.3227533996105194 -0.03226112574338913 0.13333086669445038!0.02723032236099243 0.05397943779826164 -0.00962121319025755,0.03013119287788868 0.03709837794303894 -0.07512100040912628,-0.013710707426071167 -0.03091375157237053 -0.042593203485012054!-0.09744872897863388 0.04363911971449852 -0.0706535056233406,-0.10378094762563705 -0.08639464527368546 -0.02507566474378109,-0.1558692902326584 -0.09252867102622986 0.13861361145973206!0.026527127251029015 -0.004024992696940899 0.03538697212934494,0.04000908136367798 0.07558682560920715 0.004830708261579275,0.0029690167866647243 -0.001192758558318019 0.011500269174575806!-0.16050222516059875 0.10225594788789749 -0.176622673869133,0.13073725998401642 0.20661002397537231 -0.08128069341182709,0.12923814356327057 0.13654272258281708 -0.45655643939971924!-0.0020891076419502497 0.13846954703330994 -0.18537086248397827,0.29838433861732483 0.10129357874393463 -0.3000585436820984,0.28166142106056213 0.13632453978061676 -0.7588338255882263!-0.10575941950082779 -0.45009610056877136 0.0668937936425209,-0.4065893888473511 -0.13202448189258575 0.25671958923339844,-0.1542588323354721 0.3038569688796997 0.36778169870376587!-0.02859150432050228 -0.08044253289699554 -0.03509410470724106,-0.06517356634140015 -0.02007579803466797 0.030285051092505455,-0.0693276971578598 -0.003889848943799734 -0.08153168857097626
-0.049675244837999344 -0.04611414670944214 -0.09824366867542267,-0.07020632922649384 -0.03656112775206566 0.01878180541098118,0.025545716285705566 -0.07002086937427521 0.08361917734146118!0.008997253142297268 0.11441798508167267 -0.1286396086215973,0.05690871179103851 -0.12208659946918488 -0.05070174112915993,0.005784610286355019 0.0014713185373693705 0.14894822239875793!-0.022534478455781937 0.004017821978777647 0.1385754942893982,-0.11058037728071213 -0.07435058057308197 -0.02963654138147831,-0.008019406348466873 -0.0030333546455949545 -0.17843642830848694!-0.19112306833267212 -0.19640488922595978 -0.04270787909626961,-0.13344348967075348 -0.10097263753414154 -0.037304479628801346,-0.21778683364391327 0.018401196226477623 -0.2033597081899643!-0.021722933277487755 0.1474086046218872 0.09312526881694794,-0.03469600901007652 0.10192941129207611 0.08591794967651367,0.029525861144065857 0.12245067209005356 0.08641725033521652!-0.026504021137952805 0.0523146390914917 -0.02152615785598755,-0.020005136728286743 -0.03360453248023987 0.08202406764030457,0.03976338356733322 -0.013509253971278667 -0.0016625325661152601!0.025674419477581978 -0.006185175850987434 -0.022820517420768738,-0.061555977910757065 -0.032631829380989075 -0.05514596402645111,-0.05033395439386368 0.03517487645149231 0.11071786284446716!0.052238646894693375 -0.022818267345428467 0.07878603041172028,-0.0235829409211874 0.07022596150636673 0.22433994710445404,0.03758096694946289 0.06619414687156677 0.3445994257926941!0.2080855369567871 0.24546626210212708 0.2869780659675598,0.10450082272291183 0.20648953318595886 0.12190880626440048,0.2322593778371811 0.08672992885112762 0.3589274287223816!0.02090814709663391 0.025107651948928833 -0.06632940471172333,-0.013646644540131092 -0.05141621083021164 -0.040306732058525085,0.057911794632673264 0.06555719673633575 -0.011487762443721294!0.043516743928194046 0.0401814840734005 0.09437451511621475,0.03993602469563484 0.024833425879478455 0.03496990352869034,0.1380101442337036 0.07819575816392899 0.032544154673814774!0.009459714405238628 -0.0831378847360611 0.0007350941887125373,0.06397111713886261 0.009611855261027813 0.019855013117194176,-0.07849742472171783 -0.015674065798521042 0.04917365312576294!-0.2018425315618515 -0.10993191599845886 0.06510096043348312,-0.052311308681964874 -0.009883787482976913 -0.10818734019994736,0.03861520439386368 0.04916179180145264 -0.13015666604042053!0.027495887130498886 -0.09683871269226074 0.113426074385643,-0.11742579191923141 0.03419513627886772 -0.01971776969730854,0.03411320596933365 -0.029430823400616646 -0.18452072143554688!0.016258692368865013 0.14224249124526978 -0.12698744237422943,-0.1207018569111824 -0.04893367365002632 -0.0841779112815857,-0.07614487409591675 -0.051344700157642365 0.13756106793880463!-0.021655302494764328 0.021496009081602097 0.04416361451148987,-0.016157647594809532 0.05445272848010063 0.05442498251795769,0.03710830211639404 -0.020330658182501793 0.07238413393497467
0.006012581754475832 0.06583745032548904 -0.005439332220703363,0.026191283017396927 0.11418656259775162 0.09049031138420105,-0.03044365532696247 0.2780631482601166 0.2540459930896759!-0.0534403957426548 0.05645383149385452 -0.006847115699201822,-0.005131151061505079 0.25639909505844116 0.12092524766921997,0.12375500053167343 0.27722474932670593 0.15344677865505219!0.054540615528821945 0.06085561588406563 0.03908361494541168,0.20605294406414032 0.1369793713092804 0.06085002049803734,0.0822974368929863 0.039187412708997726 -0.3324814736843109!-0.2287360280752182 -0.13589133322238922 -0.17084860801696777,-0.02842695266008377 0.06544626504182816 0.09293058514595032,-0.09235072135925293 -0.016557900235056877 -0.2298896610736847!0.013248901814222336 -0.08037131279706955 -0.0506257489323616,-0.050381630659103394 0.10826994478702545 0.09214915335178375,0.04295548051595688 0.3187900185585022 0.2203187644481659!0.02919934317469597 -0.04903581738471985 0.00044933956814929843,-0.059036098420619965 0.0670735165476799 0.07028140127658844,0.06560751795768738 -0.029172848910093307 0.0518655888736248!-0.04183392599225044 0.028114017099142075 -0.10183200985193253,-0.10434281080961227 0.08313248306512833 -0.03676579147577286,-0.011563993990421295 0.20144207775592804 0.18658196926116943!0.008421404287219048 -0.027431435883045197 -0.03960718959569931,-0.250744491815567 0.1266801506280899 0.04891704022884369,0.3223796784877777 0.5324814319610596 0.40398839116096497!-0.12872113287448883 -0.11177556216716766 -0.559144914150238,-0.35993659496307373 -0.8248018622398376 -0.9477068185806274,-0.1404912918806076 0.24172362685203552 0.07475224137306213!-0.03977217525243759 -0.0354633554816246 -0.033746879547834396,0.006906874943524599 0.08050568401813507 -0.036184582859277725,-0.03887665271759033 -0.05586224049329758 -0.00316213583573699!-0.13696886599063873 -0.12995828688144684 -0.05207735672593117,-0.17691990733146667 0.12856842577457428 0.0689142644405365,-0.1041502058506012 0.14681504666805267 0.2024155557155609!0.06085282564163208 -0.05450736731290817 -0.02088814042508602,0.06134632229804993 -0.015617242082953453 -0.06136169284582138,-0.02678048610687256 0.0028785865288227797 -0.015557220205664635!-0.13741116225719452 -0.07585357874631882 -0.06974933296442032,0.18490591645240784 0.19369468092918396 -0.020617511123418808,0.11043946444988251 -0.07438525557518005 -0.2997923791408539!0.18791690468788147 0.20980939269065857 0.03332022950053215,0.3380722999572754 0.10491565614938736 -0.04012741521000862,0.16383227705955505 -0.07934289425611496 -0.5208752155303955!-0.012329928576946259 0.19498851895332336 -0.058183636516332626,0.051090337336063385 0.18791738152503967 0.016197258606553078,0.13609910011291504 0.32668572664260864 0.25492218136787415!-0.07067098468542099 -0.05596424266695976 0.050193898379802704,0.0787309929728508 -0.07112623751163483 0.0012196600437164307,-0.03203842043876648 0.07845523953437805 0.06922698020935059
-0.15379907190799713 0.034621454775333405 0.1435457468032837,0.05398431047797203 -0.030062198638916016 -0.08524807542562485,-0.020608773455023766 -0.2029896080493927 -0.21668095886707306!-0.08786594122648239 0.06116882711648941 0.19902271032333374,0.05883936211466789 0.08852531015872955 -0.11441833525896072,0.0961170569062233 -0.12723994255065918 -0.07816978543996811!0.10363919287919998 -0.020402569323778152 -0.06954823434352875,0.02549343928694725 -0.09228727966547012 -0.16387145221233368,0.10676942765712738 -0.08953036367893219 0.0012162959901615977!0.13058075308799744 -0.0168800987303257 -0.19699233770370483,-0.0013444984797388315 -0.023803213611245155 -0.22855539619922638,-0.06609530746936798 0.06559766083955765 -0.033993203192949295!-0.06165454536676407 -0.057030532509088516 0.19470922648906708,0.019206227734684944 0.142078697681427 0.03995732218027115,0.0517970435321331 0.023015813902020454 -0.06426297873258591!-0.023378830403089523 0.06643199175596237 -0.06385668367147446,0.037084054201841354 -0.021505653858184814 -0.027844300493597984,0.055784761905670166 0.014068752527236938 -0.07758458703756332!-0.1123085543513298 -0.08237700909376144 0.21211688220500946,-0.07418627291917801 0.08274995535612106 0.021693477407097816,0.09101863950490952 0.05228245630860329 -0.0990651398897171!-0.14477421343326569 0.20427124202251434 0.16989418864250183,0.46044018864631653 0.5542604923248291 0.19460757076740265,-0.4057353436946869 -0.7849264144897461 -0.23867806792259216!-0.1451806128025055 -0.12491600215435028 -0.3071575164794922,0.667448103427887 0.12313073128461838 0.49692773818969727,-0.8153521418571472 -1.1197477579116821 -0.008335643447935581!-0.07817589491605759 -0.03948334977030754 -0.049151401966810226,0.09297062456607819 -0.04480525851249695 0.04584159329533577,0.06689715385437012 0.03004315495491028 -0.07312547415494919!-0.062352195382118225 -0.006853346247226 0.051283497363328934,0.08191564679145813 0.0918726697564125 0.18678289651870728,0.09575962275266647 0.1298450380563736 0.029499327763915062!0.05449783056974411 0.011981755495071411 -0.01673944853246212,0.01605943962931633 -0.06559540331363678 0.0030641655903309584,0.038217753171920776 -0.07803215831518173 -0.04426500201225281!0.18129073083400726 0.05715565010905266 -0.11589588224887848,-0.04888646677136421 -0.163572758436203 -0.07840639352798462,0.007481852546334267 -0.08981533348560333 0.048710405826568604!0.12542758882045746 0.01891467720270157 -0.07357072085142136,-0.07886728644371033 -0.16503411531448364 -0.33208605647087097,-0.00922101829200983 -0.14131686091423035 -0.02352578192949295!-0.06834931671619415 0.019451579079031944 0.3953428268432617,-0.14620743691921234 0.024250784888863564 0.019391724839806557,-0.06473105400800705 -0.024682074785232544 -0.12521648406982422!-0.01897578500211239 0.024918973445892334 0.08279257267713547,0.025144081562757492 -0.08040529489517212 -0.026602089405059814,0.07759889215230942 -0.029371073469519615 -0.04009123891592026
-0.06642390787601471 -0.04353084787726402 -0.03986382111907005,-0.011370218358933926 -0.005291225388646126 0.04974636435508728,0.008863610215485096 -0.048804353922605515 0.006789013277739286!0.04763226956129074 -0.062369901686906815 0.05013034865260124,-0.09925729781389236 0.023150702938437462 -0.07048968225717545,-0.030611475929617882 -0.04758588969707489 0.0037126364186406136!0.01296168565750122 -0.047279950231313705 0.04978710785508156,0.06280738860368729 -0.04710683599114418 -0.059721749275922775,-0.0844368040561676 -0.046978142112493515 -0.01050633192062378!0.006230871193110943 0.013029949739575386 -0.007091208826750517,0.016354793682694435 -0.028323238715529442 -0.07821886986494064,-0.034239526838064194 -0.061639465391635895 -0.03459884598851204!-0.07860872149467468 0.028049897402524948 -0.05217999592423439,-0.021442921832203865 0.011482935398817062 -0.09670937806367874,-0.09926243126392365 -0.11267843097448349 -0.01864773780107498!0.016124587506055832 -0.04301230236887932 0.050340067595243454,0.034578900784254074 -0.0752948746085167 -0.00453291367739439,-0.03587410971522331 -0.01444917917251587 0.04640039801597595!-0.008963356725871563 -0.046924516558647156 0.06901944428682327,-0.12991340458393097 -0.07249271124601364 0.018431169912219048,0.014981701038777828 0.027888232842087746 -0.050006479024887085!0.0278080515563488 -0.0718698725104332 -0.01125761866569519,-0.07065564393997192 -0.02462463267147541 -0.06353434175252914,-0.015985636040568352 0.0022685774601995945 0.033735089004039764!-0.014090627431869507 0.07846935838460922 -0.07576823234558105,-0.06485249102115631 -0.020698318257927895 -0.001432966673746705,0.010453533381223679 -0.09562953561544418 0.014697045087814331!-0.07821038365364075 -0.05713985487818718 -0.005667348857969046,-0.08095891773700714 -0.07921074330806732 -0.07397770881652832,0.06699907034635544 0.018279582262039185 -0.026589274406433105!-0.0034249029122292995 -0.05850685015320778 -0.06504254043102264,-0.11888527870178223 -0.13208141922950745 0.014499329961836338,-0.09291989356279373 -0.07362806797027588 -0.11328446120023727!0.013801753520965576 -0.012502849102020264 -0.056732308119535446,0.05343005061149597 0.07024247944355011 -0.059398286044597626,0.04721502587199211 -0.013531407341361046 -0.0007867515087127686!0.035470716655254364 -0.0019759780261665583 0.08535924553871155,0.05883936956524849 -0.05459969863295555 -0.05226771533489227,-0.10929518193006516 0.018587477505207062 -0.06268223375082016!-0.06984825432300568 -0.040324125438928604 -0.0639355257153511,-0.06686875969171524 0.05663957819342613 0.04669325798749924,0.047369249165058136 -0.040422361344099045 -0.03417929261922836!-0.02923898957669735 0.013598459772765636 -0.049750328063964844,-0.043403610587120056 -0.09622674435377121 -0.013703039847314358,0.02218160592019558 -0.03161398693919182 0.035215917974710464!-0.05935075879096985 -0.011760314926505089 -0.05145654082298279,-0.009245574474334717 -0.03314974159002304 -0.047315698117017746,-0.08049505203962326 -0.030899405479431152 0.01115986704826355
-0.02701050229370594 -0.08857053518295288 0.04563666135072708,0.04976607486605644 -0.0543791763484478 -0.005752118304371834,0.044960033148527145 -0.08175816386938095 -0.07990016788244247!0.035827700048685074 -0.012375032529234886 0.010508978739380836,-0.04478217288851738 0.009882581420242786 0.04144803807139397,-0.027678627520799637 -0.029435046017169952 -0.08682464063167572!-0.012859026901423931 0.05280546471476555 -0.07875573635101318,-0.006437222473323345 0.06074456498026848 -0.023784559220075607,-0.030789028853178024 -0.026098432019352913 -0.0337630920112133!0.009973853826522827 -0.08023366332054138 0.031844764947891235,-0.021046321839094162 -0.010803156532347202 -0.005622426979243755,0.0465528778731823 -0.05442943423986435 -0.07583197951316833!-0.07222410291433334 -0.07240792363882065 -0.05689096450805664,0.05382050201296806 -0.07148784399032593 -0.06312432885169983,-0.07663548737764359 -0.04673301428556442 -0.010611867532134056!-0.05081380531191826 0.0008808374404907227 0.02816157601773739,-0.014178207144141197 0.03595499321818352 0.019122302532196045,0.08050065487623215 -0.004254470579326153 0.07222994416952133!0.049554985016584396 0.02757890895009041 0.03008255735039711,-0.06756910681724548 -0.06231434643268585 0.020656848326325417,0.019456014037132263 0.0714222863316536 -0.020076874643564224!-0.024241982027888298 0.0537603497505188 -0.010203905403614044,0.06735506653785706 -0.04262096807360649 -0.035475946962833405,-0.0008326713577844203 0.043541837483644485 -0.07305564731359482!-0.03012736514210701 0.06051993370056152 0.010979240760207176,0.04901888221502304 -0.028227906674146652 -0.052531830966472626,-0.05806669965386391 -0.04685254022479057 -0.06262564659118652!0.04129744693636894 0.02239879034459591 -0.053318701684474945,0.0763830691576004 0.02372492477297783 0.03101310133934021,-0.035112760961055756 0.057694822549819946 -0.05878239870071411!0.049030665308237076 -0.05317836254835129 0.024113837629556656,-0.041965026408433914 0.04704088345170021 -0.07874733209609985,-0.024310464039444923 -0.02878044731914997 -0.05644276365637779!-0.04093284532427788 -0.02338375709950924 0.008640756830573082,0.05915049836039543 -0.013693938963115215 0.08168338984251022,-0.03965584561228752 -0.04290124028921127 -0.004346887581050396!-0.015086124651134014 0.026469390839338303 0.07699884474277496,0.02853250503540039 -0.07015813887119293 -0.028471559286117554,-0.016555368900299072 -0.07760803401470184 0.025765687227249146!0.07274214923381805 0.041387807577848434 -0.0016501148929819465,-0.006344278808683157 -0.0390244722366333 -0.009257793426513672,0.07308641076087952 -0.0428435318171978 0.013332138769328594!-0.06939452141523361 -0.03508050739765167 -0.011810718104243279,-0.07104019820690155 0.01561828050762415 -0.0866474062204361,-0.039975836873054504 0.05439202859997749 0.06900838762521744!-0.006515344139188528 -0.05956181883811951 -0.06842275708913803,-0.020479341968894005 -0.04252567142248154 0.06624259799718857,-0.059405744075775146 0.050161123275756836 0.015844088047742844
-0.07250595837831497 -0.07977542281150818 0.02423684112727642,0.04161085560917854 -0.18297742307186127 -0.09761665761470795,0.05835999920964241 -0.019901130348443985 -0.12990257143974304!-0.03461240977048874 -0.14144225418567657 0.10565483570098877,0.15176840126514435 -0.008167344145476818 -0.025826774537563324,0.0982104167342186 0.03572031110525131 0.021002937108278275!0.009264316409826279 -0.0872134417295456 -0.020904503762722015,-0.05474473163485527 -0.13570234179496765 -0.04391590878367424,0.002459143754094839 0.07348263263702393 -0.07920460402965546!-0.135365292429924 -0.08647474646568298 -0.03091260977089405,-0.07905253022909164 0.0036659918259829283 -0.009142129682004452,-0.08283509314060211 -0.07518524676561356 -0.016570165753364563!0.09902246296405792 -0.0038048136048018932 0.025766395032405853,0.0470077320933342 0.040468040853738785 0.0006326253642328084,0.08727141469717026 0.07687828689813614 -0.02243235893547535!-0.030870407819747925 -0.039540957659482956 0.06514136493206024,0.04942446947097778 0.02368602156639099 -0.0037375986576080322,0.020817797631025314 0.0804000124335289 0.026384811848402023!-0.06186273694038391 -0.04405540972948074 -0.02031133696436882,0.05487852916121483 -0.12491098791360855 -0.03030184656381607,0.06463465094566345 -0.06557942926883698 0.029064448550343513!0.08043480664491653 -0.19701404869556427 0.05649885535240173,0.11544973403215408 0.13825775682926178 0.24779047071933746,-0.032604631036520004 -0.04839765653014183 -0.17933858931064606!0.2675535976886749 0.06294471025466919 0.148330420255661,0.17330382764339447 0.3099064826965332 0.18098880350589752,0.0807468444108963 -0.04413631558418274 0.03879065811634064!0.0010532339802011847 0.02780686877667904 0.08220165967941284,-0.015594320371747017 -0.03391070291399956 0.07506980001926422,0.031866591423749924 -0.0786590501666069 0.029638569802045822!-0.05429333820939064 0.009100299328565598 0.06883209943771362,0.12614858150482178 0.06619667261838913 0.12946034967899323,0.15431401133537292 0.13152126967906952 -0.0041835433803498745!-0.030311476439237595 0.00507007073611021 0.06773100793361664,-0.013978958129882812 0.017408272251486778 0.04386182874441147,-0.043599944561719894 -0.05046629160642624 0.08241117000579834!-0.07146193832159042 0.02132708951830864 -0.1572096198797226,-0.11428210139274597 -0.02162116765975952 -0.1261356621980667,-0.04488840326666832 -0.050263214856386185 0.01819268800318241!-0.061502061784267426 -0.024669529870152473 -0.10089857876300812,-0.13484221696853638 -0.1868627816438675 -0.23858696222305298,-0.09711911529302597 -0.06512396037578583 -0.0660339966416359!0.045779865235090256 0.09074971079826355 0.06115100160241127,0.041110049933195114 0.07476406544446945 -0.011933628469705582,0.018450550734996796 0.1389184445142746 -0.0804765596985817!-0.022442828863859177 0.006687819957733154 -0.044736843556165695,0.005993157625198364 -0.0346357524394989 0.02643662691116333,-0.017689626663923264 -0.027963658794760704 -0.03139219805598259