-0.02944520302116871 0.026576140895485878 -0.023943325504660606,0.02777528576552868 0.05795317143201828 0.00219692918471992,0.005253014620393515 0.04100104793906212 -0.03686652332544327!0.21415409445762634 0.22676292061805725 -0.2599368393421173,-0.1015123501420021 -0.3180064558982849 -0.18879267573356628,-0.15190693736076355 0.024846823886036873 -0.0014831090811640024!0.1776711344718933 0.21760118007659912 -0.20490938425064087,-0.06255528330802917 -0.08240887522697449 -0.1307215541601181,-0.07881678640842438 -0.042071808129549026 -0.12898282706737518!-0.035769447684288025 0.007374880835413933 -0.02210245467722416,0.013916242867708206 0.02639087289571762 -0.04153522849082947,-0.005265590734779835 0.07671617716550827 0.0010821233736351132!0.050049249082803726 0.05458349734544754 -0.02066972106695175,-0.056278783828020096 0.055021535605192184 -0.04588869959115982,0.05634899437427521 -0.03761788085103035 0.010687499307096004!-0.012945234775543213 -0.0989479199051857 -0.07115586847066879,-0.09389031678438187 -0.05652891471982002 0.04166316241025925,0.06875333189964294 0.09700437635183334 0.07385355234146118!0.05212050676345825 0.0411423034965992 -0.10696317255496979,-0.10706611722707748 -0.04726378247141838 0.039672717452049255,-0.059004418551921844 0.06624987721443176 0.06959114968776703!0.2097398340702057 0.2702995538711548 -0.05062117427587509,-0.18540874123573303 -0.28796470165252686 -0.03882159665226936,-0.10722590237855911 0.23158378899097443 0.25761330127716064!0.15724943578243256 0.09420321881771088 -0.07210127264261246,-0.03306439146399498 -0.18017086386680603 -0.2159160077571869,-0.2612168490886688 -0.24831420183181763 -0.10227397829294205!0.06580915302038193 0.007357227616012096 -0.15671159327030182,-0.15878288447856903 -0.10508567094802856 0.06023699790239334,-0.049648962914943695 0.13810782134532928 -0.0022145023103803396!0.11188250035047531 0.06456766277551651 -0.12774281203746796,-0.16121990978717804 -0.015101571567356586 0.28886842727661133,0.0514877513051033 0.37620633840560913 0.30685290694236755!-0.080775685608387 0.07500524818897247 -0.26322054862976074,-0.15910331904888153 -0.1397235244512558 -0.06881558150053024,-0.2792927324771881 0.09286288917064667 0.10128737986087799!-0.0827493816614151 -0.024309054017066956 -0.19000817835330963,0.041243795305490494 -0.18725833296775818 -0.14388909935951233,-0.06751961261034012 -0.06705047935247421 -0.01556188240647316!0.023685481399297714 0.08759650588035583 0.1294516921043396,0.1151462271809578 0.047351472079753876 -0.08624845743179321,0.07619008421897888 -0.261747807264328 -0.5636361837387085!-0.03526102751493454 -0.033419169485569 0.08157344907522202,-0.11502036452293396 0.18112397193908691 0.2267153412103653,0.005631865933537483 0.15130889415740967 0.38121581077575684!-0.03960324078798294 -0.04091876372694969 -0.03130417317152023,-0.2132357358932495 -0.23897066712379456 0.016978368163108826,-0.09125316888093948 0.13088853657245636 0.1342974156141281!0.06828349083662033 -0.11856584995985031 0.11118786036968231,-0.03481360152363777 0.08547823876142502 -0.04564187303185463,-0.030519457533955574 -0.1374107152223587 -0.11909401416778564!0.04708406701683998 -0.09340427070856094 0.047873616218566895,0.01775709167122841 -0.015016891062259674 -0.14426496624946594,-0.08263081312179565 -0.1578385829925537 -0.07418205589056015!-0.10328312963247299 0.09114807844161987 -0.11951660364866257,-0.1422232687473297 -0.8634862899780273 -0.6685112118721008,-0.19449016451835632 -0.304999440908432 -0.009775834158062935!0.04209165647625923 0.016554998233914375 -0.04626525938510895,-0.061910346150398254 0.03922923654317856 0.012059912085533142,-0.014243680983781815 -0.05827838182449341 0.02559412643313408!-0.25664079189300537 -0.11038478463888168 -0.10095424950122833,-0.17246508598327637 -0.2686648666858673 0.29425522685050964,0.08516278117895126 0.2048589438199997 0.22556652128696442!-0.11439818143844604 -0.34731486439704895 -0.04575139656662941,-0.19220571219921112 -0.06704235076904297 0.0726642906665802,-0.008174133487045765 0.05135468393564224 0.09973751753568649!-0.03691522032022476 -0.2329222559928894 -0.03542054444551468,-0.1306527554988861 -0.08719757199287415 0.009055694565176964,0.023711740970611572 0.0727398544549942 0.11504753679037094!-0.05433369427919388 -0.012990165501832962 -0.20217327773571014,0.029825476929545403 -0.19131779670715332 -0.05842678248882294,0.012635393999516964 -0.027549240738153458 0.03240947425365448!-0.0035815604496747255 -0.1575385332107544 -0.04337187483906746,0.0662970244884491 0.19650623202323914 0.11793389171361923,0.06303808838129044 0.008573031984269619 -0.1966342329978943!0.33010509610176086 -0.09393227845430374 -0.1657942682504654,-0.18837332725524902 0.02872668020427227 0.10165286809206009,0.0808001160621643 0.24587832391262054 0.17397509515285492!-0.01664106920361519 -0.0649808868765831 -0.2669495940208435,-0.011992957442998886 -0.10496320575475693 -0.004639854654669762,0.020083580166101456 0.12723954021930695 -0.04777996242046356!0.011719383299350739 -0.11183144897222519 -0.027717741206288338,-0.10256167501211166 0.030572501942515373 0.15337954461574554,-0.001384354312904179 0.12183450907468796 0.07651777565479279!0.09820766746997833 0.007412268780171871 0.027408944442868233,0.0033033655490726233 -0.24780592322349548 0.17376947402954102,-0.11968792229890823 0.10543463379144669 0.12952886521816254!0.015326792374253273 -0.04853799566626549 0.05797230824828148,-0.017150545492768288 0.03330673277378082 0.045073140412569046,-0.0229274220764637 0.02010498382151127 -0.0004367326619103551!0.004833906423300505 -0.05609484389424324 0.007293764967471361,0.020218897610902786 0.008211133070290089 -0.0058397832326591015,0.04449430853128433 0.046586815267801285 0.040567997843027115!-0.010187978856265545 0.02893996238708496 -0.19163012504577637,-0.011852562427520752 -0.056381355971097946 -0.018194464966654778,-0.04826149716973305 0.06046430766582489 0.10583967715501785
0.015925388783216476 -0.047831274569034576 0.03485964983701706,-0.03216797485947609 0.016049304977059364 0.032643698155879974,-0.028048215433955193 0.06960029155015945 -0.05515317618846893!-0.0020362529903650284 -0.030159272253513336 -0.03663979098200798,-0.1001853495836258 0.07835518568754196 -0.03325892984867096,0.05882391333580017 0.020696865394711494 -0.06901635229587555!0.014203259721398354 0.009175085462629795 -0.0465608611702919,0.0022510141134262085 -0.0523127019405365 -0.06838918477296829,-0.01572301611304283 -0.09613069146871567 -0.0691462978720665!0.013207348994910717 0.023703450337052345 0.058884236961603165,-0.02220907062292099 0.013242485001683235 0.005370917730033398,-0.06411720812320709 -0.06882123649120331 -0.02132786437869072!0.042174238711595535 -0.03885466605424881 0.019194243475794792,0.01593056693673134 -0.04165066406130791 0.009138278663158417,0.011121246963739395 -0.053646545857191086 -0.0007875810842961073!-0.06350425630807877 0.10863284021615982 0.07019537687301636,0.08721219748258591 0.10968338698148727 0.10532104969024658,0.16391824185848236 0.10375487059354782 0.0034711926709860563!0.11227233707904816 0.054260123521089554 0.0027169485110789537,0.019116124138236046 0.12432713061571121 0.02457384206354618,0.06898658722639084 0.05117205157876015 0.1305614411830902!-0.09813783317804337 0.0019215138163417578 0.15895798802375793,-0.23305414617061615 0.12580889463424683 0.10678187012672424,0.03549161180853844 0.06609456986188889 -0.049978747963905334!0.0359085388481617 -0.015168306417763233 -0.04108850285410881,-0.07073171436786652 -0.007101173512637615 -0.1356477290391922,-0.12082148343324661 -0.1452264040708542 -0.07294359803199768!-0.027752725407481194 0.07357300072908401 0.07927659898996353,-0.001420560060068965 0.050481293350458145 0.05858297273516655,0.04913666844367981 0.06084751337766647 0.02278565987944603!-0.09790990501642227 0.12391294538974762 0.17847193777561188,-0.16911645233631134 -0.04448774456977844 -0.16345520317554474,-0.075970359146595 -0.10863853245973587 0.007422562222927809!-0.0704948753118515 -0.007504331413656473 0.004304950591176748,-0.10688251256942749 -0.019539978355169296 0.024171888828277588,0.06365348398685455 0.018634062260389328 -0.06768079102039337!0.05241295322775841 0.13172940909862518 0.035015713423490524,0.07808177173137665 0.010510562919080257 0.060709886252880096,0.14523309469223022 0.05772307142615318 0.007085032295435667!0.10345429927110672 0.06371629983186722 -0.21845576167106628,-0.018263079226017 -0.30835264921188354 -0.08779068291187286,-0.1828063726425171 -0.25224047899246216 -0.1614031195640564!-0.10359396040439606 0.08391778916120529 0.2967231571674347,-0.12837937474250793 0.22248370945453644 0.2706250548362732,0.0979461669921875 0.09606953710317612 0.013788649812340736!-0.05191938951611519 -0.05987679958343506 0.032653067260980606,0.00791214406490326 0.047663431614637375 0.11139242351055145,0.016589978709816933 -0.04400264471769333 0.02237604185938835!-0.07994775474071503 -0.05803610384464264 -0.019995467737317085,-0.11805980652570724 -0.14340877532958984 -0.04566263407468796,-0.11652456969022751 -0.14459897577762604 -0.01687123253941536!-0.01279549952596426 -0.10342838615179062 0.012582322582602501,-0.13467201590538025 -0.2620989978313446 -0.07297206670045853,-0.06273925304412842 -0.16508454084396362 -0.028689922764897346!0.004733316600322723 -0.01557386014610529 -0.07194839417934418,0.07655701786279678 0.050483062863349915 0.10144360363483429,-0.08766625821590424 -0.061679352074861526 -0.24345406889915466!-0.054696694016456604 0.05004305765032768 -0.05534360930323601,-0.044859740883111954 -0.07096686959266663 -0.04869195818901062,0.019874198362231255 0.027231523767113686 -0.058872826397418976!-0.027026383206248283 -0.07401905208826065 -0.017975207418203354,0.01617494225502014 0.09706830978393555 0.08075807988643646,0.07165034860372543 -0.007212874013930559 -0.07026541978120804!-0.11549801379442215 -0.10175077617168427 -0.05029516667127609,-0.058136772364377975 0.0610688142478466 0.06325752288103104,0.03372546285390854 -0.12719453871250153 -0.02627909556031227!0.05987408012151718 0.02825924940407276 -0.09746315330266953,0.06560378521680832 0.1094566285610199 0.1154383048415184,0.11260203272104263 0.00609796866774559 0.08234328031539917!0.00354107772000134 0.04027003049850464 0.004303404130041599,-0.039836011826992035 0.048116326332092285 -0.02368711680173874,-0.0004668161564040929 -0.023994069546461105 -0.04253879189491272!0.00394549872726202 0.006731750443577766 -0.08005018532276154,0.22259989380836487 0.08483670651912689 0.2305939495563507,-0.015629474073648453 0.07939646393060684 0.06302548944950104!-0.025769229978322983 0.10126740485429764 0.1250089406967163,-0.0217138659209013 0.08730677515268326 0.027353806421160698,-0.0025769954081624746 0.06560394912958145 0.07228481024503708!0.009796076454222202 0.08643142133951187 -0.04475652426481247,0.10397762060165405 0.05172201618552208 -0.0854838564991951,0.04465514421463013 -0.01092775259166956 0.04592583701014519!-0.042615313082933426 0.01445604208856821 -0.006771213840693235,0.09877602010965347 0.07014590501785278 -0.028161292895674706,0.05228499323129654 0.060322102159261703 0.10339778661727905!-0.023199336603283882 0.04834878072142601 -0.06996551901102066,0.17467950284481049 0.20880700647830963 0.31561774015426636,0.11967960000038147 0.09740953147411346 -0.03068523295223713!0.04093945398926735 -0.0162860918790102 -0.057773031294345856,-0.004268120042979717 -0.00646225968375802 0.05916152149438858,0.031491562724113464 -0.02054964005947113 -0.03583546355366707!-0.051778294146060944 -0.033673956990242004 0.0004390788380987942,0.007767031900584698 0.04512963816523552 -0.04249969497323036,0.030818991363048553 0.04995144158601761 -0.05325987562537193!0.007603880017995834 0.028543835505843163 -0.0033867419697344303,0.03756307438015938 0.0806555524468422 0.024109844118356705,0.10153679549694061 0.02012075111269951 -0.11260883510112762
-0.06100204959511757 -0.017449265345931053 -0.004141896031796932,-0.020495625212788582 0.0575319305062294 0.05498635023832321,-0.03475695103406906 -0.03733627498149872 0.0032280872110277414!-0.1328801065683365 0.08047837018966675 0.02168700285255909,-0.057394709438085556 0.16054046154022217 0.08905551582574844,0.1063789427280426 0.2379305213689804 -0.13025355339050293!-0.06445884704589844 0.07328303903341293 -0.16034309566020966,-0.16137544810771942 0.22926728427410126 -0.15041762590408325,0.021165898069739342 0.15669763088226318 0.020199302583932877!-0.022792138159275055 -0.03155428543686867 -0.03488398343324661,-0.03602088987827301 0.0033947632182389498 -0.057756226509809494,0.059202224016189575 0.018794406205415726 -0.042641621083021164!0.032179296016693115 0.0029736850410699844 0.05765332654118538,-0.0011841157684102654 -0.0019042354542762041 -0.05687037855386734,-0.048671938478946686 0.000206069991691038 0.04967784136533737!-0.09297670423984528 0.038660451769828796 -0.06983820348978043,-0.0486091673374176 0.09153883904218674 -0.06106828153133392,-0.03295033425092697 0.016175314784049988 -0.02272367663681507!-0.03384099528193474 0.08855289220809937 -0.0395316407084465,-0.037193577736616135 0.15969526767730713 -0.1827559471130371,0.09224140644073486 0.11855531483888626 -0.12774507701396942!-0.1299658715724945 0.14314639568328857 0.09927903860807419,0.07644584029912949 0.3696245551109314 0.20938561856746674,0.1391860395669937 0.27556636929512024 -0.054341211915016174!-0.099585622549057 0.05679251626133919 -0.039610832929611206,-0.07106070965528488 -0.006706537678837776 -0.16346189379692078,-0.10554909706115723 0.1342330425977707 -0.09859008342027664!-0.041159737855196 0.1536950320005417 -0.08692792803049088,0.008771494030952454 0.22491498291492462 -0.19092924892902374,0.11971209198236465 0.10103432089090347 -0.13074657320976257!-0.06726501137018204 0.35064300894737244 -0.12263316661119461,0.19959144294261932 0.5669311285018921 0.25316739082336426,0.3319765031337738 0.8296423554420471 -0.1231178492307663!-0.2742588222026825 0.0313887782394886 0.09015481919050217,-0.1551712304353714 0.0310316514223814 0.12922614812850952,-0.04729338362812996 0.2201911360025406 0.07310505211353302!-0.09808450192213058 0.04346989095211029 -0.09982038289308548,-0.08764053881168365 0.04413456469774246 0.04400591924786568,-0.07740424573421478 0.02084485813975334 -0.05734327435493469!-0.1480623483657837 -0.2759026885032654 -0.12680098414421082,-0.07761511951684952 -0.43758848309516907 0.03497348725795746,-0.0630992203950882 -0.21272414922714233 0.21425068378448486!0.05534208193421364 -0.08328200876712799 0.24399533867835999,0.2217714935541153 -0.1296374350786209 0.04805193841457367,0.18835295736789703 -0.02515331283211708 -0.11486057937145233!-0.10006128996610641 0.07817531377077103 0.024118049070239067,-0.01657334342598915 0.18303652107715607 -0.1933271586894989,-0.0010843088384717703 0.16835670173168182 -0.09769357740879059!-0.12651437520980835 -0.10607703775167465 -0.15342102944850922,0.22371287643909454 0.16521446406841278 0.07807274907827377,0.1373893767595291 0.02623482421040535 -0.04052554443478584!-0.14434345066547394 0.020982911810278893 -0.28367987275123596,0.04792909696698189 0.43961983919143677 0.12867867946624756,0.00257651275023818 0.16483375430107117 0.024540415033698082!-0.02103799395263195 -0.02722909115254879 0.09028279036283493,-0.01646764948964119 0.03186582028865814 0.07662872225046158,-0.07977549731731415 0.09592898935079575 -0.03950507566332817!0.0646807998418808 0.05908345803618431 -0.054108038544654846,0.03479267284274101 -0.011498949490487576 -0.03875668719410896,0.0020951975602656603 0.005261472426354885 -0.034507885575294495!-0.10141550004482269 0.05981592461466789 0.03603653609752655,-0.010198579169809818 0.21399350464344025 -0.008305689319968224,0.030566759407520294 0.015245862305164337 -0.22114761173725128!-0.05843634530901909 0.05494162067770958 0.023795533925294876,-0.04670384153723717 0.17911726236343384 -0.17277581989765167,-0.0034573031589388847 0.1016935482621193 -0.12452073395252228!-0.0657479390501976 0.10338412970304489 -0.007366580422967672,-0.047344885766506195 0.10923220962285995 -0.3507865369319916,-0.12162137031555176 -0.01568600721657276 -0.10320987552404404!-0.04938232898712158 0.048227373510599136 -0.11328993737697601,-0.09650221467018127 0.09437650442123413 -0.010453718714416027,-0.052764683961868286 0.004674075171351433 -0.03334759175777435!0.027143508195877075 -0.07044253498315811 0.018158642575144768,-0.1707121580839157 -0.6127680540084839 0.010327979922294617,0.013043398968875408 -0.5095479488372803 0.12351106107234955!-0.02060864493250847 0.04106323421001434 0.12388134747743607,-0.012186417356133461 0.10611321032047272 -0.1803158074617386,-0.033821068704128265 0.046550385653972626 -0.11639802157878876!-0.011018160730600357 0.10069447755813599 -0.0006317853694781661,-0.015465296804904938 0.12337271869182587 -0.11744095385074615,-0.04846617206931114 0.005325592588633299 0.08930862694978714!-0.0701601430773735 0.11540403962135315 -0.07628324627876282,0.08851922303438187 0.2347663789987564 -0.1747535914182663,0.022841686382889748 0.04484310373663902 -0.06542680412530899!0.01610659621655941 0.011042645201086998 0.12171196192502975,0.010005204007029533 0.12051746994256973 -0.0679430216550827,-0.14328733086585999 0.004471166525036097 -0.1251341700553894!0.0367388091981411 -0.03796588256955147 0.0009779965039342642,-0.03732948750257492 0.0015409158077090979 -0.016164951026439667,-0.056945689022541046 -0.02291221357882023 0.03423866629600525!0.041415564715862274 0.043404124677181244 -0.017970101907849312,0.0046384502202272415 -0.04728493466973305 0.03052413836121559,0.010433136485517025 0.04923052713274956 -0.009166925214231014!-0.02378351427614689 0.06573409587144852 0.06374846398830414,-0.07992953062057495 0.04667910188436508 -0.029174013063311577,-0.07632648199796677 0.03653113171458244 -0.08330098539590836
-0.01331439521163702 0.02936641126871109 0.06806398183107376,-0.0026346391532570124 0.05778714269399643 -0.015518330037593842,-0.01993585005402565 -0.002704885322600603 -0.03456844389438629!0.09436208009719849 0.09657882153987885 -0.2092820107936859,-0.0828474760055542 -0.5834953188896179 0.1245981827378273,0.09370360523462296 -0.006114556919783354 -0.3601554334163666!0.1009991243481636 0.013508698903024197 -0.07003670930862427,-0.16844263672828674 0.16282173991203308 0.3021391034126282,0.11003934592008591 0.12906622886657715 -0.13318419456481934!-0.032905492931604385 -0.007634939160197973 -0.03925081342458725,-0.027170591056346893 0.05782971903681755 -0.02323690988123417,0.06298648566007614 0.0388907790184021 0.0015736909117549658!-0.047428783029317856 0.04732270538806915 0.004964006599038839,0.055686887353658676 -0.052240315824747086 0.01561545580625534,-0.05076967179775238 -0.007154265884310007 -0.05164897441864014!-0.08968894183635712 -0.02548876963555813 0.032110556960105896,-0.13698972761631012 -0.05808508023619652 0.08981205523014069,-0.09880087524652481 -0.09588175266981125 0.055401403456926346!-0.04950104281306267 0.05925684794783592 0.09820452332496643,-0.18843041360378265 -0.15529178082942963 0.08722423017024994,-0.03693168982863426 -0.02816523052752018 -0.009748389944434166!-0.16534627974033356 0.1313096433877945 -0.12352840602397919,-0.3078163266181946 -0.20379215478897095 -0.11865819990634918,0.10810169577598572 -0.12275173515081406 -0.17596149444580078!0.11373861134052277 0.004087019711732864 0.012261376716196537,-0.02309497632086277 0.24493218958377838 0.17568060755729675,0.24771332740783691 -0.2758014500141144 -0.06932063400745392!-0.019814731553196907 0.011266143061220646 0.017241058871150017,-0.20424211025238037 -0.012493560090661049 0.18415921926498413,0.06384679675102234 0.02209770493209362 -0.18177737295627594!0.13428032398223877 0.046689871698617935 -0.17657683789730072,-0.2269064038991928 0.14203095436096191 -0.17239657044410706,0.11699584126472473 0.06168290600180626 -0.06599953770637512!0.025687504559755325 0.1323963850736618 -0.13051186501979828,-0.19183166325092316 0.20687724649906158 0.2220778465270996,0.11508333683013916 -0.042456768453121185 -0.2714558243751526!-0.019256198778748512 -0.03008326329290867 0.005185093265026808,-0.11707048863172531 -0.1638849824666977 0.09178473055362701,0.054229263216257095 -0.0329337902367115 -0.29523006081581116!0.10617241263389587 0.08464103937149048 -0.039846502244472504,0.17594100534915924 0.16452963650226593 0.12068738043308258,0.05527302250266075 0.30220872163772583 0.12279495596885681!-0.2413060963153839 -0.15459024906158447 -0.06942349672317505,0.07577676326036453 -0.11687687784433365 -0.12272492796182632,-0.12943856418132782 -0.0198665764182806 -0.111124187707901!-0.013544151559472084 0.0706593319773674 0.09526201337575912,-0.2822403311729431 0.02444380335509777 0.09435078501701355,-0.008577317930758 -0.24675923585891724 -0.09465011954307556!0.13864244520664215 0.2528623044490814 0.03795874863862991,-0.13489823043346405 0.16507813334465027 0.04080883413553238,0.02024616301059723 -0.0439954549074173 0.3182736039161682!0.105840764939785 0.10298503190279007 0.10578757524490356,0.034544333815574646 0.13620822131633759 0.18161335587501526,-0.11909244954586029 -0.02405538596212864 0.21412740647792816!0.17383982241153717 -0.15150870382785797 -0.12741652131080627,0.19669228792190552 0.2862878441810608 0.18333101272583008,0.019636651501059532 -0.6535662412643433 0.045941468328237534!-0.025326114147901535 -0.027695821598172188 -0.039624691009521484,-0.0013733156956732273 -0.021616674959659576 -0.029555004090070724,-0.009602954611182213 -0.011624397709965706 0.03229277580976486!-0.047008875757455826 0.015206640586256981 0.010686619207262993,-0.24021704494953156 -0.07993331551551819 0.11131417751312256,0.07803483307361603 -0.007393775507807732 -0.0812794491648674!0.012248420156538486 -0.03509502112865448 0.06675737351179123,-0.18582084774971008 -0.03660115227103233 0.33195096254348755,0.22421889007091522 0.23895086348056793 0.03174007683992386!-0.009543150663375854 -0.07813853025436401 0.010759669356048107,-0.3276740610599518 -0.012672523967921734 0.17343305051326752,0.15678903460502625 -0.22858507931232452 -0.026144348084926605!0.04916147142648697 0.04841705039143562 0.07756500691175461,-0.10758354514837265 -0.2478141039609909 0.1419307142496109,0.15679502487182617 0.18212951719760895 -0.21694739162921906!0.1903475522994995 -0.1886569857597351 -0.0986579954624176,0.21882498264312744 -0.10176576673984528 0.18939544260501862,-0.14393118023872375 0.14745162427425385 0.09230725467205048!-0.2634749710559845 0.0321948304772377 0.07080963999032974,-0.301304429769516 -0.18578295409679413 0.1026887372136116,0.10307695716619492 -0.06115543097257614 -0.07356753200292587!0.038612496107816696 -0.010541113093495369 0.004191502463072538,-0.0624992698431015 -0.09531673043966293 0.08112688362598419,0.12508521974086761 0.06342850625514984 -0.0857357457280159!0.031101703643798828 0.12777476012706757 0.04780379682779312,-0.2515062093734741 -0.13860027492046356 0.12225259095430374,0.013185928575694561 0.0953511968255043 0.002618783852085471!0.017056820914149284 0.0024769967421889305 -0.01458788476884365,-0.09143655747175217 0.13886156678199768 0.09767398238182068,-0.30358070135116577 -0.5379856824874878 -0.41306978464126587!-0.026230717077851295 0.0150049002841115 -0.026454368606209755,-0.020467963069677353 -0.0004632976488210261 -0.010057181119918823,0.0315958634018898 -0.04198642447590828 0.03419479727745056!0.046036820858716965 -0.006717561278492212 -0.005278429016470909,0.014531327411532402 -0.05394751578569412 0.043358542025089264,-0.010308093391358852 0.002369839930906892 0.02793615311384201!-0.08328037708997726 -0.007531451061367989 -0.08431853353977203,-0.12976118922233582 -0.2171689122915268 0.0845206081867218,0.049607109278440475 0.08208447694778442 -0.2517806589603424
0.03338920325040817 0.04030566290020943 0.04540000483393669,-0.04080767557024956 -0.04158449172973633 0.023368697613477707,-0.010383031331002712 0.04468803107738495 -0.0582115612924099!0.15922176837921143 -0.09561712294816971 0.008542033843696117,0.1498587429523468 -0.014390712603926659 0.044936925172805786,0.19256523251533508 0.09408483654260635 0.2355193793773651!0.10780900716781616 -0.04943017661571503 0.08722865581512451,0.2708594799041748 -0.005914029199630022 0.26508909463882446,0.23887012898921967 -0.04564013332128525 0.2861902415752411!-0.010412571020424366 0.05689844489097595 -0.04155264049768448,0.012915661558508873 0.044562917202711105 -0.0008238163427449763,0.058113228529691696 0.008835525251924992 -0.04620436206459999!0.025814959779381752 -0.04580872133374214 0.0018518271390348673,-0.05300505831837654 -0.028055505827069283 -0.017557604238390923,-0.02289954200387001 -0.05804501101374626 -0.02926751598715782!-0.03881930187344551 -0.11011766642332077 -0.15041054785251617,-0.018664702773094177 -0.05919596552848816 -0.048250969499349594,-0.0006757110822945833 -0.08530107140541077 -0.10628558695316315!0.09713020920753479 -0.12591774761676788 -0.016341498121619225,0.17932595312595367 -0.07404644042253494 -0.029407167807221413,0.15345779061317444 0.040181715041399 -0.07277252525091171!0.029852569103240967 -0.03300744667649269 -0.0109522994607687,0.11630359292030334 0.1999707967042923 -0.07227618992328644,0.15954576432704926 0.36987563967704773 0.034176044166088104!0.2222653031349182 -0.045294541865587234 0.08024629205465317,0.21063530445098877 0.20935934782028198 0.19906699657440186,0.0310940183699131 0.18609610199928284 0.0957501158118248!0.13012783229351044 -0.05367591604590416 -0.06720847636461258,0.15841293334960938 -0.05101468414068222 -0.021976491436362267,0.0937662273645401 -0.10773222148418427 0.024266336113214493!0.22413454949855804 0.1116306409239769 0.12192512303590775,0.3590989112854004 0.4997740089893341 -0.01469128392636776,0.6146329641342163 0.22916296124458313 -0.012512225657701492!0.24991042912006378 0.027682654559612274 -0.07606258988380432,0.07033384591341019 0.0593838095664978 -0.22980289161205292,0.23554424941539764 0.05929369851946831 -0.0251920223236084!0.15307463705539703 -0.015313070267438889 -0.049779750406742096,0.018751753494143486 -0.07349969446659088 -0.1805371642112732,0.06140487268567085 -0.03928658366203308 -0.17706604301929474!0.028479795902967453 0.06431907415390015 -0.07079702615737915,0.08834680169820786 0.08309552818536758 -0.0011114809894934297,-0.07241779565811157 0.03446054831147194 -0.04794897511601448!-0.1671246439218521 -0.060762565582990646 -0.16154226660728455,-0.26126229763031006 -0.09115065634250641 -0.3011043965816498,-0.06348682194948196 0.008823448792099953 -0.18085233867168427!0.011132916435599327 -0.0521969348192215 -0.06182914599776268,0.10124658048152924 -0.12943534553050995 -0.1777437925338745,0.11679179221391678 -0.04462774097919464 -0.02924128621816635!0.1691088229417801 0.1378783881664276 -0.08192954212427139,0.12916596233844757 0.27653712034225464 -0.1096508800983429,0.012472960166633129 0.14182089269161224 -0.09476892650127411!0.13566555082798004 0.15689609944820404 0.09290139377117157,0.36708876490592957 0.13250741362571716 0.08846257627010345,0.2843776047229767 -0.03837704658508301 0.010388846509158611!-0.03283378481864929 -0.12852060794830322 0.036770377308130264,-0.09776689112186432 -0.1508253961801529 -0.10213989019393921,-0.15294846892356873 -0.006043670233339071 -0.06504538655281067!-0.0437149778008461 -0.01628747768700123 -0.029382646083831787,0.02524273283779621 0.013219882734119892 -0.05689455196261406,0.028697481378912926 -0.004662770312279463 -0.034390754997730255!0.13811509311199188 -0.07179383188486099 -0.11394436657428741,0.11033187061548233 -0.06074259802699089 -0.40811729431152344,0.09251181036233902 -0.14948627352714539 -0.17613951861858368!0.029463112354278564 0.039720870554447174 -0.09623439610004425,0.10655152797698975 0.05020846799015999 -0.06781131774187088,0.15328992903232574 -0.132895365357399 -0.21145851910114288!-0.04545864462852478 -0.27053382992744446 0.020524317398667336,-0.008471595123410225 -0.6328698992729187 -0.002836837898939848,0.07120431959629059 -0.32482755184173584 0.15882007777690887!0.10220813751220703 -0.06714487820863724 0.03630782663822174,0.034388624131679535 -0.03510851040482521 -0.15480254590511322,0.0555550716817379 -0.03553938865661621 -0.15988115966320038!-0.1752413958311081 -0.14928624033927917 -0.12277168780565262,-0.3152473270893097 -0.316699355840683 -0.06981556862592697,-0.3150879144668579 -0.23769202828407288 -0.0647064745426178!0.005718080792576075 -0.12537312507629395 -0.05721143260598183,0.025190142914652824 -0.04817138984799385 -0.06287157535552979,0.16677157580852509 0.1290251463651657 0.07704062759876251!0.05858766660094261 -0.19287991523742676 -0.12894457578659058,0.0038831441197544336 -0.12736159563064575 -0.023264694958925247,-0.03888487443327904 -0.10652334243059158 -0.02338532730937004!-0.005762205459177494 -0.2026011347770691 -0.10344701260328293,0.08638887107372284 -0.07582804560661316 -0.03909469395875931,0.17602331936359406 -0.01594681665301323 0.0004767796490341425!-0.08687060326337814 -0.11170440167188644 0.008593778125941753,-0.1069965809583664 -0.33384913206100464 -0.09713475406169891,-0.06020169332623482 -0.06473686546087265 0.020452868193387985!-0.03222563490271568 -0.021464820951223373 -0.053840842097997665,0.02853483520448208 0.013669637963175774 -0.05861075595021248,-0.0588964968919754 -0.029675932601094246 0.022737549617886543!0.053934767842292786 -0.00917890202254057 0.035060469061136246,-0.031782686710357666 -0.012230629101395607 -0.009134922176599503,-0.057369280606508255 0.00030741910450160503 0.015595612116158009!0.06539229303598404 -0.1645655333995819 -0.0909455269575119,0.13600394129753113 0.016156625002622604 -0.11553873866796494,0.031766489148139954 0.028918201103806496 -0.07806331664323807
-0.014057577587664127 0.02633490413427353 -0.028164947405457497,-0.012182505801320076 -0.07307422906160355 0.02803339809179306,-0.005386254284530878 0.026385804638266563 0.02173541486263275!0.03361992537975311 -0.002397743286564946 0.10041284561157227,0.039893485605716705 0.026565050706267357 0.06511812657117844,-0.04307645186781883 0.0958135798573494 -0.026467997580766678!0.051822442561388016 0.06672295182943344 0.11903133243322372,0.03114950843155384 0.01042181346565485 -0.03049519471824169,0.018559791147708893 0.04486268386244774 -0.11303002387285233!-0.018410950899124146 -0.03661677613854408 0.041401419788599014,0.06340652704238892 -0.0006959931924939156 -0.04655412584543228,0.039324041455984116 0.04505317285656929 0.046183787286281586!-0.0010665049776434898 0.014485077932476997 0.002997160656377673,-0.0032626481261104345 -0.059522900730371475 -0.02301914617419243,0.025485524907708168 0.03437202051281929 0.014014817774295807!0.035871610045433044 0.01387682557106018 -0.021483615040779114,0.06272763758897781 -0.028855159878730774 0.04937432333827019,0.05009576678276062 0.03945532068610191 0.020473608747124672!0.07821866124868393 0.004269457422196865 0.07075461745262146,0.03439990058541298 0.0016651562182232738 0.09235035628080368,0.023778093978762627 0.09685784578323364 -0.014628023840487003!0.15290020406246185 0.030790166929364204 0.16233283281326294,-0.0057220542803406715 0.08674618601799011 0.32723334431648254,-0.03834354504942894 0.08348629623651505 0.22419801354408264!0.023613477125763893 0.0788511261343956 0.09252403676509857,0.004284682217985392 0.04611271992325783 0.006082148756831884,0.10696858912706375 -0.012964692898094654 -0.0327678807079792!-0.05179321765899658 -0.056744277477264404 0.0758570060133934,-0.0829489454627037 -0.056233376264572144 0.14345933496952057,-0.005081686656922102 0.0432402640581131 -0.04900290071964264!0.16116832196712494 0.12111254036426544 0.20181217789649963,0.1080872118473053 0.2102101892232895 0.47845444083213806,-0.13482384383678436 0.08223093301057816 0.20478053390979767!0.08363759517669678 -0.02584369108080864 -0.05904560536146164,0.04300538823008537 -0.2981230914592743 0.018107855692505836,-0.08064120262861252 0.035560186952352524 0.12778085470199585!-0.06901198625564575 -0.045647840946912766 0.011234967969357967,0.057111144065856934 -0.16640864312648773 -0.00878866109997034,0.008940332569181919 0.03155490756034851 0.06623806059360504!0.19226118922233582 0.14811576902866364 0.045390304177999496,0.17863017320632935 -0.00107251713052392 -0.39193421602249146,0.10905143618583679 -0.16688783466815948 -0.4361003041267395!0.013412191532552242 0.028630686923861504 -0.28242573142051697,0.24285750091075897 0.18278028070926666 -0.03594722971320152,-0.07553870230913162 0.121011883020401 0.027702702209353447!0.025730501860380173 -0.15893235802650452 0.057880572974681854,-0.05982276052236557 -0.1154123842716217 0.06657999753952026,-0.030572956427931786 0.141745463013649 -0.021992119029164314!0.09427419304847717 0.19220896065235138 0.0396646186709404,0.09963235259056091 -0.025255907326936722 -0.2867666184902191,0.06932470947504044 -0.13859568536281586 -0.3023586571216583!-0.09982743114233017 0.09282449632883072 -0.0018948500510305166,-0.08694224059581757 -0.0806434378027916 -0.15750093758106232,0.06970915198326111 -0.09061489254236221 -0.1438777595758438!0.08671598881483078 0.009647993370890617 -0.0028883321210741997,0.01673121005296707 -0.16037248075008392 0.04198792576789856,-0.03774956613779068 0.022358296439051628 0.15076102316379547!-0.039205487817525864 0.0309327132999897 -0.04369158297777176,-0.0025845495983958244 -0.049014560878276825 -0.02143857441842556,-0.004136344417929649 -0.013152481988072395 0.03840727359056473!0.0753905326128006 -0.10050839930772781 -0.06755206733942032,-0.03450074419379234 -0.16470825672149658 0.03949987515807152,-0.06493839621543884 0.11531984806060791 0.0674564391374588!0.016301022842526436 -0.23229505121707916 -0.018433690071105957,-0.07659108191728592 -0.19616052508354187 0.039593759924173355,0.026596376672387123 0.08533512055873871 -0.007605191320180893!-0.030799102038145065 -0.13609932363033295 0.10281353443861008,-0.08901000767946243 -0.024114079773426056 0.1283702701330185,0.03588293120265007 0.1005057767033577 0.11385020613670349!-0.06306534260511398 -0.12566590309143066 0.020559312775731087,0.006812534760683775 -0.010853560641407967 0.05690549314022064,-0.044057756662368774 0.0431540384888649 -0.08221312612295151!0.09442007541656494 -0.08487223833799362 -0.05562666431069374,-0.04795270413160324 0.16636532545089722 -0.18136613070964813,0.09414597600698471 0.23470212519168854 -0.05332636833190918!0.05154470354318619 -0.06544274836778641 0.020043380558490753,-0.08315499871969223 0.08846332877874374 0.4220309853553772,-0.00846994947642088 0.20526517927646637 0.2478892207145691!-0.026054037734866142 -0.07851120829582214 0.11856991052627563,-0.07928253710269928 0.0178986769169569 0.05992429330945015,0.004871371667832136 0.136572927236557 -0.006245042663067579!-0.03906514495611191 -0.11977791786193848 0.06895055621862411,-0.11138638854026794 0.05290541425347328 0.14957654476165771,0.11516589671373367 0.1864359974861145 -0.10360629111528397!-0.1125117689371109 -0.0015699192881584167 0.08974819630384445,-0.027504129335284233 -0.01089169830083847 0.08596936613321304,0.013124612160027027 0.14489223062992096 0.20427599549293518!0.052942611277103424 -0.020594051107764244 -0.019259093329310417,-0.057606831192970276 0.021251674741506577 -0.06123848631978035,0.04485096409916878 -0.04666974022984505 -0.01078752800822258!0.00796001497656107 0.0579245425760746 -0.03879021108150482,-0.04184912517666817 0.03541912883520126 -0.02861931174993515,-0.021684806793928146 0.03406472131609917 -0.024425502866506577!0.09285704791545868 -0.06331880390644073 0.11565980315208435,0.09344195574522018 7.374180131591856e-05 0.06731194257736206,-0.03581984341144562 0.04198702424764633 -0.002011915436014533
0.04501456767320633 0.0012166800443083048 0.01904386840760708,-0.00871227029711008 0.0061172679997980595 0.013563686050474644,0.001718828803859651 0.04286511242389679 0.057812392711639404!-0.026131730526685715 0.07011887431144714 0.123754121363163,0.039308398962020874 0.02732256054878235 -0.14748802781105042,-0.15659473836421967 -0.20378629863262177 -0.13398690521717072!-0.07061183452606201 0.13151176273822784 0.06755921989679337,-0.09573577344417572 0.0446031279861927 -0.005109987687319517,-0.054182250052690506 -0.24233344197273254 -0.27707231044769287!0.01524646021425724 0.009460518136620522 -0.053250957280397415,0.028251731768250465 -0.04783784970641136 0.005608563311398029,0.023617452010512352 0.037732452154159546 -0.05061701685190201!0.04399951919913292 0.008199472911655903 0.0513039268553257,0.058003153651952744 -0.014696311205625534 0.008371671661734581,-0.014244595542550087 0.046344317495822906 -0.025269905105233192!0.26499903202056885 0.18158160150051117 0.1598164141178131,0.1409081071615219 0.1528543382883072 0.08749289065599442,-0.03335672616958618 0.010670052841305733 0.04954852908849716!0.14685653150081635 0.1688394695520401 0.2055910974740982,0.021725498139858246 0.2033255696296692 0.14427943527698517,-0.05702279508113861 -0.15860110521316528 -0.1679072231054306!0.048992082476615906 0.04037366434931755 0.02802240662276745,0.014070945791900158 -0.08392517268657684 -0.24827443063259125,-0.027910325676202774 -0.4062982201576233 -0.3657435476779938!0.051242928951978683 0.09332205355167389 0.10518801957368851,-0.028615757822990417 -0.14865674078464508 -0.13622213900089264,0.10493743419647217 0.07532506436109543 -0.06084761768579483!0.14768069982528687 0.15945090353488922 0.13669158518314362,-0.008930274285376072 0.13743458688259125 0.13279874622821808,-0.05242498591542244 -0.08387084305286407 -0.12004505097866058!0.18519920110702515 0.12838637828826904 0.034823037683963776,-0.09976265579462051 -0.1795627772808075 -0.17596442997455597,-0.053501807153224945 -0.2265854924917221 -0.22752010822296143!0.018043486401438713 0.10761813819408417 0.07791314274072647,-0.07409254461526871 -0.0393705852329731 0.006586540024727583,-0.04158472642302513 -0.11604543775320053 -0.06601861864328384!0.24937108159065247 0.19015468657016754 0.2160615473985672,0.04067720100283623 0.04179076850414276 0.08535248041152954,-0.1416909098625183 0.04064721241593361 0.008465694263577461!-0.27493518590927124 -0.23101888597011566 -0.12080127745866776,0.12804077565670013 -0.1569439023733139 -0.3330185115337372,0.17017850279808044 0.3290594518184662 0.04211609810590744!0.12035863101482391 -0.06912964582443237 -0.15780237317085266,-0.04960009083151817 -0.2278236448764801 -0.2726942300796509,0.2521231770515442 0.052524589002132416 -0.021108144894242287!0.0940837562084198 0.07139883190393448 0.07941801846027374,0.045602139085531235 0.10734773427248001 0.10047569870948792,-0.07704320549964905 -0.05843410640954971 -0.04107429459691048!0.04361826181411743 0.06386566162109375 0.0556526817381382,0.0686018094420433 -0.17288713157176971 -0.14493592083454132,0.07610035687685013 0.10544044524431229 0.12251609563827515!0.01746390387415886 -0.06840241700410843 0.1122148185968399,-0.11533425748348236 -0.03761189430952072 -0.19557666778564453,0.20813414454460144 0.18171559274196625 -0.15760567784309387!-0.1268240064382553 -0.10309609025716782 -0.15270377695560455,0.21841031312942505 -0.030951695516705513 -0.15178734064102173,0.21543245017528534 0.22868694365024567 0.07349266856908798!-0.0007406629156321287 -0.06011221557855606 -0.004284411668777466,0.02395547181367874 -0.02925797551870346 -0.012940528802573681,-0.013362197205424309 0.04572037234902382 0.043535396456718445!0.010446195490658283 0.004885051865130663 0.0012575885048136115,-0.007145393174141645 0.004740288946777582 0.012201660312712193,0.08290794491767883 -0.01709573343396187 0.09642881900072098!-0.022761467844247818 -0.00815356895327568 -0.017716534435749054,-0.06724492460489273 -0.05555405467748642 0.0026870733126997948,0.04809127002954483 0.01041135098785162 -0.005906073842197657!-0.0192587748169899 -0.09304648637771606 0.08016134053468704,0.011533149518072605 -0.0046567791141569614 -0.04550613835453987,-0.08980928361415863 -0.020030392333865166 -0.04590359330177307!0.09310778230428696 0.18767882883548737 0.14621776342391968,0.06261376291513443 0.007750446442514658 0.07326963543891907,-0.16738276183605194 -0.12308624386787415 -0.07882425934076309!-0.08896414935588837 -0.2421620935201645 -0.20732323825359344,0.11823244392871857 -0.22996225953102112 -0.18161629140377045,-0.10221458226442337 0.18543578684329987 0.15776337683200836!-0.05767923966050148 0.0024099317379295826 0.03395466506481171,-0.17519503831863403 -0.19135290384292603 0.005631646141409874,-0.020343244075775146 -0.47918403148651123 -0.35646721720695496!0.04149334877729416 0.08994770050048828 0.16523586213588715,0.07884418219327927 0.1136716902256012 0.12070021778345108,-0.17493131756782532 -0.11655198782682419 -0.33673590421676636!0.042300984263420105 0.04726052284240723 0.025166980922222137,0.08396895229816437 0.11778771132230759 0.18795938789844513,-0.08256575465202332 -0.21255099773406982 -0.23397913575172424!0.04814206808805466 0.12960253655910492 0.04645713046193123,0.16030658781528473 0.044965170323848724 0.021390400826931,-0.011325311847031116 0.11450345814228058 0.15140962600708008!0.026329796761274338 -0.08242186903953552 0.02281692624092102,-0.01659892126917839 -0.04648573696613312 2.116155155817978e-05,-0.0012713245814666152 0.029019130393862724 -0.05248080566525459!0.016005834564566612 0.05309106409549713 -0.033291295170784,0.014080679044127464 -0.02368912100791931 0.01448700949549675,0.02551572397351265 -0.0362924225628376 0.014100494794547558!0.03651335835456848 0.07007943093776703 0.06272651255130768,0.011674212291836739 -0.010836844332516193 -0.04749821871519089,-0.24174176156520844 -0.14238393306732178 -0.1840035319328308
0.030628345906734467 -0.03601750731468201 -0.02920982800424099,0.02881437912583351 -0.055166833102703094 -0.015231216326355934,-0.035417258739471436 -0.05329238623380661 0.03745967149734497!0.05977918207645416 0.08552262932062149 0.00715710548684001,0.04116886854171753 0.05389249324798584 -0.0025466573424637318,0.052541349083185196 -0.011093568056821823 0.09427769482135773!0.1027444452047348 0.1518653929233551 0.03067474067211151,0.00570965139195323 0.09826208651065826 0.05673899129033089,0.05515900254249573 0.06734950840473175 0.09712420403957367!0.03823434188961983 -0.020939407870173454 -0.051990680396556854,0.07796890288591385 0.0540388859808445 -0.03272612392902374,0.04240887612104416 0.015701310709118843 -0.007381956093013287!-0.03191313147544861 -0.03135814145207405 0.047281451523303986,-0.05375569686293602 -0.02540135383605957 0.039757318794727325,-0.028785672038793564 0.05797845497727394 0.026535918936133385!0.044946156442165375 0.082228884100914 0.09180022031068802,0.10010186582803726 0.14217549562454224 0.14547868072986603,0.07095155864953995 0.0705510824918747 0.043431006371974945!0.07158298790454865 0.09547106176614761 0.13702130317687988,0.03549643233418465 0.09666415303945541 0.05414216220378876,0.15990737080574036 0.04976588860154152 0.08697187900543213!0.04781289026141167 0.033624451607465744 0.06281804293394089,-0.14207179844379425 -0.2602064311504364 -0.2290484458208084,0.147664412856102 0.09216160327196121 0.12758910655975342!-0.06298747658729553 -0.09781353175640106 -0.09252072870731354,0.06428536027669907 0.10668975114822388 0.09728319942951202,-0.049396269023418427 0.034628476947546005 0.024313710629940033!0.014665944501757622 0.09619740396738052 0.10570291429758072,-0.03715071454644203 -0.025242876261472702 0.09215667843818665,0.08419442176818848 0.01918923109769821 -0.15977679193019867!-0.028340844437479973 0.06539486348628998 0.06581763178110123,-0.04349946603178978 -0.18852920830249786 -0.19141685962677002,0.2430015504360199 0.3271043300628662 0.26573869585990906!0.0636608898639679 0.08920665085315704 0.087617427110672,0.08759573847055435 0.13460372388362885 0.06276470422744751,0.06692072749137878 0.05903787538409233 -0.005341030657291412!0.006169686559587717 0.08889031410217285 0.10669922083616257,0.09597824513912201 0.0840689092874527 0.13857391476631165,0.07153680175542831 0.13056957721710205 0.04454650729894638!-0.07520826905965805 -0.21272774040699005 -0.18543408811092377,0.10726894438266754 -0.03747709468007088 0.014652497135102749,-0.2891092896461487 -0.18045654892921448 -0.09030899405479431!-0.3165271282196045 -0.40996772050857544 -0.20890875160694122,0.016324147582054138 -0.41741836071014404 -0.23583871126174927,0.13688498735427856 -0.03020833618938923 0.07134221494197845!0.08703959733247757 0.08380378782749176 -0.06207103654742241,-0.00835039559751749 -0.0025946663226932287 -0.00707398122176528,0.005250317510217428 0.0023113032802939415 -0.06983576714992523!0.1413324773311615 -0.20675146579742432 -0.3731876611709595,0.05786602571606636 0.05673343315720558 -0.1625072956085205,-0.18636435270309448 -0.06805966049432755 0.23008312284946442!0.09845706820487976 0.07189293205738068 -0.2587292194366455,0.11679250001907349 0.18208172917366028 0.154457688331604,-0.119050033390522 -0.0775136947631836 -0.008330258540809155!-0.10653907060623169 -0.20155955851078033 -0.08491911739110947,-0.00941629707813263 0.07523190975189209 0.27500206232070923,-0.08328468352556229 -0.06905168294906616 -0.28118836879730225!0.04547082260251045 0.026655396446585655 0.02390071377158165,-0.044047728180885315 -0.016662107780575752 0.04352583736181259,0.05839261785149574 0.04576165974140167 0.06115710735321045!-0.05338825657963753 -0.11218734830617905 -0.02226145751774311,-0.025750137865543365 -0.06850388646125793 0.03245769441127777,0.05710458755493164 -0.010976936668157578 -0.14239183068275452!0.11174486577510834 0.0379144661128521 -0.04719467833638191,0.044561486691236496 0.14972595870494843 0.02445436641573906,-0.19125966727733612 -0.2886485457420349 -0.365988552570343!0.12173520028591156 0.14349265396595 0.12074265629053116,-0.04451863095164299 0.023975146934390068 0.1438169777393341,-0.04968848079442978 -0.12391696125268936 -0.32205671072006226!-0.02691243775188923 0.10265657305717468 0.048437707126140594,-0.0742839127779007 -0.0348811000585556 0.09981252253055573,-0.08256664872169495 -0.09846512973308563 -0.11538909375667572!-0.0928240567445755 -0.2093864530324936 -0.10086159408092499,-0.09846863150596619 -0.031971532851457596 0.021060630679130554,-0.10223343968391418 -0.3186832070350647 -0.4383791983127594!-0.016954848542809486 -0.06577350199222565 -0.0031725785229355097,-0.049564868211746216 -0.28518787026405334 -0.16803856194019318,0.09803266078233719 0.08257052302360535 0.07697027921676636!0.09175985306501389 0.11395188421010971 0.09714069217443466,-0.059342630207538605 0.054163165390491486 0.10652915388345718,0.02452126331627369 -0.053322769701480865 -0.11207225918769836!0.094285748898983 0.08730670809745789 0.1081785336136818,0.03511499986052513 0.03646647930145264 0.013532002456486225,0.014416261576116085 -0.04973490536212921 -0.07735996693372726!-0.03706612065434456 -0.06735058128833771 -0.11575248092412949,-0.0006844254676252604 -0.12697023153305054 0.014808166772127151,0.10454649478197098 0.09488052874803543 -0.19760315120220184!-0.007703685201704502 -0.06037077307701111 0.023046817630529404,0.056575290858745575 -0.02745438553392887 -0.04256641864776611,0.05290858820080757 0.010777738876640797 0.04262126237154007!0.025592459365725517 0.009294595569372177 -0.017361368983983994,0.012097543105483055 0.018959999084472656 -0.003572317771613598,-0.037637993693351746 -0.030906712636351585 -0.05400820076465607!0.037798721343278885 0.07772137224674225 0.1419835239648819,-0.07261121273040771 -0.10966089367866516 0.10747695714235306,0.06628547608852386 -0.0299754086881876 -0.06115967035293579
0.02428322471678257 0.056122660636901855 0.011011308990418911,0.05095713958144188 0.081270731985569 0.044236019253730774,0.01156520564109087 0.04270012676715851 -0.06067562848329544!0.008698361925780773 -0.3971402943134308 -0.25063687562942505,-0.08669504523277283 -0.0653701201081276 0.057081300765275955,0.05987190455198288 0.055594515055418015 -0.050113093107938766!0.0314590185880661 -0.23541808128356934 -0.11687316000461578,-0.04461967572569847 -0.048007071018218994 -0.08570968359708786,-0.01885823719203472 -0.016671933233737946 -0.039324626326560974!0.052737344056367874 -0.04464328661561012 -0.04070007801055908,0.022135386243462563 0.039036825299263 0.033614225685596466,-0.05166810005903244 0.04801573231816292 -0.05183219909667969!-0.01742689311504364 0.0011936970986425877 0.027555258944630623,-0.018000708892941475 -0.05036062374711037 -0.07824792712926865,-0.023630445823073387 0.044906504452228546 0.02556689642369747!0.029066748917102814 -0.08208544552326202 -0.06225838512182236,0.00656718946993351 -0.004766311030834913 0.03413392975926399,0.024631790816783905 0.02670678123831749 0.0023132762871682644!-0.05334760993719101 -0.14858420193195343 -0.03947318345308304,0.0004643669235520065 0.048521384596824646 0.08953631669282913,0.00418725423514843 0.04572780430316925 -0.08794429898262024!0.03293196111917496 -0.1617320030927658 0.00023271339887287468,0.01605607569217682 0.15072908997535706 0.09118589758872986,0.04617181792855263 0.1687672883272171 0.15112191438674927!0.11579390615224838 -0.35679879784584045 -0.4936926066875458,-0.23820728063583374 -0.20073650777339935 -0.2610780894756317,0.050177548080682755 0.057687077671289444 0.09565477818250656!-0.006380546372383833 -0.23060525953769684 -0.04900322109460831,-0.09204486757516861 0.07825196534395218 0.025778748095035553,0.01754296012222767 0.1004149541258812 -0.02913312241435051!0.10293814539909363 0.044665902853012085 -0.025516372174024582,0.028536103665828705 0.06006607785820961 0.08965829759836197,0.06991171836853027 0.21542823314666748 -0.24536819756031036!0.0548810213804245 -0.061249081045389175 -0.21549223363399506,-0.06391245126724243 -0.12755006551742554 0.11322968453168869,0.14957115054130554 0.15198419988155365 -0.041384853422641754!-0.021711349487304688 -0.15266962349414825 -0.36500510573387146,-0.12049219757318497 -0.15205718576908112 0.07403549551963806,0.05017821490764618 -0.012037446722388268 -0.025565192103385925!0.06767328083515167 -0.0047304993495345116 -0.08777374029159546,-0.06821954995393753 -0.1964409053325653 -0.37833404541015625,-0.11630479991436005 -0.3865089416503906 -0.14996778964996338!-0.042512789368629456 0.151137113571167 0.3338586986064911,0.06255827099084854 0.1467152088880539 0.26448309421539307,0.07571274042129517 0.24998928606510162 0.006051755975931883!-0.021900061517953873 -0.18259543180465698 -0.02802085131406784,-0.0758565291762352 0.05630766600370407 0.1950254738330841,0.034778185188770294 0.09613379091024399 -0.0010874364525079727!-0.02443796582520008 0.05787060409784317 0.11021475493907928,-0.030576152727007866 -0.060223184525966644 -0.02669920213520527,0.040666092187166214 -0.19010362029075623 -0.07239969819784164!-0.0678216814994812 -0.07726588845252991 0.020973263308405876,-0.13898161053657532 -0.07894250750541687 0.015138654969632626,-0.027598686516284943 -0.050197627395391464 -0.09118420630693436!-0.06706880033016205 -0.15111887454986572 -0.6548411250114441,-0.13639792799949646 -0.21044857800006866 0.12601135671138763,0.14164818823337555 0.07254238426685333 0.15584757924079895!0.03320392593741417 0.00944134034216404 -0.03419724106788635,-0.052011553198099136 0.011927429586648941 0.05957125127315521,-0.03991469368338585 0.015251071192324162 -0.06418758630752563!0.06051219627261162 -0.1561022400856018 -0.012606325559318066,-0.14054417610168457 0.16696776449680328 0.25431832671165466,0.10468301177024841 0.10598655790090561 0.029551705345511436!0.017631052061915398 -0.2475682944059372 -0.011149748228490353,0.028032753616571426 0.05992764234542847 0.18508149683475494,0.057043276727199554 0.1299644261598587 -0.1179676279425621!0.01643071323633194 -0.17470437288284302 -0.038921575993299484,-0.06583340466022491 0.07504186034202576 0.14417828619480133,0.06801805645227432 -0.03771660849452019 -0.11448934674263!0.04661489278078079 -0.2264285385608673 -0.14388220012187958,-0.05710636079311371 -0.05498223751783371 0.09197069704532623,0.040941644459962845 -0.09945416450500488 -0.016599055379629135!-0.06252329051494598 -0.10058926790952682 0.0742841437458992,0.011366465128958225 0.1311887949705124 -0.04970571771264076,0.09094887226819992 -0.08368341624736786 0.07822860032320023!0.11051535606384277 -0.02458985336124897 0.08045927435159683,0.052282195538282394 0.1464412957429886 0.0832243487238884,0.10867111384868622 0.09627392888069153 -0.09497782588005066!0.0166309867054224 -0.2095850557088852 0.004563052207231522,-0.05783038213849068 0.11056677997112274 0.020808858796954155,0.028338421136140823 -0.01989804580807686 -0.098166324198246!-0.03882242366671562 -0.08890007436275482 0.08155610412359238,0.06448125094175339 0.11912448704242706 0.0782601460814476,-0.013758792541921139 -0.05478554591536522 -0.1606835573911667!-0.05499636009335518 -0.20601008832454681 -0.13526062667369843,-0.2574513256549835 0.09747070074081421 0.13077519834041595,0.05041738599538803 0.1482338309288025 0.18998035788536072!0.05421748012304306 0.019239798188209534 -0.0055638826452195644,0.005785833578556776 0.024388708174228668 0.03152067959308624,0.03263070061802864 0.048031020909547806 -0.01144017931073904!-0.040709998458623886 0.019653841853141785 0.051652826368808746,-0.009346675127744675 0.04758865386247635 0.04160812869668007,0.020717360079288483 -0.01593632809817791 -0.019760766997933388!-0.00929771363735199 -0.15035951137542725 -0.09126632660627365,-0.1575818806886673 -0.07101214677095413 0.06314874440431595,0.14353474974632263 0.04660697653889656 -0.07531969249248505
-0.03894920274615288 -0.0403839647769928 0.04986773431301117,0.017162153497338295 0.05995525047183037 -0.04595956578850746,0.050907671451568604 0.039529949426651 -0.014362391084432602!-0.0024893702939152718 -0.07093342393636703 -0.03832840919494629,0.07610864192247391 -0.07685267180204391 0.06785603612661362,0.13088856637477875 -0.08842699974775314 0.2683204114437103!0.002830920973792672 -0.10129091143608093 -0.06438731402158737,0.10887324064970016 -0.1977332979440689 0.046338532119989395,0.07894426584243774 -0.026047304272651672 0.24003879725933075!0.024830400943756104 0.01970677077770233 0.021435825154185295,-0.023492861539125443 -0.0573362372815609 0.015254816971719265,0.04845137894153595 -0.00927806831896305 0.022342953830957413!-0.003787280758842826 -0.013306588865816593 0.04020332545042038,-0.027395103126764297 -0.05443005636334419 -0.009741337969899178,-0.03435514122247696 -0.038916777819395065 -0.017275890335440636!0.03190808370709419 0.027819132432341576 0.06505528092384338,0.1109170988202095 -0.001943310140632093 0.00014966496382839978,0.023644644767045975 -0.05490442365407944 -0.0687192901968956!0.016797151416540146 0.05546744167804718 -0.029195511713624,0.10420618951320648 -0.07696069031953812 0.019793417304754257,0.07499905675649643 -0.13056343793869019 0.013263987377285957!0.07305151969194412 0.0635196641087532 -0.09851376712322235,0.185790553689003 0.22511127591133118 0.18056873977184296,0.15620405972003937 0.004403605125844479 0.2123868316411972!-0.06825648248195648 0.003973077517002821 0.07519964873790741,0.004670725204050541 -0.05815092474222183 0.09332586079835892,0.129105806350708 -0.04435410350561142 0.1363336592912674!0.06931867450475693 -0.03273609280586243 0.020033080130815506,0.1236656978726387 -0.10702437907457352 0.05055350437760353,0.05863470584154129 -0.24579036235809326 0.044992413371801376!0.22413606941699982 -0.201135516166687 -0.016757382079958916,0.23093830049037933 0.17296497523784637 0.180808424949646,0.4644577205181122 0.0830811858177185 0.1479014903306961!0.08915311098098755 -0.0025608655996620655 0.019604118540883064,0.17855452001094818 -0.049303263425827026 -0.09115022420883179,0.18024054169654846 -0.08148271590471268 0.0344541072845459!-0.030352411791682243 0.04649871960282326 0.0750449150800705,0.09015729278326035 -0.07499189674854279 -7.721644215052947e-05,0.08106371760368347 -0.15069463849067688 -0.03549046441912651!-0.20500662922859192 -0.08886130899190903 -0.03479016199707985,-0.09669549018144608 0.08193409442901611 0.019892441108822823,0.046435434371232986 0.09305942803621292 0.022574428468942642!0.061452675610780716 0.11028526723384857 -0.11055036634206772,0.0435195155441761 -0.04259492829442024 -0.24018728733062744,-0.027470016852021217 -0.030749332159757614 -0.10949390381574631!0.05612737312912941 -0.023054683580994606 -0.0447014681994915,0.12686039507389069 -0.20764347910881042 0.02033953368663788,0.15153636038303375 -0.33830025792121887 0.12231405079364777!-0.20135283470153809 -0.1849333792924881 0.13642773032188416,-0.03176850080490112 -0.022402171045541763 0.06959106773138046,-0.09137427061796188 0.17489533126354218 -0.021297389641404152!-0.011593133211135864 -0.14517922699451447 0.13257524371147156,0.018858114257454872 -0.05069153383374214 0.1050519198179245,-0.0032395878806710243 0.23092088103294373 0.06857868283987045!-0.007845217362046242 0.08063516020774841 -0.03213995322585106,0.001293657929636538 0.07980231195688248 -0.055658381432294846,0.07174757868051529 -0.16177190840244293 0.11407545208930969!-0.024362711235880852 0.04363543540239334 -0.02441965416073799,0.020130474120378494 -0.06099858507514 -0.03992226719856262,0.010345377959311008 0.01770612597465515 -0.0346560962498188!0.08345967531204224 0.020822424441576004 -0.003591925837099552,0.06931469589471817 -0.10307594388723373 0.03536801040172577,0.04760649800300598 -0.1915741115808487 -0.03639187663793564!0.09711731225252151 -0.005692200735211372 0.019099777564406395,0.07739264518022537 -0.16178622841835022 -0.09212172776460648,0.0005659798625856638 -0.2666475176811218 0.01709340699017048!0.05165305361151695 -0.014720902778208256 -0.02348621003329754,0.07480164617300034 -0.12413150072097778 -0.015251276083290577,-0.02857053279876709 -0.2775544226169586 0.06078590825200081!0.002676979638636112 0.0524134486913681 0.0642087385058403,0.08668702095746994 -0.1256752461194992 -0.04064545780420303,0.0010667070746421814 -0.08928441256284714 -0.06832313537597656!0.04703249782323837 0.11451893299818039 -0.03940169885754585,-0.12043221294879913 0.005324470344930887 -0.07989875972270966,-0.19240090250968933 -0.05832406133413315 -0.10746347159147263!0.11858757585287094 0.08742688596248627 -0.20224368572235107,0.160551518201828 -0.2101171463727951 -0.0744897723197937,0.3027796447277069 -0.057403385639190674 0.0055585093796253204!0.0187961608171463 -0.06458383798599243 0.0214899480342865,0.06480249017477036 -0.09655960649251938 -0.028155270963907242,0.07838957756757736 -0.034277431666851044 0.1479712426662445!0.06309376657009125 -0.06370365619659424 0.010957218706607819,0.008733469992876053 -0.24615910649299622 0.0781753808259964,-0.025280360132455826 -0.07562494277954102 0.07654961198568344!0.03885124251246452 0.11725431680679321 0.01089277770370245,0.06817860156297684 0.08433764427900314 0.1266951858997345,0.09492885321378708 -0.11800607293844223 0.04813295602798462!0.027538519352674484 -0.008742625825107098 0.023625021800398827,0.01839175820350647 0.07950630784034729 0.05084715038537979,0.031128067523241043 -0.023630421608686447 0.027967125177383423!0.053253356367349625 0.009067852050065994 0.04097025468945503,-0.05395159125328064 -0.004662720020860434 -0.051212720572948456,0.004213223699480295 0.010991941206157207 0.016639266163110733!0.03813500329852104 0.03372296318411827 -0.06370806694030762,0.11757045984268188 -0.016464179381728172 -0.016693126410245895,0.09868668764829636 -0.19790315628051758 0.1568407267332077
-0.049206219613552094 -0.05531531572341919 -0.016414392739534378,0.04712746664881706 0.029772112146019936 0.03787119686603546,-0.013727826066315174 0.05205173045396805 -0.026868300512433052!-0.03907981514930725 -0.04002511501312256 -0.0067031243816018105,-0.0017499231034889817 -0.08130603283643723 0.02203020453453064,-0.023820385336875916 0.06545870006084442 -0.006037116050720215!-0.02220907434821129 -0.01561122015118599 0.040586650371551514,-0.05567413195967674 0.012144174426794052 -0.06497315317392349,0.0186220183968544 -0.024638531729578972 -0.04217970371246338!-0.026594676077365875 -0.010005696676671505 -0.0007307560881599784,0.019042395055294037 0.05284317210316658 0.03471294417977333,-0.028413360938429832 0.055369291454553604 -0.008677291683852673!-0.03285858780145645 0.022026006132364273 -0.010268664918839931,0.0562356635928154 0.006573384162038565 0.039000045508146286,0.015172387473285198 -0.03850898519158363 0.012401850894093513!-0.051012683659791946 -0.028053389862179756 -0.03403223678469658,-0.07608046382665634 0.0021406698506325483 0.014257167465984821,-0.08786379545927048 0.0054663061164319515 -0.07110464572906494!-0.06705161184072495 0.007249725051224232 -0.030970444902777672,-0.05199145898222923 0.02211586944758892 -0.030575457960367203,-0.06957584619522095 0.025230472907423973 -0.026371661573648453!-0.027310794219374657 -0.028154810890555382 -0.046567339450120926,0.051599208265542984 -0.07428731769323349 -0.014336739666759968,-0.050988636910915375 0.001133313518948853 -0.03444657102227211!-0.05971085652709007 0.011583710089325905 -0.10646422207355499,0.012198968790471554 -0.0006795242079533637 -0.013279992155730724,-0.05409746989607811 -0.025027258321642876 -0.004122097045183182!0.04302016645669937 -0.03378697484731674 -0.0724019780755043,-0.0429878793656826 -0.07079074531793594 -0.03983091935515404,-0.06167621910572052 0.04917304590344429 0.023504607379436493!-0.008217868395149708 0.025814883410930634 -0.013280981220304966,-0.09179221838712692 0.005963412579149008 -0.0713174119591713,-0.024325842037796974 -0.059224002063274384 -0.019208183512091637!-0.0478484220802784 0.01749364472925663 0.005853498354554176,-0.09373464435338974 -0.058219995349645615 -0.03555687889456749,0.01916588842868805 0.010982106439769268 0.05489217862486839!-0.04669812694191933 0.008831275627017021 -0.06411109864711761,0.009000372141599655 -0.02261394076049328 -0.03590213507413864,-0.05981213226914406 -0.06824607402086258 -0.02853149175643921!-0.0352957546710968 -0.08453567326068878 0.020476410165429115,-0.05357979238033295 -0.01170769426971674 -0.06754019111394882,-0.023615984246134758 -0.06942927092313766 -0.08251264691352844!-0.04714009538292885 -0.07084016501903534 -0.04962277039885521,0.02824992500245571 0.026419421657919884 -0.07760804891586304,-0.018148181959986687 -0.06187007948756218 0.015888769179582596!0.01570640131831169 0.023758290335536003 -0.08527589589357376,-0.04255946725606918 -0.05036691576242447 -0.08410949259996414,-0.058142971247434616 0.020192746073007584 -0.06449008733034134!-0.024649349972605705 -0.039132338017225266 -0.013464678078889847,-0.055877987295389175 -0.07160875201225281 -0.05633723735809326,-0.07336345314979553 0.009371956810355186 -0.049317166209220886!0.024902407079935074 -0.022283857688307762 -0.02522209659218788,-0.00705226045101881 -0.09355707466602325 -0.07609708607196808,0.0004590167663991451 -0.05162400007247925 -0.007977795787155628!-0.028962569311261177 0.03204527497291565 -0.015898987650871277,-0.025911597535014153 -0.07248106598854065 -0.05513956397771835,-0.02115633524954319 0.0005884915008209646 -0.006063513457775116!-0.012793703936040401 0.0003978311433456838 0.05065407231450081,0.039307091385126114 0.020106498152017593 -0.042466264218091965,-0.01981317065656185 0.03762050345540047 0.05304339528083801!-0.04793498292565346 0.02361345663666725 -0.050641417503356934,0.027948038652539253 -0.04389893636107445 -0.07997076213359833,-0.0939144715666771 0.003304228186607361 0.008517892099916935!-0.048028796911239624 0.050181400030851364 -0.003198576159775257,0.022884301841259003 0.00891007948666811 -0.07660042494535446,-0.030787842348217964 0.05106040835380554 0.026975857093930244!-0.06270286440849304 -0.04932001978158951 0.003936063498258591,-0.06642547249794006 -0.000604732776992023 -0.04148205742239952,-0.013105014339089394 0.07393880188465118 -0.014404174871742725!-0.04873780161142349 0.0049459487199783325 -0.06543029844760895,-0.05228620395064354 -0.04047604277729988 -0.04357930272817612,0.013853644020855427 -0.028955984860658646 0.049581173807382584!0.03787219896912575 -0.001799706369638443 0.0521717332303524,-0.08844205737113953 -0.04835215210914612 -0.03681126609444618,-0.022008076310157776 -0.011018466204404831 -0.023591134697198868!0.08599501103162766 0.004336018115282059 0.005601475480943918,-0.05482419952750206 -0.00305916927754879 -0.043173834681510925,-0.05798938125371933 -0.007428801618516445 -0.029623834416270256!-0.020951302722096443 -0.03687335178256035 0.034030571579933167,0.006518034730106592 -0.07046922296285629 -0.01826399564743042,0.034043144434690475 0.03438636660575867 -0.005148816388100386!0.005872467067092657 -0.025654766708612442 -0.05898763984441757,-0.036297090351581573 -0.03500046581029892 0.02611626498401165,-0.07197270542383194 0.03243640437722206 -0.051074523478746414!-0.02599380351603031 -0.01481469813734293 -0.06202414259314537,-0.005924252327531576 -0.02272115834057331 -0.08240848779678345,0.020017074421048164 0.03398815169930458 -0.046007439494132996!0.012010538019239902 -0.02181924879550934 0.04039236530661583,-0.0045689851976931095 -0.05253884196281433 0.013711957260966301,0.04883065074682236 0.0002301639469806105 -0.015090545639395714!-0.0016165985725820065 0.03336635231971741 0.05053742974996567,-0.014746746979653835 0.03138994053006172 0.03283316642045975,0.05264584720134735 0.042215146124362946 -0.04866817966103554!-0.06827627122402191 -0.060516729950904846 0.022935783490538597,-0.05157974362373352 -0.00414015119895339 -0.044326744973659515,-0.06069832295179367 0.04815122112631798 0.005045903846621513
-0.03180083632469177 -0.0090308403596282 -0.037477172911167145,-0.053127460181713104 -0.010324186645448208 -0.0080939419567585,-0.033586014062166214 0.052226047962903976 -0.013164456002414227!0.07240871340036392 0.05446550250053406 0.069026418030262,0.12783131003379822 -0.13685961067676544 -0.0922454297542572,0.20233610272407532 -0.07406007498502731 0.01389987301081419!-0.0033225726801902056 0.09370575845241547 -0.12048374116420746,-0.06142198294401169 -0.36278778314590454 -0.0346853993833065,0.07733289152383804 -0.19029441475868225 -0.0905478224158287!0.019316188991069794 0.0194206852465868 0.0008446439169347286,-0.012338199652731419 -0.01648326776921749 -0.008138212375342846,-0.017119137570261955 -0.04281651973724365 0.05275265872478485!0.011926279403269291 -0.03942299634218216 -0.011976540088653564,-0.04263847693800926 -0.03442855924367905 0.04475719854235649,0.0179885346442461 0.025814536958932877 -0.007645080331712961!0.05740158632397652 -0.04132090508937836 -0.2195424735546112,0.056402646005153656 0.08195317536592484 -0.0006427663029171526,0.18708334863185883 0.07507974654436111 0.04781097546219826!-0.04883766174316406 -0.13704469799995422 -0.16391751170158386,0.024524841457605362 -0.07828839123249054 -0.043586961925029755,-0.041400518268346786 -0.04707438126206398 0.004519951995462179!-0.0671500489115715 0.10777265578508377 0.1465303599834442,0.12845294177532196 0.14313502609729767 -0.04059252887964249,0.18469981849193573 -0.14158004522323608 -0.3904481828212738!-0.03444082289934158 -0.19151248037815094 -0.3526993691921234,-0.17295345664024353 -0.5683444142341614 -0.183777317404747,0.11591608822345734 -0.008060934953391552 -0.06996630877256393!0.050625283271074295 -0.11475055664777756 -0.23487883806228638,0.15406154096126556 0.02153712324798107 -0.06212076172232628,-0.029757313430309296 -0.1344130039215088 -0.16459856927394867!-0.058796536177396774 0.300161212682724 0.2540803551673889,0.20872773230075836 0.22336654365062714 0.031120091676712036,0.31012171506881714 -0.08303042501211166 -0.1435592919588089!0.1398223638534546 0.16124694049358368 0.013809505850076675,0.1455230861902237 -0.04846861958503723 0.07449030131101608,0.17054970562458038 -0.10939667373895645 -0.11798034608364105!0.15309110283851624 0.04096069559454918 -0.13809286057949066,0.14447711408138275 -0.09429759532213211 -0.1204926073551178,0.026215631514787674 -0.16426970064640045 -0.010488076135516167!0.05346451327204704 -0.14870058000087738 -0.2525343596935272,-0.23370489478111267 -0.17152078449726105 -0.01935580000281334,-0.14345069229602814 0.018582824617624283 0.04929780587553978!0.30087900161743164 0.2796809673309326 0.06531360000371933,0.4851742386817932 0.3238232433795929 -0.05387132987380028,0.17833615839481354 0.03921745717525482 -0.019923007115721703!0.04052526503801346 0.03548244386911392 -0.15577475726604462,0.15490052103996277 -0.050376903265714645 -0.11730292439460754,0.005524472799152136 -0.22992129623889923 -0.11507318913936615!0.08722880482673645 0.07080814242362976 -0.13078783452510834,0.15043026208877563 0.1348552703857422 -0.10192330181598663,0.2936524450778961 0.22893957793712616 -0.03182384371757507!0.046459510922431946 -0.007928946986794472 0.011686382815241814,-0.08879315108060837 0.1509375274181366 0.05359787121415138,0.22029560804367065 0.24671418964862823 0.039500486105680466!0.058614037930965424 -0.11987234652042389 -0.17203982174396515,0.06148148328065872 -0.021153485402464867 -0.024537937715649605,0.0196073055267334 -0.17641104757785797 0.31701841950416565!0.009492920711636543 -0.04752413183450699 0.02803516387939453,-0.03192277252674103 0.02545657940208912 -0.04402214661240578,0.025557054206728935 -0.008313657715916634 -0.04679081588983536!0.13532321155071259 -0.011066067963838577 -0.05029183253645897,0.19079744815826416 0.015020056627690792 0.0882967934012413,-0.023992599919438362 -0.16952605545520782 -0.12100901454687119!0.12611891329288483 0.19065694510936737 0.01829403266310692,0.1575799286365509 0.25617238879203796 -0.04587168991565704,0.08517315983772278 -0.07972615957260132 -0.4488655924797058!-0.04427466541528702 -0.15649335086345673 -0.1770787537097931,-0.1263885200023651 -0.4950573742389679 -0.11113929748535156,-0.024748850613832474 -0.11388807743787766 -0.1861027032136917!0.08094768971204758 0.012361195869743824 -0.12525123357772827,0.046678218990564346 -0.24697808921337128 0.04579104483127594,0.04217977821826935 -0.07707589864730835 0.06143246591091156!0.06100746616721153 -0.3196748197078705 -0.3262951374053955,-0.11032091081142426 -0.11514057964086533 -0.008738351985812187,-0.2797577679157257 -0.14389561116695404 0.131477490067482!0.06327081471681595 0.09618019312620163 0.23858065903186798,0.2160102277994156 0.22573472559452057 -0.09910206496715546,-0.03439612314105034 -0.44269436597824097 -0.213355153799057!0.04932227358222008 -0.1251465380191803 -0.3843044638633728,-0.04092595726251602 -0.32349157333374023 -0.2624870836734772,0.0564071424305439 -0.18010058999061584 0.05093121901154518!0.017867809161543846 0.040547482669353485 -0.022843020036816597,0.10437668859958649 0.0260787270963192 0.005561131983995438,0.07660644501447678 0.012960514053702354 -0.01663709618151188!0.09892745316028595 -0.17693553864955902 -0.3313485383987427,0.23157833516597748 -0.10362329334020615 0.17527303099632263,-0.02601241134107113 -0.16696886718273163 0.20126870274543762!0.01606721431016922 -0.02529161423444748 0.04158062860369682,0.03778604790568352 0.05071328580379486 -0.048651546239852905,0.008956409059464931 0.021219469606876373 -0.057965707033872604!0.0551566481590271 0.03678293153643608 -0.04732021316885948,-0.050588659942150116 0.0024039228446781635 0.047262899577617645,0.017111051827669144 0.008285930380225182 -0.0038170223124325275!0.0073508936911821365 -0.0115770623087883 -0.20053218305110931,0.04269097372889519 -0.20122279226779938 0.06339961290359497,0.02217244915664196 -0.147584930062294 0.04098939523100853
0.007667625322937965 0.053328607231378555 -0.040087807923555374,0.015322866849601269 -0.023285889998078346 0.030590025708079338,0.03410792723298073 0.007926493883132935 -0.010453764349222183!-0.12010465562343597 -0.06946106255054474 0.14128245413303375,-0.07753737270832062 -0.22668568789958954 0.03786585479974747,0.0816064402461052 -0.11631696671247482 -0.11831311136484146!-0.040319401770830154 -0.005384742747992277 0.15386438369750977,-0.13162191212177277 0.05360477417707443 0.2362927943468094,-0.041706282645463943 0.023105742409825325 -0.01563643477857113!-0.03982355073094368 -0.05121421068906784 -0.002985850442200899,0.052871961146593094 0.04562557116150856 -0.06847129017114639,0.011434701271355152 -0.006098798010498285 0.010116656310856342!-0.0024592685513198376 0.05089649185538292 0.049375783652067184,-0.037541989237070084 0.012779198586940765 0.031785473227500916,0.01580940932035446 -0.001365241827443242 -0.02781682088971138!0.062532439827919 0.03466197848320007 0.07034879922866821,0.022972997277975082 0.09497769922018051 0.09688989073038101,0.12444455176591873 0.008808063343167305 0.1893063634634018!0.05345436930656433 0.06998224556446075 0.031704701483249664,0.018807243555784225 0.11349137872457504 0.22044365108013153,-0.04306261986494064 0.136973574757576 0.17194679379463196!-0.04287824407219887 -0.05672505497932434 -0.055334676057100296,0.08588197082281113 -0.07615114748477936 -0.18208850920200348,0.05558579042553902 -0.02284175716340542 -0.13225656747817993!-0.0816807672381401 0.008568329736590385 0.10608338564634323,-0.10570058226585388 0.04740937799215317 0.2981845736503601,-0.03472674638032913 0.0005506843444891274 0.11445869505405426!0.010384651832282543 0.13045634329319 0.12093168497085571,-0.09142951667308807 0.046451181173324585 0.19290150701999664,-0.06368833780288696 0.046552300453186035 0.06800369918346405!-0.13001245260238647 -0.25493139028549194 -0.03842818737030029,-0.1723373532295227 -0.2241569459438324 -0.0197890792042017,-0.07756724208593369 -0.11845056712627411 -0.11090736091136932!-0.06520485132932663 -0.07404947280883789 0.1715923547744751,-0.1931285858154297 -0.268610417842865 0.015098325908184052,-0.023145396262407303 -0.24464145302772522 -0.07932242751121521!0.11521954834461212 0.14874742925167084 0.15230143070220947,0.08109460771083832 0.0021066966000944376 0.1404191553592682,0.05136660113930702 -0.059720344841480255 0.13343745470046997!-0.04248829185962677 -0.16679082810878754 -0.34698009490966797,-0.10097915679216385 -0.23426519334316254 -0.14748260378837585,0.08503146469593048 -0.01682657189667225 -0.15265443921089172!0.14122602343559265 0.0309276320040226 -0.23646889626979828,0.274125874042511 -0.2708318531513214 -0.6683729887008667,0.0808873102068901 -0.2949788570404053 -0.3655882477760315!-0.02238272875547409 0.1161680594086647 0.13961754739284515,-0.03582322970032692 0.048536453396081924 0.1151903048157692,0.007110773120075464 0.02552742511034012 0.11967416107654572!-0.1719568371772766 0.15847016870975494 -0.16891072690486908,-0.29482537508010864 -0.13862837851047516 0.27640050649642944,-0.09629588574171066 -0.4227205216884613 -0.34543001651763916!-0.2870144546031952 -0.06580907851457596 0.2255580872297287,-0.3774016499519348 -0.1854444444179535 0.5935454964637756,-0.010696521028876305 -0.36140766739845276 0.011321722529828548!0.020835645496845245 0.0005797080812044442 0.14750884473323822,0.08268007636070251 0.07330198585987091 0.01815919578075409,0.062254395335912704 0.01554668415337801 0.1693241149187088!-0.03645998239517212 -0.03744002804160118 0.010960358195006847,0.057570021599531174 0.023228108882904053 0.014022121205925941,0.03995921090245247 0.0013419244205579162 0.010648532770574093!0.023341266438364983 0.017009912058711052 0.12270050495862961,-0.009413904510438442 -0.0012669377028942108 0.0029522960539907217,-0.14182403683662415 -0.03555065393447876 0.10856790840625763!-0.13948315382003784 0.07711540162563324 0.1455429494380951,-0.25842300057411194 -0.05379252880811691 0.2506824731826782,-0.20214948058128357 -0.1477670818567276 0.005633695516735315!-0.05435136705636978 -0.009051714092493057 0.1989373117685318,-0.02241954579949379 0.07798705995082855 0.10640668123960495,0.002310995478183031 -0.0864650085568428 -0.055707868188619614!-0.0038319602608680725 0.12974464893341064 0.10861935466527939,-0.07870437949895859 0.03319589048624039 0.21163982152938843,-0.09323380142450333 0.002350256312638521 0.03249713405966759!0.12363880127668381 -0.14635875821113586 -0.2324083298444748,0.2676387131214142 -0.2969561517238617 -0.5242793560028076,0.10640902072191238 0.09508964419364929 -0.13810628652572632!0.106656014919281 0.07613465189933777 -0.0015135931316763163,0.06216694787144661 -0.11949935555458069 -0.0723501443862915,0.04757894575595856 -0.06405136734247208 -0.014601185917854309!0.042618438601493835 0.11434167623519897 0.07317560911178589,-0.05046651512384415 0.10491441190242767 0.17466148734092712,0.05542122945189476 0.0920167863368988 0.03451856970787048!-0.02543303556740284 0.11249908059835434 0.10977848619222641,-0.06501460820436478 0.016890881583094597 0.2134166657924652,-0.09220226109027863 0.04471570998430252 0.10182654112577438!0.19422776997089386 0.1190737932920456 0.09315349906682968,0.1923183798789978 0.0558730885386467 -0.1317438781261444,0.1162000373005867 0.10096655040979385 0.10971473157405853!0.048125091940164566 -0.016556529328227043 -0.011820589192211628,-0.024575091898441315 -0.008687835186719894 -0.057462871074676514,-0.01577286794781685 -0.055932722985744476 -0.05329808220267296!-0.04216139763593674 -0.037860725075006485 0.044867049902677536,0.03601692616939545 -0.04000377282500267 -0.04650142416357994,0.05277001112699509 0.013973301276564598 0.02713518775999546!0.05354324355721474 -0.054775726050138474 0.02948468178510666,0.09617190062999725 -0.09051521867513657 0.029648281633853912,0.05799562484025955 -0.03210712596774101 -0.05027848482131958
0.01791275665163994 -0.032816383987665176 -0.05014696344733238,-0.023735305294394493 -0.031097011640667915 0.0019668720196932554,0.04848630726337433 0.004495845176279545 0.03884610906243324!-0.08309950679540634 -0.061073947697877884 0.04736541584134102,0.08698158711194992 0.01420105155557394 -0.015192000195384026,0.2628880739212036 0.31222283840179443 0.08075526356697083!0.01140079740434885 -0.1126566007733345 0.007844770327210426,-0.010920007713139057 -0.06665490567684174 -0.002303474582731724,0.18082945048809052 0.2804892659187317 0.02730853669345379!-0.045431919395923615 -0.0517827533185482 -0.04380708932876587,0.0021320346277207136 0.028250904753804207 -0.02023976296186447,-0.06382279098033905 0.025134626775979996 0.018234703689813614!-0.02222711779177189 0.020318511873483658 -0.024070724844932556,0.014788622036576271 0.042899295687675476 0.029387474060058594,-0.005568687338382006 0.05659765377640724 -0.0050688255578279495!0.020854629576206207 0.05253790691494942 0.10121502727270126,0.17301993072032928 0.1009611189365387 0.001968956319615245,0.19736707210540771 0.21863000094890594 0.048764996230602264!0.006452161818742752 -0.04703399911522865 -0.017043521627783775,-0.040724482387304306 0.027864500880241394 -0.018230760470032692,0.04369736090302467 0.1198311597108841 -0.005304081831127405!0.01989489234983921 -0.053688861429691315 0.00704675680026412,0.0040323566645383835 -0.0007905297679826617 0.025257444009184837,0.009699715301394463 -0.15438953042030334 -0.041776467114686966!-0.09482487291097641 -0.060667138546705246 0.058347832411527634,-0.08645842969417572 -0.2769184708595276 0.0410970076918602,0.20260891318321228 0.1757090985774994 -0.39949101209640503!0.02259661629796028 -0.11191526055335999 0.0027590570971369743,0.0928533673286438 -0.08664552867412567 -0.09833808988332748,0.14248590171337128 0.16988307237625122 0.026980707421898842!-0.031041763722896576 0.12008991092443466 0.14551256597042084,0.09527178853750229 0.17356157302856445 0.48020875453948975,0.057086702436208725 -0.07421785593032837 0.004975178278982639!0.030624056234955788 -0.0675753802061081 0.08542630821466446,0.1788722276687622 0.08153704553842545 -0.17613554000854492,0.25776389241218567 0.24999798834323883 -0.008836687542498112!0.04029730334877968 -0.036247748881578445 -0.0009852832881733775,0.16023048758506775 -0.049545709043741226 -0.09565609693527222,0.2464623749256134 0.11697129160165787 0.11732008308172226!-0.1434193253517151 0.06183343753218651 0.15185295045375824,-0.4415759742259979 -0.3101871907711029 -0.03340922296047211,0.1340576410293579 -0.14572586119174957 0.038309935480356216!0.08498839288949966 0.11194104701280594 0.13909196853637695,-0.1865423321723938 -0.1210104450583458 0.267387330532074,-0.45637527108192444 -0.6912131309509277 -0.056989263743162155!0.044257715344429016 -0.01538112759590149 0.027302514761686325,0.0328424908220768 -0.0870908573269844 -0.12437402456998825,0.11463102698326111 0.1010010689496994 -0.09216182678937912!-0.14599207043647766 -0.11774387955665588 0.11086101084947586,0.10680406540632248 -0.05350728705525398 0.021303612738847733,0.36875519156455994 -0.1642019897699356 -0.22529052197933197!0.024307241663336754 -0.11041286587715149 -0.03463774919509888,0.020713236182928085 -0.1345665454864502 0.15143239498138428,0.240962952375412 0.30605950951576233 -0.40237531065940857!-0.04422960430383682 0.0762280821800232 0.09938930720090866,-0.06922923028469086 -0.27393972873687744 -0.08831264823675156,0.153056800365448 0.09218849241733551 -0.20582787692546844!-0.01587449200451374 -0.03708943724632263 -0.010545933619141579,-0.018006378784775734 0.05006719380617142 -0.020219070836901665,-0.03847562521696091 0.011680989526212215 0.014998741447925568!-0.06426671892404556 -0.04535439610481262 0.009776686318218708,0.06145858392119408 -0.1263369917869568 -0.17369788885116577,0.01863551326096058 0.00530274398624897 0.002105249557644129!-0.05500226467847824 -0.1497531682252884 -0.08432848751544952,0.09248434007167816 -0.128567636013031 -0.27656787633895874,0.06827898323535919 0.13710542023181915 -0.03090227209031582!0.1063188910484314 -0.05503160133957863 -0.038762662559747696,0.08487891405820847 0.06258849799633026 0.0468435063958168,0.0066095455549657345 0.2455720603466034 -0.0016001253388822079!-0.0392741933465004 -0.04834875091910362 -0.08306892216205597,0.1592286378145218 0.025941237807273865 -0.13622985780239105,0.1491222232580185 0.18240076303482056 0.09793313592672348!0.1781207174062729 0.14191864430904388 0.06724301725625992,-0.21365417540073395 -0.08485441654920578 0.03890968859195709,-0.27252596616744995 -0.09095945209264755 0.2062254101037979!-0.010290843434631824 -0.05823898687958717 -0.006992610637098551,-0.022520767524838448 -0.11000532656908035 -0.01126688439399004,-0.13645391166210175 -0.1176118478178978 -0.062303416430950165!0.0073815579526126385 -0.10664836317300797 -0.07434438169002533,0.07245093584060669 -0.009796573780477047 -0.06233208253979683,0.10856826603412628 0.25615689158439636 0.16374772787094116!0.049842119216918945 -0.08170414716005325 0.05476349964737892,0.0896749272942543 -0.04491524025797844 -0.014236216433346272,0.06385381519794464 0.17216596007347107 0.11840655654668808!0.021465618163347244 0.08511597663164139 0.03824241831898689,0.06694264709949493 -0.10451196879148483 0.20520837604999542,0.04017363488674164 -0.09796849638223648 -0.14791961014270782!0.0017868226859718561 0.02165735512971878 -0.04347651079297066,-0.004926348105072975 0.01223574485629797 -0.01258197333663702,0.00816370453685522 0.026366252452135086 -0.05596904829144478!-0.0006508526857942343 0.009575293399393559 0.03862053528428078,-0.019798608496785164 -0.057588912546634674 -0.0364704355597496,0.017685161903500557 -0.04331161826848984 -0.05044183135032654!0.0303431935608387 -0.07041113078594208 -0.02229771576821804,0.1262395977973938 0.05313275009393692 -0.046167366206645966,0.008759072050452232 0.13247144222259521 0.14818714559078217
-0.031571052968502045 -0.016201045364141464 -0.02885124273598194,-0.01851060800254345 0.043775759637355804 0.026740631088614464,-0.02649182267487049 -0.04572393745183945 -0.03095419704914093!0.00029642906156368554 0.05644648149609566 0.05601869896054268,0.0865667462348938 0.08406765013933182 0.14824235439300537,0.26883745193481445 0.18201792240142822 0.10342298448085785!0.00475036446005106 0.07950014621019363 -0.016216158866882324,0.031802061945199966 0.019406277686357498 0.00483285216614604,0.2192712128162384 0.05274789780378342 0.15217532217502594!-0.020165953785181046 -0.004135792143642902 -0.012122039683163166,-0.057181376963853836 0.02253040485084057 -0.0012125159846618772,0.04597983509302139 -0.060376401990652084 -0.06582963466644287!0.014159416779875755 0.04539505019783974 0.03933965042233467,0.001925880671478808 0.010418364778161049 0.012488103471696377,-0.023451561108231544 -0.05877348408102989 -0.04908784478902817!0.00743591133505106 0.07880615442991257 0.10451386123895645,0.08492334932088852 0.059470269829034805 0.07152347266674042,0.13311338424682617 0.12308117747306824 -0.00784558430314064!-0.01714290864765644 -0.00493977777659893 0.033166151493787766,-0.032367583364248276 -0.0020599805284291506 -0.05867359787225723,0.0072834002785384655 -0.03331945836544037 -0.0829625204205513!-0.03437471389770508 0.06472580134868622 -0.05382373556494713,0.024790560826659203 -0.01023949310183525 -0.2735958695411682,0.01238328404724598 -0.34250983595848083 -0.301214337348938!-0.0406457856297493 -0.14941175282001495 -0.14723385870456696,-0.13488619029521942 -0.12935557961463928 -0.04088115319609642,0.08415888249874115 0.03734118491411209 0.10424396395683289!0.06312433630228043 0.05582765117287636 0.01650625467300415,0.04176392778754234 -0.010507307015359402 -0.1065000370144844,0.04264130815863609 -0.1267450749874115 -0.12332141399383545!-0.14478743076324463 -0.14591071009635925 -0.1968258172273636,-0.15271715819835663 -0.6192472577095032 -0.48097771406173706,0.17391565442085266 -0.3518759608268738 -0.048599593341350555!-0.06298729032278061 0.08121473342180252 0.07409318536520004,0.1804593801498413 0.12219656258821487 0.048708926886320114,0.3124382793903351 0.0694841668009758 -0.010283001698553562!0.04397687315940857 0.1051996648311615 0.08988136798143387,0.07329051941633224 0.051558300852775574 0.12430403381586075,0.16484756767749786 0.137850821018219 0.06230495125055313!0.009598813019692898 -0.13297604024410248 -0.18478251993656158,-0.24155403673648834 -0.15957047045230865 0.013900252059102058,-0.06971310079097748 0.23250438272953033 0.24380098283290863!-0.12447131425142288 0.08476319164037704 -0.14493583142757416,0.1415461301803589 -0.08485811948776245 -0.2938331663608551,-0.27556678652763367 -0.5686604380607605 -0.47814273834228516!0.043198809027671814 0.16151976585388184 -0.0002591079974081367,0.010455198585987091 0.06583307683467865 -0.05373605713248253,-0.03851815313100815 -0.1140657365322113 -0.12275885790586472!-0.3167305290699005 -0.5094689130783081 -0.20309479534626007,-0.541595458984375 -0.388776957988739 -0.17144866287708282,0.07136207818984985 0.09681575745344162 0.13599246740341187!-0.017687808722257614 -0.13839906454086304 -0.31874942779541016,-0.07208939641714096 0.05882691219449043 -0.10222380608320236,0.18230950832366943 0.18557503819465637 0.16774582862854004!-0.021180350333452225 0.12318988889455795 0.06377126276493073,-0.024284709244966507 0.13392207026481628 0.05508529767394066,0.009697593748569489 0.11304936558008194 0.06023208796977997!0.041536372154951096 0.03721693158149719 0.02567656897008419,0.02595619112253189 -0.006168639287352562 -0.042090024799108505,0.007300397381186485 -0.033001020550727844 -0.03341398015618324!-0.05257277190685272 0.08015687763690948 -0.09331561625003815,0.07358633726835251 0.08225355297327042 -0.045013606548309326,-0.07275854051113129 -0.03173978999257088 -0.08654554188251495!0.060104530304670334 0.1282687932252884 -0.09460970759391785,0.17821848392486572 0.14612455666065216 -0.23311872780323029,0.18862365186214447 -0.06697552651166916 -0.25379234552383423!0.008179320022463799 0.025908011943101883 0.029486864805221558,0.16516922414302826 0.09888190031051636 0.11650338768959045,0.006987109314650297 0.00907173939049244 0.0794328823685646!0.0010747375199571252 0.02964703179895878 -0.06369572877883911,0.017214730381965637 0.05165160819888115 -0.03128950297832489,0.13259245455265045 0.11150913685560226 0.05046134814620018!0.032462265342473984 0.08364782482385635 0.04015522822737694,-0.01820988394320011 0.18526986241340637 0.029213797301054,-0.08999314159154892 0.11143302172422409 -0.02646668255329132!0.036214690655469894 -0.05701173096895218 -0.09488790482282639,0.05781199038028717 -0.18230316042900085 -0.3234376311302185,-0.0071349479258060455 -0.31293559074401855 -0.3775710165500641!0.00959346815943718 0.0312103983014822 0.0023314403370022774,-0.05069618672132492 0.04946999251842499 0.07494468986988068,-0.0077616870403289795 0.08756585419178009 0.02889113686978817!0.052566252648830414 0.09640268981456757 -0.012264430522918701,0.06873130798339844 0.007328634615987539 -0.07245909422636032,0.0901414006948471 -0.10353152453899384 -0.2698225975036621!0.040364544838666916 -0.034388039261102676 0.04812196269631386,0.11428377032279968 0.18649762868881226 0.11429523676633835,-0.06501369923353195 0.00159600586630404 -0.06226899474859238!-0.03682485967874527 -0.055615492165088654 -0.05293257161974907,-0.0059652794152498245 -0.0757756307721138 0.0035877497866749763,-0.041848160326480865 0.033558353781700134 -0.04768134653568268!-0.04062451049685478 -0.036309581249952316 -0.01548237819224596,0.02306000143289566 0.04240885376930237 0.05844410881400108,-0.014053515158593655 0.013847130350768566 0.00414873193949461!0.009831174276769161 0.020804015919566154 0.0961550772190094,0.030126189813017845 0.04864302650094032 0.11439930647611618,0.055191025137901306 0.06948217004537582 0.1461607813835144
-0.00574542535468936 -0.007006132509559393 -0.00036123819882050157,-0.05292167514562607 -0.045538172125816345 0.0029547899030148983,0.023944897577166557 0.03439861536026001 -0.03678740933537483!-0.03152777999639511 -0.16248247027397156 -0.024492653086781502,0.028782948851585388 -0.15895375609397888 -0.018084274604916573,0.1806332767009735 0.013170965015888214 0.007637673057615757!-0.04519473388791084 -0.07369624078273773 -0.006673405412584543,-0.002243232214823365 -0.012571250088512897 -0.010676600970327854,0.044148363173007965 0.05392896384000778 0.006553525570780039!-0.03396003320813179 0.007782145868986845 -0.04931896924972534,-0.038486141711473465 -0.027290668338537216 -0.04962409660220146,-0.016026021912693977 0.011479425244033337 0.02330450713634491!0.05888088420033455 0.03079933673143387 -0.02660372294485569,-0.003679244313389063 -0.029202623292803764 0.03498365730047226,0.0196456927806139 0.027160728350281715 -0.0391354002058506!0.09222765266895294 0.012208832427859306 0.10808801651000977,-0.03494744002819061 0.13202080130577087 0.07695011049509048,-0.04370265454053879 0.12481144815683365 0.16928347945213318!0.03442143648862839 0.042069122195243835 0.08885511010885239,0.03220626339316368 0.0751313641667366 0.0581977404654026,0.016193760558962822 0.1357579082250595 0.17262251675128937!0.207734614610672 -0.019252363592386246 -0.05989880487322807,0.25798290967941284 -0.11346431821584702 -0.337525874376297,0.2765466570854187 0.04772203043103218 -0.09289930015802383!0.037176214158535004 -0.03494703397154808 0.10698235034942627,0.039960239082574844 -0.0821639746427536 0.027404416352510452,0.14013689756393433 0.07294070720672607 -0.11098059266805649!0.03712252527475357 0.025605913251638412 0.09882769733667374,0.07922728359699249 -0.01977495290338993 0.07497237622737885,-0.03565271943807602 0.027168678119778633 0.04729825630784035!0.0925288274884224 -0.1299004703760147 -0.17687661945819855,0.14789441227912903 -0.2497491091489792 -0.3827430307865143,0.23819352686405182 0.08441445231437683 -0.02499767206609249!0.02005048654973507 -0.19264942407608032 -0.009532266296446323,-0.13927313685417175 -0.2774939239025116 -0.08867198973894119,-0.08202777802944183 -0.19002467393875122 0.00811072438955307!0.11086931824684143 0.02140827849507332 0.09829649329185486,-0.03926216810941696 0.024344824254512787 0.10910946130752563,-0.2070399969816208 0.05755212530493736 0.10386060178279877!-0.07087407261133194 -0.06270239502191544 0.051944468170404434,-0.08883588016033173 -0.2200457751750946 0.171653613448143,0.02026248909533024 -0.12833525240421295 -0.061654817312955856!0.28024744987487793 0.30085092782974243 0.08091308176517487,-0.040514640510082245 -0.03874039277434349 -0.07157610356807709,-0.18631845712661743 -0.23881834745407104 -0.2013045847415924!-0.0237575750797987 0.04481068626046181 0.0480286180973053,0.02754250541329384 0.02600187435746193 0.06183037534356117,-0.05998220667243004 -0.023983756080269814 -0.04602111503481865!-0.000366952212061733 -0.14004606008529663 -0.10874712467193604,-0.025439176708459854 -0.27436304092407227 -0.3503677248954773,0.20082446932792664 0.000378565164282918 -0.17504574358463287!0.036525510251522064 0.023450413718819618 0.06637991964817047,0.0007631054031662643 -0.1314242035150528 -0.3726747930049896,0.2016170769929886 -0.03383350372314453 -0.39173048734664917!-0.16721421480178833 0.0750228762626648 0.18321692943572998,-0.26684045791625977 0.02638530172407627 0.14848849177360535,-0.28584837913513184 -0.3266477882862091 -0.18372757732868195!0.06756230443716049 0.012882938608527184 0.021963506937026978,0.024239346385002136 0.06886832416057587 -0.003069693921133876,0.0010016856249421835 -0.03133510798215866 0.00877373293042183!0.05567612498998642 0.01379082165658474 0.06923076510429382,0.027171291410923004 0.10592697560787201 0.10417602956295013,-0.24039782583713531 -0.13390272855758667 -0.030527383089065552!0.06151364743709564 0.019128896296024323 0.05792168527841568,-0.03327830135822296 -0.050930291414260864 0.012930622324347496,-0.12798453867435455 -0.13044273853302002 -0.10827481001615524!-0.08091674000024796 0.08562298864126205 0.13943715393543243,0.03186803683638573 0.16339527070522308 0.15626585483551025,0.009386041201651096 -0.048271384090185165 -0.023127764463424683!-0.05938374623656273 -0.021844930946826935 0.11095130443572998,-0.05197583884000778 0.046987660229206085 0.1573842167854309,-0.09419083595275879 0.03636838123202324 -0.04751572757959366!0.01693638227880001 0.12180279195308685 0.15774892270565033,-0.16798217594623566 0.21053050458431244 0.3049203157424927,-0.34159228205680847 -0.18955278396606445 -0.11623472720384598!0.03567139804363251 0.007224395405501127 -0.06458218395709991,0.05078276991844177 -0.047619402408599854 -0.011260642670094967,-0.04431925714015961 -0.09015984833240509 0.03849091753363609!-0.11645308136940002 0.01680070534348488 0.10542326420545578,-0.017834849655628204 0.07597853988409042 0.1502228081226349,-0.10218869149684906 0.15913404524326324 0.12314435094594955!-0.024361712858080864 -0.0030311793088912964 0.011256479658186436,0.0361025407910347 0.06904256343841553 0.03715025261044502,0.006323059555143118 0.0650964006781578 0.004671668633818626!0.002203143434599042 0.19544774293899536 0.12191366404294968,-0.04043218120932579 0.20306959748268127 0.22685784101486206,-0.08957066386938095 0.013230506330728531 0.01843775250017643!-0.006645841524004936 -0.03251884877681732 -0.05229122191667557,-0.03232940286397934 0.02164556086063385 -0.019898420199751854,0.04356894642114639 0.06249956414103508 -0.0089629627764225!-0.02850276231765747 0.001956442603841424 -0.010214836336672306,-0.034960538148880005 0.05727652832865715 -0.004654641728848219,-0.009059402160346508 -0.03993207961320877 0.009583905339241028!-0.09801369905471802 -0.016530215740203857 -0.010448464192450047,-0.044003017246723175 0.049362532794475555 0.05299307778477669,-0.13176877796649933 -0.00030586638604290783 0.10207458585500717
