0.37561115622520447 0.2803308069705963 -0.004805707838386297,0.674993634223938 0.26887938380241394 0.5969594717025757,0.06650031358003616 0.4904581904411316 0.8384260535240173
-0.6311571598052979 -0.06299831718206406 -0.03672730550169945,0.29599279165267944 0.3011835217475891 0.7122118473052979,-0.27357298135757446 0.3979733884334564 0.5257762670516968
-0.3019561767578125 -0.12444689869880676 -0.8104147911071777,-0.3499191999435425 -0.4431132972240448 -1.0828644037246704,-0.9426233768463135 -1.1009864807128906 -1.4467707872390747
-0.12930788099765778 0.1970221996307373 -0.6821136474609375,-0.03157556802034378 -0.35645776987075806 -0.3667941391468048,-0.2328503429889679 -0.11633270978927612 -0.08811979740858078
-0.06065645441412926 0.23608480393886566 0.05317380651831627,-0.07421475648880005 0.3064247965812683 0.21913650631904602,0.03199204057455063 0.3331553637981415 0.2949698865413666
-0.14572417736053467 0.192421555519104 0.05964207649230957,0.1692783534526825 -0.2031683623790741 -0.32996949553489685,-0.1287868469953537 -0.2556743025779724 0.2753291428089142
0.46803271770477295 0.3350892961025238 0.48906219005584717,0.452239453792572 0.6493741869926453 0.47707948088645935,0.18314284086227417 -0.10353872179985046 0.5501865744590759
-0.4810185134410858 -0.0649334192276001 -0.6689515709877014,0.31988221406936646 0.19897004961967468 -0.19314034283161163,0.07751587778329849 0.9796421527862549 0.7209738492965698
0.16923421621322632 -0.9877052903175354 -1.3691788911819458,0.06788058578968048 -0.08656737208366394 0.07407858967781067,0.6759902834892273 0.9753768444061279 0.4934288263320923
-0.227237269282341 0.17685937881469727 -0.1347348392009735,0.1892649084329605 -0.0923224538564682 0.1780122071504593,-0.26348671317100525 -0.17506927251815796 0.08907800912857056
0.07674134522676468 -0.19351574778556824 0.005165573675185442,0.4055939018726349 -0.17113648355007172 -0.16353042423725128,0.38270303606987 -0.13551761209964752 -0.17903509736061096
-0.3225315511226654 -0.19089007377624512 0.08326788991689682,-0.04399772733449936 -0.2419620007276535 0.007818898186087608,-0.2276938408613205 -0.2827988862991333 -0.18355421721935272
-0.7110869288444519 -0.441731721162796 0.09500204771757126,-0.3217546343803406 -0.0006742864497937262 -0.9597678184509277,-0.29846054315567017 -0.4183424115180969 -0.9853291511535645
-1.25824773311615 -0.6986830234527588 -1.2345242500305176,-0.9789024591445923 -1.386353611946106 -2.066075086593628,-0.943095326423645 -1.6719430685043335 -2.2739012241363525
-0.8973978161811829 -0.6045488119125366 0.6493478417396545,-0.8261207938194275 0.5144336819648743 1.2087490558624268,-1.071225881576538 0.3630463182926178 0.835136890411377
-0.12777535617351532 -0.27669018507003784 -0.33138689398765564,0.09537021815776825 -0.07281462848186493 0.12977437674999237,-0.2735545039176941 0.24747638404369354 -0.24468457698822021