0.0628596767783165 0.18253831565380096 -0.17256583273410797,-0.08313029259443283 -0.12142539769411087 -0.03970794007182121,0.1478130966424942 0.44939836859703064 0.1302599310874939!-0.13244789838790894 -0.06227821484208107 -0.07036599516868591,-0.09314022213220596 -0.08500581234693527 0.050869304686784744,0.021707911044359207 0.07836221903562546 -0.18480750918388367!0.005577205680310726 0.04136579856276512 0.07379808276891708,0.04203195497393608 -0.0008533905493095517 -0.06660617142915726,-0.07855342328548431 0.15861813724040985 -0.08829525858163834!0.221406489610672 0.10443198680877686 0.05413607507944107,-0.040204424411058426 0.003098235232755542 -0.09250330924987793,-0.09095314890146255 -0.12638315558433533 0.11891703307628632!-0.04291824251413345 0.06298930943012238 0.18791241943836212,0.022829022258520126 0.10266058892011642 -0.06299649178981781,-0.16736386716365814 -0.1502673178911209 -0.2157742828130722!0.006406290456652641 -0.031137503683567047 0.08263926208019257,-0.07401560246944427 0.06662371009588242 0.10969352722167969,-0.023722631856799126 0.05150165408849716 -0.2340945452451706!0.19343560934066772 -0.22125500440597534 -0.35508468747138977,-0.14181926846504211 -0.30615970492362976 0.002510933903977275,-0.08920352160930634 0.10207610577344894 0.14047367870807648!-0.053734127432107925 0.06330838054418564 -0.05810583755373955,-0.00013094233872834593 -0.13681603968143463 -0.0680256262421608,-0.05774383991956711 0.0634799599647522 0.10616030544042587!0.07286351174116135 0.17500539124011993 0.04457160457968712,0.10076875984668732 -0.20574404299259186 -0.11962967365980148,0.004280267283320427 0.17964188754558563 0.06864099949598312!0.00921018235385418 0.139447882771492 0.07645414769649506,0.09930948168039322 -0.05607381835579872 -0.10449127852916718,-0.05610201507806778 0.07609838247299194 -0.03238190338015556!0.00927126407623291 0.08021961897611618 -0.03878331184387207,0.010389487259089947 0.0660509243607521 0.06904124468564987,0.0694294348359108 -0.009387321770191193 -0.04642100632190704!0.24246929585933685 0.0058660851791501045 0.07867811620235443,-0.11710890382528305 -0.01005074754357338 -0.04028485715389252,-0.10787146538496017 -0.025328276678919792 -0.14026859402656555!-0.12555965781211853 -0.10661349445581436 -0.03450942039489746,-0.09283921867609024 -0.0034135698806494474 0.019799767062067986,0.014493216760456562 0.16493724286556244 -0.040445636957883835!0.06181676685810089 0.047803450375795364 0.020111264660954475,-0.052580833435058594 -0.05256124958395958 0.034597039222717285,-0.15607577562332153 0.17113342881202698 0.14336593449115753!0.048412222415208817 -0.10364256799221039 -0.1860583871603012,-0.06809256225824356 -0.08908869326114655 0.09563880413770676,0.04417393356561661 0.4334266781806946 0.24146759510040283!0.002733485773205757 -0.12546572089195251 0.0328662283718586,-0.0006398428231477737 -0.12130696326494217 0.057581331580877304,0.003314762143418193 0.22135020792484283 0.26961013674736023!0.2062610238790512 0.18201373517513275 -0.2549547255039215,-0.387836754322052 0.0021931009832769632 -0.021489780396223068,0.2711981534957886 0.44234010577201843 -0.475167453289032!0.06983867287635803 0.05177053436636925 -0.09773527830839157,0.043504226952791214 -0.1682090014219284 -0.08133745193481445,-0.07862994074821472 0.10422112047672272 0.3679942786693573!0.06905403733253479 0.06121518090367317 0.014697556383907795,0.19757938385009766 0.1092233881354332 -0.031283218413591385,-0.07520030438899994 -0.277165025472641 -0.12645256519317627!0.04581722244620323 0.027660323306918144 -0.016968950629234314,0.007490706630051136 -0.03073069266974926 0.0026284928899258375,-0.23033884167671204 -0.08391758054494858 0.11460526287555695!0.10763488709926605 0.07148288190364838 -0.035644713789224625,0.030550634488463402 0.0815725028514862 -0.04639136418700218,0.0854281559586525 -0.19892734289169312 -0.16191135346889496!0.1991315335035324 -0.08067666739225388 -0.06678188592195511,-0.1353268027305603 -0.24614767730236053 0.03152189403772354,-0.0680079311132431 0.3242906630039215 0.10456334799528122!0.05171268433332443 0.15478283166885376 -0.09281380474567413,-0.060029637068510056 -0.35845157504081726 -0.042739033699035645,-0.030490506440401077 0.2334369271993637 0.39661869406700134!0.10571460425853729 0.02978062815964222 -0.1352577656507492,-0.021219290792942047 -0.11318957060575485 0.08370997756719589,0.1990784853696823 0.21522174775600433 0.045726701617240906!0.14597931504249573 0.13828450441360474 0.10482315719127655,0.061938636004924774 0.02761128544807434 0.03561702370643616,-0.026088066399097443 -0.06973986327648163 -0.15183702111244202!-0.023431887850165367 0.09989546239376068 0.11466023325920105,0.09469591081142426 -0.1328156590461731 -0.1537768691778183,-0.21617195010185242 -0.12206555902957916 -0.15275979042053223!-0.027817431837320328 -0.03144184127449989 0.03131543844938278,-0.13096889853477478 0.005662928335368633 0.03134660795331001,-0.05091838911175728 0.05653403326869011 -0.04925207048654556!0.12866142392158508 0.0036842029076069593 0.11544577777385712,0.023511245846748352 0.17582444846630096 0.007949070073664188,0.16828292608261108 0.24550917744636536 -0.05059101805090904!-0.1848849356174469 -0.13156351447105408 0.06819126754999161,-0.10717698931694031 -0.08012806624174118 -0.00992047879844904,-0.1008722186088562 0.17579415440559387 0.21991021931171417!0.2146633118391037 0.16086487472057343 0.032134730368852615,-0.03396682068705559 -0.0877423956990242 -0.18226635456085205,-0.08097290247678757 -0.34775447845458984 -0.18292412161827087!0.045964766293764114 -0.008651365526020527 0.07680103927850723,-0.033446863293647766 -0.07002823054790497 0.020380254834890366,-0.13768447935581207 0.03666769340634346 0.006749808322638273!-0.013824045658111572 -0.06892772018909454 -0.0005858353688381612,0.06182264909148216 0.13938798010349274 -0.04475231468677521,0.1388515830039978 0.03989671915769577 -0.0790538340806961
-0.04882480204105377 0.10830790549516678 0.021012909710407257,0.10953748971223831 0.0470060333609581 0.03127812594175339,-0.08604198694229126 -0.14909979701042175 0.03578148037195206!-0.05203568935394287 0.05264214053750038 0.06918621808290482,-0.005875667091459036 0.04723476991057396 0.0441388301551342,-0.024973802268505096 0.13959252834320068 0.08929330855607986!0.041867706924676895 0.11644519120454788 0.06876911967992783,0.22529667615890503 0.17247949540615082 -0.023945750668644905,-0.03260590508580208 0.007440333720296621 0.007558820303529501!0.03719295561313629 -0.21436288952827454 -0.1708165407180786,0.045008305460214615 -0.1359001100063324 -0.16010227799415588,0.01823265850543976 0.07018103450536728 0.09480437636375427!0.07447640597820282 -0.07626932859420776 -0.027876941487193108,0.3669370412826538 0.04161596670746803 -0.06413949280977249,0.19829854369163513 -0.16006873548030853 -0.03842996060848236!0.01359484065324068 0.03374159708619118 0.03102891519665718,-0.0013031052658334374 -0.03720807284116745 0.007169934920966625,0.04814542457461357 0.010875462554395199 0.024952368810772896!-0.28506380319595337 -0.25009191036224365 -0.022906571626663208,0.08965303748846054 0.02113291807472706 -0.16428647935390472,0.007080754265189171 0.003998990170657635 0.06566493958234787!0.19889380037784576 0.19345760345458984 0.16728128492832184,-0.01324540376663208 -0.034730322659015656 -0.0712680071592331,0.10180769860744476 0.12694168090820312 0.04008420556783676!-0.04852405562996864 0.09684844315052032 0.06928887218236923,0.11231604963541031 0.1540420949459076 0.03578472509980202,-0.10356336086988449 -0.14568516612052917 -0.021043311804533005!-0.021833986043930054 0.09914352744817734 0.07378438115119934,0.22698239982128143 0.2745858430862427 0.02420886792242527,0.05034438893198967 0.049027036875486374 0.06726871430873871!-0.07469876110553741 -0.014572380110621452 -0.01802585832774639,-0.09900090843439102 -0.004240002948790789 -0.003475198755040765,-0.04171737655997276 -0.009833714924752712 0.09100203216075897!0.10044264793395996 -0.006716293748468161 -0.0013138637878000736,0.011817152611911297 -0.40753743052482605 -0.17822661995887756,-0.11738238483667374 -0.12752345204353333 0.0396023727953434!0.12251285463571548 -0.02797420509159565 0.0018661157228052616,0.018597088754177094 -0.07567503303289413 0.03307177871465683,-0.02687358483672142 -0.03731146454811096 -0.019897693768143654!0.029928909614682198 -0.06857221573591232 -0.07291875034570694,0.1893913596868515 0.08136897534132004 -0.06109786406159401,0.10705672204494476 0.1781216263771057 0.1589372754096985!0.08222922682762146 0.13194158673286438 0.02977631986141205,-0.011009824462234974 -0.06749098002910614 -0.07904721796512604,0.015576045960187912 0.0021054258104413748 -0.04087550565600395!0.11129412055015564 -0.02294347994029522 -0.024922126904129982,-0.12277275323867798 -0.10254387557506561 0.057485949248075485,0.018215196207165718 0.0287912767380476 0.18997971713542938!0.08513253927230835 0.26446425914764404 0.054854609072208405,0.020578578114509583 -0.06135960668325424 -0.15268917381763458,-0.008342181332409382 -0.17385542392730713 0.0343596450984478!-0.00033552097738720477 -0.060522135347127914 -0.09804706275463104,0.03573864698410034 0.012460719794034958 -0.05077429860830307,0.10700894892215729 0.12478289008140564 0.0597958005964756!0.13228343427181244 -0.009198975749313831 0.012144451029598713,-0.3754065930843353 -0.3935454785823822 -0.07857637107372284,-0.09415189176797867 -0.23589247465133667 -0.25285571813583374!-0.15826956927776337 -0.3136689066886902 -0.14024370908737183,-0.014579703100025654 -0.25196805596351624 -0.1573486328125,0.08885714411735535 0.07539158314466476 0.048893366008996964!0.22391419112682343 0.1404585838317871 0.10094244033098221,-0.1920238733291626 -0.30385202169418335 -0.1783934384584427,-0.16324689984321594 -0.24193081259727478 -0.1444408893585205!0.14102283120155334 0.040616683661937714 -0.11757267266511917,0.17892517149448395 0.23746004700660706 -0.0583939254283905,-0.05160324648022652 0.08338885754346848 0.3576543927192688!0.1362983137369156 0.1403670758008957 -0.04952945560216904,0.16082705557346344 0.3287273049354553 0.04197310656309128,-0.00834031030535698 0.031027404591441154 0.1671774536371231!-0.001022940850816667 -0.005431588273495436 0.03939652070403099,-0.026950545608997345 -0.20009899139404297 -0.09306872636079788,0.048852384090423584 0.04423956945538521 0.09952487051486969!0.0214889794588089 -0.009526568464934826 0.03946535289287567,-0.10152497887611389 -0.1944551169872284 -0.15822404623031616,-0.05320505425333977 -0.07728531956672668 -0.08771032094955444!-0.08107585459947586 -0.09003658592700958 0.07964715361595154,0.000865768757648766 -0.15983200073242188 0.016360731795430183,-0.11801653355360031 -0.051276542246341705 0.04190966859459877!0.028307447209954262 -0.08834219723939896 -0.04447339475154877,0.025641070678830147 -0.10623851418495178 -0.13695839047431946,0.06759201735258102 0.05958728492259979 0.08172161132097244!-0.011848394758999348 0.052332378923892975 -0.007586929481476545,0.21499425172805786 0.09380999952554703 -0.04473637789487839,0.1297636479139328 0.36282455921173096 0.261514276266098!-0.11956928670406342 -0.06691937148571014 -0.046183567494153976,0.004586644005030394 -0.05928447097539902 -0.010658551938831806,0.09902726858854294 0.08754964917898178 0.1345222145318985!-0.11655141413211823 -0.12190359830856323 -0.04087077081203461,-0.28722625970840454 -0.3128023147583008 -0.15361666679382324,0.14854808151721954 0.060945168137550354 -0.05053827539086342!0.05803963541984558 -0.12454019486904144 -0.016286097466945648,0.03578408807516098 -0.09296004474163055 0.04176674783229828,-0.024571362882852554 0.02474825456738472 0.007736393716186285!0.03193284198641777 -0.18697670102119446 -0.13842840492725372,0.03991300240159035 -0.01755068264901638 0.05564776808023453,0.06825347244739532 0.06513386964797974 0.04348980635404587
0.07380418479442596 0.016914378851652145 0.05171532556414604,-0.016209391877055168 -0.019113833084702492 0.018260877579450607,0.011493799276649952 -0.22790031135082245 -0.4999738931655884!0.005032049026340246 0.017941074445843697 0.016586825251579285,-0.023823801428079605 0.044194769114255905 0.06671357899904251,0.24413970112800598 0.09271066635847092 0.16398468613624573!-0.009482392109930515 0.034549932926893234 -0.024542545899748802,-0.008306180126965046 -0.021345611661672592 -0.0558663047850132,0.09190183877944946 -0.05440771207213402 -0.20474682748317719!0.03104167990386486 0.07405179738998413 0.03511662408709526,0.06898183375597 0.04349017143249512 -0.009664184413850307,0.018727783113718033 -0.05105270445346832 0.0008962731808423996!0.019748374819755554 -0.0397028923034668 -0.04691683128476143,-0.08558626472949982 -0.03396875783801079 -0.03867596015334129,0.15923288464546204 -0.12882082164287567 -0.055148858577013016!-0.010621922090649605 0.04752197116613388 -0.01790332980453968,0.03962855413556099 0.05135154724121094 -0.020114321261644363,0.07012869417667389 0.0748332068324089 0.28685685992240906!0.13077615201473236 0.026662658900022507 0.04767340421676636,-0.12442998588085175 0.03376377001404762 0.04875659570097923,-0.11474420875310898 -0.13106906414031982 -0.0267341248691082!0.005861044395714998 -0.030237678438425064 0.011532009579241276,-0.027457071468234062 -0.062144700437784195 -0.02970459684729576,0.02470535971224308 -0.003989948891103268 0.10568603128194809!0.043550360947847366 -0.0062842778861522675 -0.007743570487946272,0.022965572774410248 -0.038572587072849274 -0.023657578974962234,-0.06269022822380066 -0.17669571936130524 -0.3976092040538788!-0.016022879630327225 0.03847025707364082 0.1050507128238678,-0.01975368894636631 0.004627380054444075 -0.09040409326553345,0.14049632847309113 -0.023349808529019356 -0.2141367793083191!0.025098280981183052 0.04365310072898865 0.04047279804944992,0.0635659396648407 -0.002665000967681408 0.1027398332953453,-0.016605596989393234 -0.016744514927268028 -0.05207165330648422!0.09013604372739792 0.03162987902760506 0.04379810392856598,0.022627228870987892 -0.11618708819150925 0.02415095642209053,0.01447202730923891 -0.27834397554397583 -0.1427977979183197!0.028316624462604523 0.022749541327357292 -0.003621677402406931,-0.0635535717010498 -0.038907740265131 -0.17435021698474884,0.1173035278916359 0.12127222865819931 0.10544663667678833!0.03880954906344414 -0.002539084292948246 -0.033611759543418884,0.0391463078558445 -0.018533505499362946 -0.07835196703672409,0.1666528582572937 0.2651521861553192 0.11875241994857788!0.07582318782806396 0.02401590161025524 -0.019159315153956413,0.003921655472368002 -0.05249420925974846 0.02750091813504696,0.11397867649793625 -0.13775137066841125 -0.19584983587265015!0.005468804854899645 0.039810918271541595 0.0981534793972969,0.06182834506034851 -0.018630243837833405 -0.03913303464651108,0.0049111791886389256 0.10335403680801392 0.25898265838623047!0.045759838074445724 -0.01520527247339487 -0.05848228558897972,0.012521964497864246 -0.07768167555332184 -0.03955831006169319,0.07219900190830231 -0.14565950632095337 -0.11306875199079514!0.02555348537862301 0.04311980679631233 0.05676553398370743,0.05302584916353226 -0.075344018638134 -0.0803556889295578,-0.043819937855005264 0.0027716343756765127 -0.03644982725381851!0.0482204370200634 0.07259215414524078 0.035841867327690125,0.057683560997247696 -0.0017031480092555285 0.09774691611528397,-0.13405662775039673 -0.07356669008731842 0.32062166929244995!-0.0710056722164154 -0.07218144088983536 -0.037937793880701065,-0.019686860963702202 0.014751824550330639 0.01245887205004692,-0.22606180608272552 -0.042997024953365326 0.14042644202709198!0.021898621693253517 0.04601607471704483 0.05548934265971184,-0.01746457815170288 0.060783278197050095 0.001963747199624777,-0.00335007649846375 -0.09179021418094635 0.13813291490077972!0.005176069214940071 -0.01542498916387558 0.042511824518442154,0.06610275059938431 0.02264918014407158 0.08443070948123932,-0.06389213353395462 -0.17655351758003235 -0.3326127231121063!0.00653022900223732 -0.023306187242269516 0.03534780815243721,-0.010461893863976002 0.018175868317484856 0.029855811968445778,0.0030825568828731775 -0.01623723655939102 -0.22605837881565094!0.04280323162674904 -0.07620371878147125 -0.02066701278090477,-0.11154588311910629 -0.07140014320611954 0.06131177395582199,0.00375001085922122 -0.0832381621003151 0.027766261249780655!0.04129950702190399 0.009928032755851746 0.030036242678761482,-0.03985395282506943 0.04322094842791557 0.06669222563505173,-0.2771814465522766 -0.3575262129306793 -0.24983826279640198!-0.04636024683713913 0.015912136062979698 0.020374106243252754,-0.16166220605373383 -0.0503702349960804 -0.03089284524321556,-0.06276299804449081 -0.13179552555084229 0.012900582514703274!-0.030209239572286606 0.04600178822875023 0.023103585466742516,-0.04131915047764778 -0.01226133294403553 -0.049753304570913315,0.1666313111782074 0.20517799258232117 0.1980360746383667!0.13828828930854797 0.03748644143342972 0.15145595371723175,0.028162160888314247 0.12938056886196136 0.05868571251630783,-0.04442734643816948 -0.1644539088010788 -0.33933666348457336!0.03813175484538078 -0.029715141281485558 0.012038211338222027,0.05630958080291748 0.01421410869807005 -0.038451142609119415,0.21234776079654694 0.22290931642055511 0.3644998073577881!0.037614013999700546 0.10449814051389694 0.07408171892166138,0.07189397513866425 -0.035202715545892715 0.0007275576354004443,0.04049964249134064 0.056922562420368195 -0.016830123960971832!0.007063787896186113 0.008674634620547295 -0.025821208953857422,0.02317062020301819 0.010021000169217587 0.028345171362161636,-0.0216954555362463 0.09652625769376755 0.320288747549057!0.021936576813459396 0.018549691885709763 0.04165928438305855,0.054183363914489746 -0.012813021428883076 -0.14342299103736877,0.04564138874411583 0.22479476034641266 0.1655695140361786
0.038635674864053726 0.1737530529499054 0.16826267540454865,0.13041375577449799 0.3582267761230469 0.12105049937963486,-0.025476664304733276 0.06157899647951126 -0.038109563291072845!-0.07994634658098221 -0.015898698940873146 0.01965842768549919,-0.007502805907279253 -0.08749646693468094 -0.20159952342510223,-0.016005106270313263 -0.01823536492884159 0.024121077731251717!0.07768823951482773 0.036683741956949234 -0.006333216559141874,0.07671262323856354 0.08996053785085678 0.044033486396074295,-0.05833973363041878 0.10747704654932022 0.13350896537303925!0.02771150693297386 -0.13858167827129364 0.02473503164947033,0.010864251293241978 0.13144861161708832 0.03337228670716286,-0.027384797111153603 0.05803978070616722 -0.004771376494318247!-0.012515360489487648 -0.1142304390668869 -0.11359124630689621,0.08880118280649185 0.18465474247932434 0.06607561558485031,0.27963733673095703 0.2137858271598816 0.2496386617422104!0.04988155886530876 0.036391038447618484 0.10808122903108597,-0.038306526839733124 -0.17368897795677185 -0.1790599673986435,-0.040136970579624176 0.010408058762550354 0.15218064188957214!-0.10798463970422745 0.038883090019226074 0.2500544488430023,0.03575963154435158 -0.05274040624499321 -0.10185496509075165,-0.04583178460597992 -0.015372015535831451 0.13259592652320862!0.22632262110710144 0.18664875626564026 0.16466374695301056,-0.061430513858795166 -0.16804924607276917 -0.03946185111999512,-0.020296813920140266 -0.08833739906549454 -0.12943410873413086!0.0646207258105278 0.15113899111747742 0.11587260663509369,0.15129002928733826 0.2533690631389618 0.1553734540939331,-0.05322522297501564 0.09638413041830063 0.04057703912258148!-0.07990535348653793 0.06206730380654335 0.10373503714799881,0.03311263769865036 0.09754758328199387 0.19624173641204834,-0.16038210690021515 0.0296415276825428 0.1521553099155426!-0.09087556600570679 -0.00034541715285740793 -0.09583090245723724,0.03285707160830498 -0.038665108382701874 0.08335709571838379,0.027064329013228416 -0.01659392938017845 -0.01854236051440239!0.166660338640213 0.09391040354967117 -0.058001402765512466,-0.14550425112247467 -0.13455334305763245 -0.1818237602710724,0.055096473544836044 0.11121474206447601 -0.03433765470981598!0.07153071463108063 0.014211969450116158 -0.15918250381946564,-0.05397516116499901 -0.08813217282295227 -0.22838294506072998,0.0479818731546402 -0.008398173376917839 0.0030605557840317488!-0.13197964429855347 -0.039103832095861435 0.07539962977170944,-0.11614519357681274 -0.13804709911346436 -0.10559871792793274,-0.0708918496966362 -0.02766992151737213 0.07320620864629745!0.05239829048514366 0.10827460885047913 0.04832279309630394,0.09865248203277588 0.08095663040876389 0.07456980645656586,-0.022839512676000595 -0.16950829327106476 -0.11222139745950699!0.03323712572455406 -0.07384228706359863 -0.10609093308448792,0.03869861364364624 -0.06691139191389084 -0.21328631043434143,-0.12101617455482483 -0.2222827821969986 -0.24993662536144257!0.0827750414609909 0.18066999316215515 0.15502813458442688,-0.037351761013269424 0.09389946609735489 -0.2214767187833786,-0.09682278335094452 0.16096945106983185 0.01975720375776291!-0.0421348474919796 -0.05036712810397148 0.056661054491996765,0.05383460968732834 0.0584913045167923 -0.07703796774148941,0.017558766528964043 0.0031640869565308094 -0.15693873167037964!0.159368097782135 0.1800304502248764 0.3425205945968628,0.026979556307196617 0.048899095505476 0.11649883538484573,0.06624264270067215 0.03577693924307823 -0.008690889924764633!0.029636410996317863 0.04971962422132492 0.07719646394252777,-0.06788191944360733 -0.049660686403512955 -0.18279574811458588,-0.02535119652748108 -0.11781324446201324 -0.06736975908279419!0.11332238465547562 0.09237970411777496 0.09346830099821091,-0.04902807995676994 0.029336795210838318 0.078359454870224,0.11367019265890121 0.12912815809249878 0.04051775485277176!0.20382298529148102 0.1910368949174881 -0.14407584071159363,0.07691068202257156 0.10535597801208496 -0.2600080966949463,-0.1059618815779686 0.00123778881970793 -0.0031054329592734575!0.0020263681653887033 0.09887519478797913 0.061775993555784225,0.04630231484770775 0.1201750636100769 0.021045541390776634,-0.07765258848667145 -0.10837572067975998 0.17987623810768127!0.0542728565633297 0.0359763540327549 0.07633735239505768,0.0018830883782356977 -0.05201365053653717 -0.17519338428974152,0.049587223678827286 -0.030849425122141838 -0.0847214087843895!0.01795959658920765 0.18801818788051605 0.2260519415140152,0.018711477518081665 0.004784430377185345 -0.05053701624274254,0.04566478729248047 0.1271308809518814 -0.049769625067710876!0.018697666004300117 -0.1264968067407608 -0.18273992836475372,0.23364971578121185 0.09324207901954651 0.0988343358039856,0.25873076915740967 0.18215277791023254 0.1212623193860054!0.013531097210943699 0.041728176176548004 -0.006362621206790209,-0.03613918274641037 -0.08705822378396988 -0.3165492117404938,0.03523071110248566 0.0653953105211258 0.14111751317977905!0.14314857125282288 0.14848445355892181 -0.23206490278244019,-0.2552472651004791 0.006132152397185564 -0.03656540438532829,-0.17244720458984375 0.10923490673303604 0.009973891079425812!-0.055606141686439514 -0.14135345816612244 -0.1878589391708374,-0.02738453447818756 -0.12970663607120514 -0.3278080224990845,-0.09563259035348892 -0.10182739049196243 -0.05727841332554817!-0.09789637476205826 -0.04089312627911568 -0.023516153916716576,0.09426644444465637 0.21236944198608398 0.18503011763095856,0.06715769320726395 0.17233116924762726 0.06108669564127922!0.029867416247725487 -0.03342819958925247 -0.04847988113760948,-0.0020724721252918243 -0.13818691670894623 -0.3263556659221649,-0.03637206554412842 -0.0678735300898552 -0.06374240666627884!0.10768309980630875 0.00640514213591814 0.04669910669326782,-0.10159000009298325 0.010486094281077385 -0.016129765659570694,-0.004487568512558937 0.08574221283197403 0.09925288707017899
0.033627234399318695 0.037829626351594925 -0.008905835449695587,0.11074957996606827 0.13198617100715637 0.4029028117656708,-0.014298388734459877 -0.1977754384279251 -0.2206689864397049!0.0419364795088768 -0.01314452476799488 -0.04963961988687515,-0.03297605738043785 -0.00879349559545517 0.07068441063165665,-0.40329599380493164 -0.2308417409658432 -0.1476162225008011!-0.06803251802921295 -0.016255345195531845 -0.004824820905923843,0.03696048632264137 -0.012144442647695541 -0.0744481310248375,-0.06421433389186859 -0.1520184427499771 -0.31452804803848267!-0.09588939696550369 -0.13308727741241455 -0.09571382403373718,0.09348402917385101 0.12425798177719116 -0.26187074184417725,0.14225882291793823 0.2545829117298126 -0.029306750744581223!-0.12037402391433716 0.046699993312358856 0.0633082464337349,0.10296525061130524 -0.07744758576154709 -0.0008532984647899866,0.011228296905755997 -0.2571452856063843 -0.3080962598323822!-0.02319440059363842 -0.05943426862359047 -0.06597843021154404,-0.09409884363412857 -0.038568075746297836 0.05097668245434761,-0.17473618686199188 -0.21914663910865784 -0.2420521378517151!-0.07648009806871414 -0.06970932334661484 -0.08513408154249191,0.09662137180566788 0.05886693298816681 0.022657062858343124,0.06090005859732628 0.13046930730342865 0.10527674108743668!-0.03100980818271637 -0.06770457327365875 0.06337182968854904,0.011155543848872185 0.015301434323191643 -0.04524809122085571,0.003836707677692175 0.0889531746506691 0.08996777981519699!-0.011213415302336216 0.053172655403614044 0.03629101440310478,0.13528820872306824 0.14100196957588196 0.23675091564655304,-0.09043683856725693 0.018544383347034454 0.35512804985046387!-0.02188611775636673 -0.03205931559205055 -0.0022888456005603075,0.07267779856920242 0.02076587826013565 -0.05635273456573486,-0.48837071657180786 -0.2787522077560425 -0.2293490767478943!0.011337832547724247 0.06399868428707123 0.06484435498714447,0.023344825953245163 -0.029005246236920357 0.11185610294342041,0.008322273381054401 0.016160190105438232 0.06480059772729874!-0.20387734472751617 -0.10026288777589798 -0.08052663505077362,-0.07876572012901306 0.07675457000732422 0.04040775075554848,-0.24778954684734344 0.24804812669754028 0.08473382145166397!-0.07369197905063629 -0.05628780648112297 0.023262692615389824,0.0664135292172432 -0.025763070210814476 -0.2596859037876129,0.0646199956536293 -0.0654769092798233 -0.5430084466934204!-0.05819837376475334 -0.07895461469888687 -0.01833709329366684,0.12439530342817307 0.04224599152803421 -0.06870023906230927,0.09154825657606125 -0.0816071480512619 -0.3226177990436554!-0.01302182488143444 -0.017240531742572784 -0.043343208730220795,0.17691998183727264 0.015342190861701965 0.07553829252719879,-0.002203808631747961 0.09418241679668427 -0.0029656856786459684!-0.014361306093633175 -0.05864227935671806 -0.02902529202401638,-0.028280748054385185 0.03061351738870144 0.04432503506541252,-0.07884007692337036 -0.04499952867627144 -0.04949392005801201!0.018441500142216682 0.20072142779827118 -0.06298592686653137,0.029786044731736183 0.12936653196811676 0.1464342623949051,0.11451584845781326 0.3476378917694092 0.1311333030462265!0.07659366726875305 0.06445417553186417 0.00814573559910059,0.0531531423330307 0.1811111569404602 0.03514602780342102,0.21979670226573944 0.26325923204421997 -0.10706444084644318!0.16039252281188965 0.11358077824115753 0.06528525054454803,-0.16365516185760498 0.0008097874233499169 0.15157005190849304,0.15832161903381348 0.16823126375675201 0.1668786257505417!-0.09179600328207016 -0.07169785350561142 0.01177271082997322,0.012224304489791393 -0.06211315095424652 -0.09094260632991791,0.3210628628730774 0.31720420718193054 0.19076687097549438!0.059965651482343674 0.07507108896970749 0.017889779061079025,0.02019336447119713 0.15010778605937958 0.1570143699645996,0.023876655846834183 0.07820291817188263 -0.09501346200704575!-0.0355583019554615 -0.1077941358089447 -0.24786633253097534,0.019843464717268944 0.14324761927127838 -0.11093395948410034,0.2619656026363373 0.08643444627523422 -0.20348620414733887!-0.013064390979707241 -0.07801829278469086 -0.110828697681427,-0.03130362927913666 0.14296744763851166 0.10876763612031937,0.07982977479696274 0.07330476492643356 -0.08066699653863907!-0.021377062425017357 -0.003856974421069026 -0.004600358661264181,0.1418181210756302 0.07314158231019974 0.12191623449325562,-0.08694236725568771 0.23909388482570648 0.2121037393808365!-0.022980809211730957 -0.03320615738630295 -0.013407536782324314,0.05217110738158226 0.12973444163799286 0.0379352904856205,0.19294005632400513 0.15742124617099762 0.019830122590065002!-0.0973515585064888 0.010310348123311996 0.05338127911090851,0.11342593282461166 -0.011149901896715164 -0.08029445260763168,-0.2102624624967575 -0.15498244762420654 -0.07723504304885864!-0.013985546305775642 -0.0545860156416893 -0.06298845261335373,0.1690986156463623 0.046988047659397125 -0.04733779653906822,-0.07197573035955429 0.05939698964357376 -0.149724081158638!-0.23771178722381592 -0.2913878858089447 -0.031117476522922516,0.09851909428834915 0.08660431951284409 -0.04791400954127312,0.001079147681593895 0.13811789453029633 -0.053689755499362946!-0.03934085741639137 -0.033577874302864075 -0.028394648805260658,0.04209272935986519 -0.04806458577513695 0.0006775427609682083,-0.283983051776886 -0.17392201721668243 -0.13129279017448425!-0.006356476340442896 0.04173456132411957 0.021572671830654144,0.21789242327213287 -0.09368910640478134 -0.20024286210536957,0.30589959025382996 0.4194420278072357 -0.07228610664606094!-0.011062013916671276 -0.06566109508275986 -0.03677224740386009,-0.06715278327465057 -0.007086803670972586 -0.018776196986436844,-0.13587473332881927 -0.0502692312002182 -0.24146078526973724!-0.03359658271074295 -0.02912481501698494 -0.02058122120797634,0.1351156383752823 0.0991838350892067 -0.03790915757417679,-0.13077010214328766 -0.25586941838264465 -0.42628008127212524
-0.041104987263679504 -0.04539376124739647 0.1907213032245636,0.02964187040925026 -0.08124858886003494 -0.05632779747247696,-0.013874861411750317 -0.1703750491142273 -0.08337566256523132!-0.37917375564575195 0.04055546596646309 0.12968043982982635,-0.16097038984298706 -0.18254868686199188 -0.021372677758336067,-0.014022238552570343 -0.07904563844203949 0.008078589104115963!-0.1427825391292572 -0.04691627249121666 -0.07769463211297989,-0.166888028383255 -0.010203786194324493 -0.0886642262339592,-0.24934272468090057 -0.2103658765554428 0.0018631863640621305!0.2829050123691559 0.09426745772361755 -0.2834652364253998,0.0915282592177391 0.1530415266752243 0.05062200129032135,0.050608813762664795 0.10727976262569427 0.07180211693048477!-0.05277668312191963 -0.05980031192302704 -0.15278978645801544,0.09212981909513474 0.15632398426532745 -0.11107838153839111,-0.47712501883506775 -0.07182372361421585 0.0018264850368723273!0.00041662788134999573 0.08859825879335403 0.062233421951532364,-0.019179997965693474 -0.06666387617588043 -0.38440027832984924,-0.08122096210718155 0.0042212968692183495 0.029156284406781197!0.024870269000530243 0.35150566697120667 0.16531170904636383,-0.0392351932823658 -0.23949812352657318 -0.2394256293773651,-0.018895139917731285 0.030497077852487564 -0.04290206730365753!-0.03096941113471985 -0.024693425744771957 0.05058925598859787,0.0539814718067646 0.26620981097221375 0.20844687521457672,0.044886667281389236 -0.08908474445343018 -0.18458786606788635!-0.0890568345785141 -0.07624941319227219 -0.12794475257396698,-0.18566595017910004 -0.17704565823078156 0.134235218167305,-0.060329731553792953 -0.17173469066619873 -0.09454996138811111!-0.22329911589622498 -0.015290632843971252 0.09962614625692368,-0.21986690163612366 0.01639990508556366 0.08665871620178223,-0.2275911569595337 -0.297400563955307 -0.01635432057082653!-0.005187501199543476 -0.07313224673271179 -0.01158144697546959,-0.047629233449697495 -0.0807783380150795 -0.07411953061819077,0.027370402589440346 0.018184706568717957 0.049779970198869705!0.34773674607276917 0.28870630264282227 0.05428087338805199,-0.2813038229942322 0.23641176521778107 0.037872154265642166,-0.01633855514228344 0.2433774173259735 0.1120598092675209!-0.1340642124414444 -0.036891598254442215 -0.15460440516471863,0.020255059003829956 0.08702399581670761 -0.11358655989170074,-0.09059129655361176 -0.12397002428770065 -0.10792981088161469!0.1299910843372345 0.15709538757801056 -0.050618935376405716,-0.08235824853181839 -0.062438737601041794 0.06736038625240326,-0.15291333198547363 -0.04687077924609184 -0.027888812124729156!-0.08083736151456833 0.12791094183921814 0.023031914606690407,-0.09993258863687515 -0.03778103366494179 0.14326074719429016,-0.038639213889837265 -0.10029014199972153 -0.15966244041919708!0.07201133668422699 0.08924032747745514 0.029502108693122864,-0.09485867619514465 -0.12385491281747818 0.019756952300667763,0.11866128444671631 0.004411540925502777 0.10781595855951309!0.20476500689983368 0.17626771330833435 0.16393554210662842,-0.1247011050581932 0.08522464334964752 0.059057049453258514,-0.16003510355949402 -0.14515936374664307 0.09020955115556717!0.17590969800949097 0.21059922873973846 0.1984013170003891,0.043730221688747406 -0.05399521067738533 -0.05593254044651985,0.08815902471542358 0.1560027152299881 0.2860390543937683!-0.12885668873786926 -0.10842806845903397 0.011553320102393627,0.14717447757720947 -0.05466306582093239 -0.1025727167725563,0.18478046357631683 0.19369475543498993 -0.06602112203836441!0.23115146160125732 0.21203559637069702 -0.016616186127066612,0.13911281526088715 0.1855456382036209 0.16665713489055634,0.07070615142583847 0.15328603982925415 -0.10384292900562286!-0.07548966258764267 0.026092780753970146 0.19683709740638733,0.11579295992851257 -0.06741472333669662 -0.17895512282848358,0.067008838057518 0.10742414742708206 -0.0029161719139665365!-0.00312212947756052 0.2695342004299164 0.3271749019622803,-0.008163316175341606 0.15484625101089478 -0.13227130472660065,0.04405997693538666 -0.2502729892730713 0.03880946338176727!-0.0034166292753070593 0.14210829138755798 0.27828294038772583,0.03471797704696655 -0.012328711338341236 0.009709862060844898,0.02230660617351532 -0.3022841215133667 -0.10986918210983276!0.034449439495801926 0.10298459231853485 0.07271736115217209,-0.09296531975269318 -0.060252606868743896 -0.08334272354841232,-0.008560776710510254 0.06076271831989288 0.12004073709249496!-0.057870689779520035 -0.04351860657334328 -0.1506337672472,-0.13900792598724365 -0.10953418910503387 -0.06462574750185013,0.06939634680747986 0.12125241011381149 0.06639888882637024!0.015481258742511272 -0.007683241739869118 0.021579239517450333,0.15318803489208221 0.14963530004024506 -0.08196484297513962,-0.2301185429096222 0.0513475239276886 -0.01814034953713417!0.03817214071750641 0.14619579911231995 -0.062246546149253845,-0.0198404211550951 0.04033564403653145 -0.06790918856859207,-0.0004038136685267091 0.004674570169299841 0.1177465170621872!0.13558043539524078 0.13992542028427124 -0.06551863253116608,-0.21857306361198425 0.09003210812807083 -0.018979204818606377,0.09327396005392075 -0.21690723299980164 -0.004967483226209879!0.08801518380641937 0.12680865824222565 0.10699047893285751,-0.03521554172039032 -0.02988782525062561 0.0690680593252182,-0.06469281762838364 0.05427379906177521 0.10911405086517334!0.20321029424667358 -0.5832458734512329 -0.11658015847206116,0.0484410785138607 -0.054288990795612335 -0.11489714682102203,-0.012439626269042492 0.056212909519672394 0.15653790533542633!0.17667120695114136 0.23725655674934387 0.16354192793369293,-0.07602551579475403 -0.008779250085353851 -0.1624150574207306,0.017998503521084785 0.11482970416545868 0.025150639936327934!0.02954246662557125 -0.050941817462444305 0.0064941272139549255,-0.20899882912635803 -0.047703251242637634 0.011323578655719757,0.09403271228075027 0.013929864391684532 0.08218531310558319
-0.10071822255849838 -0.12905536592006683 -0.028821852058172226,-0.21831271052360535 -0.25034621357917786 -0.14784349501132965,-0.04571474716067314 -0.15050797164440155 -0.25241613388061523!0.01957804337143898 0.05139587074518204 0.008787133730947971,0.0238812156021595 0.1189485415816307 0.07624434679746628,0.0427832193672657 0.08061880618333817 0.16485615074634552!-0.008496946655213833 -0.05162858963012695 0.023045221343636513,-0.13941937685012817 -0.09008358418941498 -0.02990214340388775,-0.06532013416290283 -0.044270552694797516 0.1029510423541069!0.0528767928481102 0.10353317856788635 -0.13122044503688812,-0.06508667021989822 0.08389440923929214 0.1846580058336258,0.0027386739384382963 -0.22983433306217194 -0.23865295946598053!0.09909452497959137 -0.06919506192207336 0.02480260282754898,-0.10699817538261414 0.07126090675592422 -0.1355125606060028,-0.05667727068066597 0.12805692851543427 0.06553967297077179!0.07419957965612411 0.025054069235920906 0.012191887944936752,0.0004193243512418121 0.09118366986513138 0.014544150792062283,-0.04450113698840141 0.13735802471637726 0.22562552988529205!-0.00966435857117176 -0.20581725239753723 -0.13248305022716522,-0.015063662081956863 -0.10555417835712433 -0.2854115962982178,-0.018148859962821007 0.07882385700941086 -0.024309275671839714!-0.1382260024547577 -0.2499377578496933 -0.1270236372947693,-0.13406133651733398 0.08956150710582733 0.03443555906414986,-0.0673888623714447 -0.10675954073667526 -0.0067715817131102085!-0.02598690055310726 0.05148499831557274 0.08197557181119919,-0.09084951132535934 -0.21156767010688782 -0.13929486274719238,-0.11587285250425339 -0.15981316566467285 -0.22020354866981506!-0.07228164374828339 -0.020326755940914154 0.08580131083726883,-0.10373510420322418 -0.1946805864572525 0.024780936539173126,-0.03047979809343815 0.012275195680558681 0.11992809176445007!0.03377885743975639 0.029911763966083527 -0.0382288359105587,0.06170428916811943 -0.08970654755830765 0.07715701311826706,0.04012058302760124 0.008424458093941212 0.046677377074956894!0.0738941878080368 0.15136457979679108 0.0014982391148805618,-0.029595527797937393 0.17478355765342712 0.08756592869758606,0.10345090180635452 0.14443008601665497 0.0680256262421608!0.03490709140896797 -0.07942980527877808 -0.05997445434331894,-0.011779558844864368 0.10472305119037628 0.01870691403746605,-0.0511738583445549 -0.001530674286186695 0.1830548346042633!-0.024187400937080383 0.002832513302564621 -0.09018838405609131,-0.18678925931453705 0.06502561271190643 0.18197667598724365,-0.13300353288650513 -0.2124084085226059 -0.10818568617105484!-0.0666273906826973 -0.03974366560578346 -0.1307523101568222,-0.07143771648406982 -0.03928089886903763 -0.03485274687409401,-0.07468698918819427 0.013848056085407734 0.008588897995650768!0.010644854977726936 -0.04533705115318298 -0.09792067855596542,0.22536151111125946 0.19243061542510986 0.13538281619548798,0.09782412648200989 0.1537356823682785 0.005699840374290943!-0.2357085645198822 -0.34875771403312683 -0.04178064316511154,-0.12703846395015717 -0.1463341861963272 -0.061809055507183075,-0.0009893035748973489 0.061805885285139084 0.07151723653078079!-0.07506649941205978 0.0025623731780797243 -0.02544948272407055,-0.032100610435009 0.01691160723567009 0.09252564609050751,-0.007769058924168348 -0.20255319774150848 -0.4253462255001068!-0.012542495504021645 0.08611413836479187 0.1956053525209427,-0.0458642914891243 0.09123185276985168 0.006932136602699757,0.17598974704742432 0.06246243789792061 -0.20554590225219727!-0.021544212475419044 -0.00034670805325731635 -0.07971587032079697,0.005754471756517887 0.2655550539493561 0.3549313545227051,-0.12805746495723724 -0.19493666291236877 -0.12734243273735046!-0.05201198533177376 -0.06636948883533478 0.06834965944290161,-0.04752045497298241 0.05617482215166092 0.042376838624477386,0.03783067688345909 0.11088767647743225 0.02984517253935337!-0.054145440459251404 -0.13686887919902802 -0.06623192131519318,-0.15403497219085693 -0.16162821650505066 -0.27840757369995117,-0.10894137620925903 -0.24255691468715668 0.08357936143875122!-0.06899499893188477 -0.08908602595329285 -0.10812229663133621,-0.08119876682758331 -0.22413763403892517 -0.24575722217559814,0.010492808185517788 -0.20808587968349457 0.07176186889410019!-0.04144075885415077 -0.046333540230989456 -0.17136608064174652,0.013506184332072735 0.20474867522716522 0.14141781628131866,-0.02989678457379341 -0.04842397943139076 -0.10839296132326126!0.06144028156995773 0.1673077493906021 0.129656121134758,-0.04872541129589081 -0.015900811180472374 -0.1640678495168686,-0.005595476366579533 -0.034518517553806305 -0.1361524760723114!0.06825675815343857 -0.04381067678332329 0.04929303377866745,-0.11228690296411514 0.19248642027378082 0.08238645642995834,-0.007166121620684862 0.1873008757829666 0.07177426666021347!-0.03681282699108124 0.03406456857919693 -0.03436471149325371,-0.12860238552093506 0.20242004096508026 0.13344839215278625,-0.14516182243824005 -0.055516667664051056 -0.13102908432483673!0.018454039469361305 0.013118762522935867 0.12327200174331665,-0.06921596080064774 -0.04232977330684662 -0.06838936358690262,0.024332743138074875 -0.1109408438205719 0.027895009145140648!-0.06408610939979553 0.035735122859478 -0.08407141268253326,0.06475064903497696 0.11009582132101059 0.18562626838684082,-0.08305869996547699 0.016399778425693512 0.04154441878199577!0.00011514459765749052 -0.22017858922481537 -0.0730254277586937,-0.02720513381063938 0.19634145498275757 0.11157844960689545,0.05730362981557846 -0.40289098024368286 -0.02363676391541958!-0.009835311211645603 -0.017010774463415146 -0.005380288232117891,0.049377139657735825 0.20625276863574982 0.18841300904750824,-0.00905556045472622 0.11278514564037323 0.012943635694682598!0.010536929592490196 -0.07840634882450104 -0.047470975667238235,0.020703459158539772 0.11213573068380356 0.22523914277553558,-0.030611062422394753 -0.12162750214338303 -0.03577898070216179
-0.08400632441043854 -0.10158561915159225 -0.01781764253973961,-0.034640081226825714 -0.17680084705352783 -0.09903032332658768,-0.19888842105865479 -0.2052755504846573 0.10988352447748184!-0.03925010561943054 0.04429114982485771 0.006845187395811081,0.03145832195878029 -0.056331753730773926 -0.07193370908498764,-0.23983028531074524 0.08881425857543945 0.21343478560447693!-0.05914183333516121 -0.017383156344294548 -0.06953386962413788,0.00611756881698966 -0.020681271329522133 0.03073868155479431,-0.15156224370002747 -0.12874098122119904 -0.057338692247867584!0.0036829249002039433 -0.12000755220651627 -0.027135632932186127,-0.010860837064683437 0.08181700855493546 -0.07964921742677689,0.09359405189752579 0.03834567964076996 -0.17255473136901855!-0.06389787793159485 -0.08144422620534897 -0.09171444922685623,-0.02469715289771557 0.1327361911535263 0.18465940654277802,-0.13865789771080017 -0.1791210174560547 -0.2513361871242523!0.004203335847705603 0.010912464000284672 -0.06577093154191971,-0.06662210077047348 0.06459225714206696 0.07792940735816956,-0.021403051912784576 0.06752500683069229 0.03766193613409996!-0.16384528577327728 -0.10371673107147217 -0.04806264862418175,-0.05390451103448868 0.14912064373493195 0.1940232217311859,0.06814463436603546 0.016137750819325447 -0.09290450066328049!-0.04490813985466957 -0.10052850842475891 -0.11334680765867233,-0.12103297561407089 -0.047622282058000565 -0.0400550439953804,0.15138870477676392 0.28029295802116394 0.16505423188209534!-0.046498145908117294 -0.15947121381759644 -0.032148029655218124,0.00039546581683680415 -0.2756792902946472 -0.3522501289844513,-0.2112652212381363 -0.1626790463924408 0.1065056174993515!-0.11649135500192642 -0.10789434611797333 -0.10957109183073044,0.11095646023750305 0.04343334957957268 0.025713618844747543,-0.15054886043071747 -0.2397533655166626 -0.05511113256216049!-0.017019810155034065 -0.02448803372681141 0.052430059760808945,-0.06885308772325516 -0.026086553931236267 0.029660092666745186,-0.05805303528904915 -0.04617264121770859 -0.021450912579894066!0.06566348671913147 -0.0004981106612831354 -0.06785740703344345,-0.027462657541036606 -0.2318594604730606 -0.049951694905757904,0.006583641283214092 0.5810067057609558 0.2185717523097992!-0.04806682839989662 -0.09092149883508682 -0.1173536479473114,0.010800342075526714 0.09884466975927353 0.1388288289308548,-0.0588252916932106 -0.011215713806450367 -0.11095266789197922!0.00045798634528182447 0.00983225367963314 0.021957792341709137,-0.01996649242937565 0.06321799010038376 0.014805617742240429,0.008758786134421825 -0.006423956248909235 0.017650242894887924!0.02703518606722355 0.014530828222632408 0.0724087655544281,0.05829349160194397 -0.13989119231700897 -0.16710320115089417,-0.10232959687709808 -0.09022004902362823 0.15641433000564575!0.027212802320718765 -0.04516710340976715 0.026651656255126,0.024772781878709793 0.04814066365361214 0.10669650882482529,0.060205310583114624 0.023426596075296402 0.023845691233873367!-0.08584900945425034 -0.034111931920051575 0.07318156957626343,-0.05209201201796532 -0.22531099617481232 0.05857761949300766,-0.19143575429916382 0.008521533571183681 0.22261235117912292!-0.037634994834661484 -0.07762382179498672 -0.09793233126401901,0.0007470202981494367 0.14330942928791046 0.14709801971912384,0.029313137754797935 0.08727491647005081 0.04404659569263458!-0.11725594103336334 -0.10520432144403458 -0.03632652759552002,-0.1447664350271225 -0.0716831386089325 -0.15449823439121246,0.0013896231539547443 0.25869911909103394 0.26309677958488464!0.03339697793126106 -0.03354267403483391 -0.013202102854847908,-0.09317813068628311 -0.031712934374809265 0.08316196501255035,0.2960737943649292 0.19410739839076996 0.010050331242382526!-0.09741370379924774 -0.1450544148683548 -0.05162998288869858,-0.008561313152313232 0.031366489827632904 -0.03448454663157463,-0.0344349704682827 0.14770323038101196 -0.05798391252756119!-0.02768959291279316 -0.12289116531610489 0.023359054699540138,-0.08522994816303253 0.006228005047887564 0.13036806881427765,0.026194386184215546 -0.2546513080596924 -0.21453937888145447!-0.034654177725315094 -0.08154697716236115 -0.034799724817276,0.043165404349565506 0.020331010222434998 0.1763719618320465,-0.012188167311251163 -0.19836750626564026 -0.28798389434814453!-0.07182253897190094 -0.053410615772008896 0.010580402798950672,-0.050563957542181015 -0.06723904609680176 0.01843378134071827,0.01402614638209343 0.24047787487506866 -0.03364764153957367!-0.06786388903856277 -0.08940444141626358 -0.0010006503434851766,-0.12733571231365204 -0.1431151181459427 -0.37894633412361145,0.042097970843315125 0.11083254963159561 0.07856407761573792!-0.12035361677408218 -0.15668998658657074 -0.05881759151816368,0.04749457165598869 0.13570435345172882 0.10243353247642517,-0.2777028977870941 -0.09463657438755035 -0.020603561773896217!-0.045740704983472824 -0.04520467296242714 -0.08973820507526398,-0.17276892066001892 0.11516338586807251 0.1341191977262497,-0.011371388100087643 0.1512255221605301 0.03668370097875595!-0.05842294543981552 -0.02554405853152275 -0.015551222488284111,-0.08121570199728012 -0.0793658047914505 0.07356952875852585,0.11681312322616577 0.242981418967247 0.004738038871437311!-0.00368580617941916 0.006878403946757317 -0.010353179648518562,0.1296728104352951 0.19904202222824097 0.30894193053245544,-0.15129457414150238 0.018301930278539658 0.04632629454135895!-0.10727429389953613 -0.05257440730929375 -0.07432779669761658,0.05674935504794121 0.10908854752779007 0.14669740200042725,0.11484609544277191 0.00555108767002821 -0.2864057123661041!0.038533974438905716 -0.0047911060974001884 -0.02167184092104435,-0.0034271548502147198 0.13979744911193848 0.16538944840431213,0.030689658597111702 0.08687422424554825 -0.05794593691825867!-0.0011615282855927944 -0.018187010660767555 -0.07460610568523407,-0.07149598747491837 0.10075575113296509 0.1966114491224289,0.06362719088792801 0.13198094069957733 -0.2422247976064682
-0.043518319725990295 -0.016369035467505455 -0.06601379066705704,-0.029207762330770493 -0.05776519700884819 -0.026116903871297836,-0.02981235273182392 -0.0662706196308136 0.012781225144863129!-0.015497999265789986 -0.07467358559370041 -0.0365111269056797,-0.006513658910989761 -0.08167696744203568 0.027898477390408516,-0.05818859860301018 0.012954029254615307 -0.010925086215138435!-0.04323796182870865 -0.07929881662130356 0.004446600563824177,-0.02345343492925167 -0.028246061876416206 0.02002006396651268,-0.05149912089109421 0.010860227048397064 -0.01948576793074608!-0.058428164571523666 -0.029987093061208725 -0.009042414836585522,-0.07295433431863785 0.006663919426500797 -0.006302397232502699,0.006596969440579414 -0.10791948437690735 -0.10279080271720886!0.03290576487779617 0.02888089045882225 -0.06558449566364288,0.06145400181412697 -0.029498165473341942 -0.10382746160030365,-0.03840910270810127 -0.018884796649217606 0.01763935014605522!-0.07673674821853638 0.005083751864731312 0.023586111143231392,0.017804322764277458 -0.024695592001080513 -0.08736474066972733,-0.03755374997854233 0.017682602629065514 -0.05125686898827553!0.0027545616030693054 0.046704575419425964 -0.08153801411390305,-0.04132648557424545 -0.07981593161821365 -0.06535974889993668,-0.017705615609884262 -0.035022687166929245 0.02146938443183899!0.012255232781171799 -0.05650544911623001 0.023553235456347466,-0.0424373596906662 -0.03101968951523304 -0.03477078676223755,-0.05435163900256157 0.011465468443930149 -0.05539744719862938!-0.053854625672101974 0.030938537791371346 0.025143908336758614,-0.05973826348781586 -0.08302421867847443 0.023919081315398216,0.0003208769194316119 -0.03875507786870003 -0.07887518405914307!-0.052178047597408295 -0.08149711042642593 -0.06410214304924011,-0.004066206980496645 -0.08649524301290512 -0.04065583646297455,0.020035455003380775 -0.07859334349632263 0.036108337342739105!-0.023464296013116837 0.030329778790473938 0.05779450014233589,0.03490329533815384 0.03956567868590355 0.0020734984427690506,0.008631224744021893 -0.0501251295208931 -0.04275037720799446!0.051753055304288864 -0.0749763771891594 0.01614827662706375,-0.028845379129052162 0.031611379235982895 -0.0035678213462233543,-0.03721745312213898 -0.050746504217386246 -0.07627615332603455!0.015391684137284756 -0.06524553149938583 0.002254610415548086,0.0037954705767333508 -0.11902663111686707 -0.13397379219532013,-0.03184783458709717 -0.04068763554096222 0.008885937742888927!-0.05364513397216797 -0.0639357715845108 0.008699742145836353,0.034286487847566605 -0.004466515965759754 -0.00023752193374093622,-0.08257384598255157 -0.057583000510931015 -0.040958624333143234!-0.053926557302474976 -0.031219469383358955 0.014866736717522144,0.03461683914065361 -0.0697641670703888 -0.07907284051179886,-0.050093263387680054 0.03892587125301361 -0.04839976131916046!-0.08513380587100983 -0.054594989866018295 -0.06304940581321716,-0.04622338339686394 -0.09981448948383331 -0.058592040091753006,0.03142669051885605 -0.061578404158353806 -0.04766752943396568!0.005163342691957951 -0.08437857776880264 -0.03661718592047691,-0.007528355810791254 0.0005876930081285536 0.005721175577491522,-0.018761206418275833 -0.08418687433004379 -0.009357837028801441!-0.061470311135053635 -0.03808562085032463 -0.030578309670090675,0.00850176066160202 0.026350775733590126 -0.05034331977367401,-0.005528866779059172 -0.04447156935930252 -0.05392354354262352!-0.06818417459726334 -0.025930143892765045 -0.08578062057495117,0.020498279482126236 -0.07148274779319763 -0.011071622371673584,0.025227388367056847 -0.03836456313729286 -0.0004223380528856069!0.011196829378604889 -0.047030605375766754 0.015383831225335598,0.006162417586892843 -0.008090903982520103 -0.06471940129995346,0.03359952196478844 -0.04015587270259857 -0.017276352271437645!-0.06824149191379547 -0.0006593181169591844 0.0028057866729795933,0.03752877563238144 -0.02471546269953251 0.019185256212949753,-0.06409882009029388 -0.09158222377300262 0.0037113919388502836!0.009590491652488708 -0.013361967168748379 -0.0012792159104719758,0.01553563866764307 -0.06030339002609253 -0.02011549286544323,0.017027929425239563 -0.05932995676994324 -0.0814647227525711!-0.06052141264081001 -0.007535080425441265 -0.022478144615888596,0.009218408726155758 -0.09924833476543427 -0.061133984476327896,0.037066761404275894 -0.0002999776625074446 0.01803058572113514!0.034260768443346024 0.011763430200517178 0.005349447950720787,0.020703356713056564 -0.057035304605960846 -0.011768831871449947,-0.05460149794816971 -0.05694129317998886 -0.027362409979104996!0.002170862164348364 0.04941144585609436 0.021703261882066727,-0.017783546820282936 0.005691548343747854 -0.0772426649928093,-0.01471928134560585 -0.09751023352146149 -0.06184342876076698!0.03927123546600342 0.011190838180482388 -0.021411988884210587,-0.04124747961759567 -0.0022210488095879555 -0.020804358646273613,0.014329303056001663 -0.046903543174266815 0.029199084267020226!-0.03933297470211983 -0.06434384733438492 -0.03835156187415123,-0.056556567549705505 -0.07579345256090164 -0.034508656710386276,-0.03452093154191971 -0.009584616869688034 0.031788963824510574!0.02168690785765648 -0.06512125581502914 -0.08852334320545197,-0.07046982645988464 -0.08554834872484207 -0.024513723328709602,-0.00017717774608172476 -0.08792462199926376 -0.05715207755565643!-0.025355808436870575 -0.028802793473005295 -0.08247768133878708,0.030803419649600983 -0.06696271896362305 -0.0867791399359703,-0.014241955243051052 -0.000450534513220191 0.0003709138254635036!-0.028862984851002693 -0.02799077145755291 -0.053117282688617706,-0.060636006295681 -0.09329424798488617 -0.08513850718736649,0.010760954581201077 -0.10664992779493332 -0.06758085638284683!-0.057574719190597534 -0.006431453861296177 -0.03293093293905258,-0.05846594274044037 -0.02426224946975708 -0.10143330693244934,-0.04201285168528557 -0.10679653286933899 -0.05576775595545769!-0.020862005650997162 0.03929996117949486 -0.06338837742805481,-0.045796897262334824 -0.0007921813521534204 -0.032057564705610275,-0.037439197301864624 -0.029038080945611 0.034890174865722656
0.029456526041030884 0.015199674293398857 -0.11113382130861282,0.03387050703167915 0.12566378712654114 0.12590371072292328,0.1769600510597229 0.25682926177978516 0.08912988752126694!0.11810768395662308 0.052065249532461166 -0.03137391060590744,-0.12464731186628342 0.01583052985370159 -0.030045663937926292,-0.23873014748096466 -0.11486539989709854 -0.1870526522397995!0.000486131728393957 -0.03144555911421776 0.013603159226477146,-0.03022838942706585 -0.03717276453971863 0.007412017788738012,0.09649685770273209 0.10492076724767685 0.04225679486989975!-0.06537334620952606 -0.2623632550239563 -0.0779695212841034,0.0811709463596344 0.3613259792327881 0.29292604327201843,-0.07967282086610794 -0.1042858138680458 -0.11838389188051224!0.14974267780780792 0.05239509418606758 0.03903365880250931,0.18138627707958221 -0.09869242459535599 -0.10866612195968628,0.015395525842905045 0.10436584055423737 0.08385723829269409!-0.004234946798533201 -0.03537799045443535 -0.010773438028991222,0.027083219960331917 -0.021170388907194138 0.03341733291745186,-0.032455503940582275 -0.002871565753594041 -0.01719808764755726!-0.15333719551563263 -0.2621118128299713 -0.2867758274078369,-0.018326185643672943 0.06060686334967613 0.22325657308101654,0.02893218956887722 0.04295879974961281 -0.03748183324933052!-0.0007722652517259121 -0.15680329501628876 -0.09353988617658615,0.0280842874199152 0.009008561260998249 0.020009484142065048,-0.23867267370224 -0.17694036662578583 -0.09868080168962479!0.0018765365239232779 0.05923749506473541 -0.05055120959877968,0.06480185687541962 0.14398062229156494 0.029485302045941353,0.1354847252368927 0.1948172003030777 -0.010602854192256927!0.06046251207590103 0.038778021931648254 0.013364178128540516,-0.029134482145309448 -0.09530586004257202 -0.02206840179860592,0.16336609423160553 0.23915687203407288 0.08776973932981491!-0.003296936396509409 0.013806209899485111 -0.0071582552045583725,0.04239447042346001 -0.030822856351733208 0.04063323512673378,-0.021386276930570602 0.09362100064754486 0.03968384116888046!0.015122983604669571 -0.12178455293178558 -0.058507468551397324,0.19791391491889954 0.20303326845169067 0.23202383518218994,0.09709387272596359 0.03967897966504097 -0.0011720815673470497!-0.002766622696071863 -0.021254586055874825 0.13743315637111664,-0.013559122569859028 0.009250818751752377 -0.09567809104919434,-0.1289173662662506 -0.05563059821724892 0.01075925026088953!-0.09176108986139297 -0.08646192401647568 -0.08159302920103073,0.06808464974164963 0.14294275641441345 0.11680866777896881,-0.0957382470369339 -0.16631992161273956 -0.2273150533437729!0.03408994525671005 -0.007640043739229441 0.0005359184578992426,-0.025031493976712227 0.01640499010682106 -0.08811164647340775,-0.07492475211620331 0.01820957101881504 0.05133865401148796!0.059922561049461365 0.07021994888782501 -0.12202096730470657,-0.007389453239738941 0.001980517990887165 -0.038983266800642014,0.026095155626535416 -0.13182565569877625 -0.17266163229942322!-0.0007411326514557004 -0.07724405080080032 -0.16829456388950348,0.17121848464012146 0.24145089089870453 0.12787963449954987,0.0826069638133049 0.12920081615447998 0.055156558752059937!0.04192127659916878 -0.05315227434039116 -0.06025603786110878,0.11459071189165115 0.2589738965034485 0.4033341705799103,-0.015977561473846436 -0.10951367020606995 -0.16786344349384308!0.08797886967658997 0.048530153930187225 -0.00747758848592639,-0.013880697079002857 -0.01619419828057289 0.0161175187677145,-0.11663907021284103 -0.17209114134311676 0.027508316561579704!-0.07871099561452866 -0.18417389690876007 -0.12346618622541428,0.13042530417442322 0.17180810868740082 0.12083750218153,-0.15976014733314514 -0.1849212944507599 -0.06010909005999565!0.03419220447540283 0.0052908011712133884 0.03432723134756088,-0.16895417869091034 -0.23816226422786713 -0.12981534004211426,-0.018917545676231384 -0.0012422542786225677 0.09917964041233063!-0.021680833771824837 -0.11238523572683334 -0.14166562259197235,0.005061826668679714 0.21767938137054443 0.09700265526771545,0.12683549523353577 0.18439608812332153 -0.0008919338579289615!-0.04280826821923256 0.0031580524519085884 -0.08056675642728806,-0.057212721556425095 0.10032162070274353 0.11380895227193832,0.08158870786428452 0.12584497034549713 0.16586922109127045!-0.00905569177120924 -0.02832668647170067 -0.09808529168367386,0.05012485384941101 0.19555453956127167 0.16961856186389923,-0.04631226137280464 -0.2852347493171692 -0.38394269347190857!0.059246357530355453 -0.03947673365473747 0.009619932621717453,0.10736601799726486 0.16562168300151825 0.0716538280248642,-0.09205600619316101 -0.00033280396019108593 -0.06150985136628151!0.011264464817941189 -0.0018459790153428912 -0.010559599846601486,-0.29816874861717224 -0.0459064356982708 -0.044669900089502335,0.21580147743225098 0.1270889937877655 0.13292516767978668!0.012045780196785927 -0.027402158826589584 0.009982533752918243,-0.006382236257195473 0.15420497953891754 0.08715561032295227,-0.2531130015850067 -0.23636721074581146 -0.2314804047346115!-0.019607199355959892 -0.15527339279651642 0.04416894167661667,0.023881155997514725 0.3718413710594177 0.06260662525892258,0.041994012892246246 0.03044961951673031 -0.09574199467897415!-0.06072549521923065 -0.042588748037815094 0.036976855248212814,-0.05372817441821098 0.012208577245473862 0.16368918120861053,-0.4281608760356903 -0.389336496591568 -0.33294057846069336!0.005644591059535742 0.06723582744598389 -0.0009623780497349799,0.23793525993824005 -0.11570563912391663 -0.24741774797439575,-0.30580800771713257 -0.18206651508808136 -0.07044649869203568!-0.0028701231349259615 -0.12212277203798294 -0.09648822247982025,0.04062023386359215 0.08518097549676895 0.11320728808641434,0.05736474692821503 -0.039910007268190384 -0.09308537095785141!0.0036208676174283028 0.011682760901749134 0.03854138404130936,0.12127004563808441 0.02553478255867958 -0.12322912365198135,-0.21182841062545776 -0.29059267044067383 -0.3285471796989441
-0.03241748735308647 0.031401440501213074 0.1887625902891159,-0.07665242999792099 0.1700936108827591 0.22555498778820038,-0.03780972957611084 -0.1356252133846283 -0.08272381126880646!0.04370993375778198 0.13592225313186646 -0.02376953884959221,-0.08600639551877975 0.05572361871600151 -0.07523196190595627,-0.06584819406270981 0.1445283591747284 0.057092245668172836!-0.049233436584472656 0.0043824356980621815 0.004216985777020454,0.05716574564576149 0.05955767259001732 -0.36037158966064453,-0.03713332489132881 -0.21442796289920807 -0.10402485728263855!0.045980747789144516 -0.22279290854930878 -0.05097855255007744,0.2160445749759674 0.22072070837020874 0.13361237943172455,-0.08525079488754272 -0.12513217329978943 -0.05339135229587555!0.009480604901909828 -0.06213175877928734 -0.029540041461586952,-0.07584664970636368 -0.2596064805984497 -0.41956210136413574,-0.3570690155029297 -0.05519821122288704 0.016120759770274162!0.03070978820323944 0.13731315732002258 -0.0825052559375763,0.029018457978963852 -0.04578851908445358 -0.35607942938804626,-0.03703135997056961 0.03401365131139755 -0.009560688398778439!-0.09933767467737198 0.055569857358932495 0.08959491550922394,0.005703927017748356 0.009164033457636833 -0.1233794316649437,0.005381305702030659 0.05736082047224045 -0.12427596747875214!-0.009547801688313484 -0.01792881079018116 -0.15115892887115479,-0.027808407321572304 0.009027788415551186 -0.039484500885009766,-0.08910296112298965 -0.04712158441543579 0.1502736210823059!-0.03118625283241272 0.03117276355624199 0.14454807341098785,0.004416178911924362 0.08039338141679764 0.15219396352767944,-0.012022260576486588 -0.06420248746871948 -0.2181515097618103!-0.07957930862903595 -0.018240612000226974 0.02629302442073822,0.05398859828710556 0.04704650491476059 -0.10878944396972656,-0.15261957049369812 -0.18191376328468323 -0.002629056805744767!0.07867037504911423 0.019587567076086998 -0.05108465626835823,0.02777809463441372 0.07063315808773041 0.06260624527931213,0.02549140714108944 0.044716790318489075 0.01576388068497181!0.11702843755483627 0.2728710472583771 -0.053526971489191055,0.005844674073159695 -0.09153823554515839 -0.22816306352615356,-0.11762786656618118 -0.01889152079820633 0.1433044672012329!-0.016962392255663872 -0.029754210263490677 -0.14864324033260345,0.05660906806588173 0.009856278076767921 -0.36828604340553284,-0.01954135112464428 -0.0073336344212293625 0.08952149748802185!0.02086411416530609 0.050170037895441055 0.09857136011123657,0.14589272439479828 0.2720036506652832 0.11570889502763748,-0.08059589564800262 -0.14746129512786865 -0.1576739400625229!-0.010612932033836842 0.0765673965215683 -0.043901581317186356,0.009292973205447197 0.21208874881267548 0.2283124178647995,-0.1186482235789299 -0.075316421687603 -0.2507656514644623!0.05122586339712143 0.02659694105386734 -0.008585885167121887,0.034503206610679626 0.15007862448692322 0.18568384647369385,0.06079679727554321 0.1808425486087799 0.1026233583688736!-0.11587978154420853 -0.048208482563495636 0.25974175333976746,0.12621663510799408 0.08989560604095459 -0.16346777975559235,-0.050280746072530746 -0.08543548732995987 0.14317858219146729!-0.043886084109544754 -0.05313672125339508 0.11375031620264053,-0.04151707887649536 0.12101302295923233 0.3432900309562683,0.011868774890899658 0.07903697341680527 -0.06059735268354416!0.044316958636045456 0.0567428283393383 0.008545579388737679,-0.12785987555980682 -0.15763947367668152 0.18698948621749878,-0.058177124708890915 0.20307068526744843 -0.07976976782083511!0.11012915521860123 -0.0402752123773098 -0.0009747773874551058,0.055028486996889114 0.19231796264648438 0.11511088907718658,0.053852520883083344 -0.023689743131399155 0.00828403141349554!-0.0062706563621759415 -0.06098621338605881 -0.11294898390769958,-0.11299867182970047 -0.22492623329162598 -0.08918397128582001,-0.0506390705704689 0.05456824600696564 0.23948164284229279!0.11539975553750992 0.06190277636051178 -0.5287735462188721,-0.07183163613080978 0.33456292748451233 -0.25894036889076233,-0.050356943160295486 -0.15379953384399414 -0.054383717477321625!-0.07391232252120972 0.06812120229005814 -0.03515268489718437,-0.03987967222929001 0.21045364439487457 0.09055815637111664,0.006908364128321409 -0.1429133117198944 -0.29873892664909363!0.005181546788662672 -0.003985794261097908 0.009211733937263489,-0.07027395069599152 0.03789646178483963 0.04628479480743408,-0.05434735491871834 -0.026875723153352737 -0.03784681484103203!0.09030836820602417 0.0474700853228569 0.05234503000974655,0.016256218776106834 -0.041522882878780365 -0.07428929209709167,-0.04333317279815674 -0.0025383708998560905 -0.11675984412431717!0.08064024895429611 -0.14020775258541107 -0.10489297658205032,-0.2173427939414978 -0.2508799135684967 -0.23860542476177216,-0.24013850092887878 0.16055631637573242 0.16529510915279388!0.10470970720052719 0.04699688032269478 0.06006865203380585,0.07511045783758163 0.11935693770647049 -0.11836614459753036,-0.2100123167037964 -0.03417089581489563 0.11842214316129684!0.23968985676765442 -0.018516389653086662 0.1645251214504242,0.1867665946483612 -0.2688567042350769 -0.12644518911838531,-0.13013574481010437 -0.18029020726680756 -0.08356419950723648!0.12832504510879517 0.010903453454375267 -0.14886416494846344,0.07410947978496552 -0.03375222533941269 0.00010350793309044093,0.04905890300869942 0.19955004751682281 0.18429623544216156!-0.24702782928943634 -0.3021232485771179 0.031779296696186066,0.12814155220985413 0.10104615986347198 -0.031509045511484146,-0.00732460105791688 -0.03379867598414421 0.4061676561832428!0.11026698350906372 0.08209465444087982 -0.15395158529281616,-0.023675044998526573 0.09084019064903259 -0.05605030432343483,0.05070629343390465 0.13530224561691284 0.14972463250160217!0.06339409947395325 0.02386237308382988 0.0799601599574089,0.005725424271076918 -0.0011471916222944856 -0.11013355851173401,-0.1136883869767189 0.026431214064359665 0.23762579262256622
0.053338564932346344 0.024025995284318924 0.07046867161989212,-0.0890556201338768 -0.1357783079147339 -0.10732755064964294,-0.0360143668949604 0.08506081253290176 0.04198051616549492!-0.08025290817022324 -0.007882575504481792 0.013119328767061234,0.19487212598323822 0.08301867544651031 0.02128354273736477,-0.15768927335739136 -0.07564973831176758 -0.07197379320859909!-0.03300277143716812 0.0705508142709732 0.06385074555873871,-0.0990249514579773 -0.12589174509048462 -0.11514949798583984,0.09264671057462692 0.05813832953572273 0.11520931124687195!-0.03760988265275955 -0.07375825196504593 -0.12170771509408951,-0.11613256484270096 -0.18065860867500305 -0.13974188268184662,0.08476211130619049 0.12998603284358978 0.17705029249191284!-0.10778973251581192 0.13627977669239044 0.04721945896744728,0.019685791805386543 -0.10296057909727097 -0.07479459047317505,0.16172097623348236 -0.09428267180919647 0.0524592325091362!-0.06834570318460464 0.0037867052014917135 0.00653068395331502,0.040249135345220566 -0.025617826730012894 -0.10037645697593689,-0.03773092105984688 -0.10990577936172485 0.05176585167646408!-0.147587850689888 -0.10895195603370667 -0.05716947093605995,-0.12548711895942688 -0.13974732160568237 -0.24689981341362,0.10299127548933029 0.19788363575935364 0.3316345512866974!-0.12682338058948517 0.00719602033495903 0.05567099153995514,0.031421005725860596 -0.02021867409348488 -0.0817374512553215,0.1387048065662384 0.19484232366085052 0.13616178929805756!0.06119834631681442 0.05569016933441162 0.02632853016257286,-0.1332176774740219 -0.1673208773136139 -0.06224624440073967,0.14678284525871277 0.1284683495759964 0.029503781348466873!0.009845583699643612 0.015221483074128628 0.01948506385087967,-0.14252744615077972 -0.048479244112968445 -0.018791429698467255,0.16127291321754456 0.013598017394542694 -0.09367001056671143!-0.008432327769696712 0.027188289910554886 -0.03997819125652313,0.06726933270692825 0.05964667722582817 0.042552921921014786,-0.004938048310577869 0.011707700788974762 -0.000664984283503145!-0.037130206823349 0.05318140611052513 0.06394089758396149,0.1946481168270111 -0.2241106927394867 -0.20288266241550446,-0.006800908595323563 0.06219685822725296 0.0964442640542984!-0.08570324629545212 -0.04561470448970795 0.0319497212767601,-0.002726494101807475 -0.045913901180028915 -0.0128799332305789,0.020796239376068115 0.1597340703010559 0.348581463098526!-0.05665793642401695 -0.08978638052940369 -0.08324286341667175,-0.031414661556482315 0.04135097563266754 0.08726263046264648,0.13643747568130493 0.04117630422115326 0.07336103171110153!-0.014681481756269932 -0.07850043475627899 -0.08076496422290802,-0.031134910881519318 0.01907641813158989 0.08866754919290543,-0.11217755079269409 -0.08134786039590836 -0.08286185562610626!0.05515480786561966 0.0014394819736480713 -0.01754237338900566,0.039405472576618195 0.15955263376235962 0.07608959823846817,0.0019161923555657268 -0.011596573516726494 0.1475827544927597!-0.04604592174291611 -0.22155989706516266 0.07193928956985474,-0.06806932389736176 -0.2279985398054123 -0.195419043302536,0.08270034193992615 -0.023384205996990204 0.24690456688404083!0.028339749202132225 0.026740238070487976 0.016802113503217697,-0.21033917367458344 -0.16211220622062683 0.00430011423304677,0.0735580325126648 0.14593957364559174 0.2575379014015198!-0.04467145353555679 -0.06135840341448784 0.013339377008378506,-0.045895375311374664 -0.12818950414657593 -0.12128900736570358,-0.1578194946050644 -0.36716413497924805 -0.36025601625442505!0.055175747722387314 -0.011115648783743382 -0.03821360692381859,-0.10995817929506302 -0.12503913044929504 -0.0667753592133522,0.061605073511600494 0.04348081350326538 -0.004405686631798744!-0.01543358527123928 0.004542434588074684 0.018296049907803535,0.10613025724887848 -0.08421226590871811 -0.00100132345687598,-0.3949590027332306 -0.5518594980239868 -0.2511405348777771!-0.08832816779613495 0.03874488174915314 0.006145004648715258,0.011212548241019249 -0.06064310297369957 -0.045933760702610016,0.062030766159296036 -0.10367099940776825 -0.18262536823749542!0.033938225358724594 -0.07332920283079147 0.014350755140185356,0.023989230394363403 -0.06534679979085922 -0.06224256753921509,0.08714501559734344 -0.011432528495788574 -0.2947007715702057!-0.06213599070906639 -0.08294789493083954 -0.035292498767375946,0.13670788705348969 0.0844637081027031 0.013006789609789848,-0.11188238114118576 0.22737279534339905 0.4017763137817383!-0.06284866482019424 -0.052352000027894974 -0.04595606401562691,-0.10165757685899734 -0.09735478460788727 -0.08034868538379669,0.12785953283309937 0.0420735627412796 -0.03838997706770897!-0.035318903625011444 0.054349303245544434 0.03933456167578697,-0.014610208570957184 -0.08273251354694366 -0.10597800463438034,-0.07527294754981995 -0.031555723398923874 -0.03019786812365055!-0.04523324966430664 -0.06791718304157257 -0.04270608350634575,0.16393788158893585 0.08822080492973328 0.07380932569503784,-0.026173964142799377 0.1445772498846054 0.1949325054883957!-0.02855306677520275 -0.04772000387310982 -0.09736846387386322,0.06738020479679108 -0.019281169399619102 0.05437066778540611,0.19756174087524414 0.25578033924102783 0.13709215819835663!-0.035180941224098206 -0.001200697384774685 -0.004625377710908651,0.001423775451257825 -0.01326353196054697 0.030530523508787155,0.058272793889045715 0.1308201253414154 0.2342349886894226!0.03788565844297409 -0.07277067005634308 0.0011576393153518438,-0.0007369565428234637 -0.001191368093714118 0.004410249181091785,-0.047205600887537 -0.07930818945169449 -0.27930232882499695!0.029166562482714653 -0.0046582832001149654 -0.03223288431763649,0.007821102626621723 -0.07059881091117859 -0.048632752150297165,-0.06040255352854729 0.06710188090801239 0.21429631114006042!-0.055537644773721695 0.008498107083141804 0.03265594691038132,0.13386423885822296 0.12066294997930527 0.20389434695243835,0.0804513618350029 0.10539759695529938 0.15732942521572113
-0.012745770625770092 0.04524359107017517 -0.15621303021907806,-0.056354157626628876 -0.11363477259874344 -0.17198970913887024,0.15532223880290985 0.04622111842036247 -0.014912577345967293!0.018178414553403854 0.10184146463871002 -0.02835938334465027,0.1281813234090805 0.060482367873191833 0.05615478381514549,0.05095353350043297 0.04250185191631317 -0.029084613546729088!0.06641583144664764 0.034502387046813965 0.02410638891160488,-0.02726958692073822 0.03478267788887024 0.23803697526454926,-0.03769560903310776 -0.0625946968793869 0.0927898958325386!0.09873154759407043 0.00942053273320198 0.14737701416015625,0.03180735558271408 -0.16120769083499908 -0.11466781049966812,-0.09315134584903717 -0.02830660343170166 -0.07163560390472412!-0.06635389477014542 -0.0796944722533226 0.02325942926108837,0.3987412452697754 0.38462790846824646 0.3657718896865845,-0.37572547793388367 -0.19374211132526398 0.036767859011888504!0.04534199461340904 0.0014064285205677152 -0.02697465382516384,-0.015463090501725674 0.10646845400333405 0.19414567947387695,-0.03229118511080742 0.06392242759466171 0.14972177147865295!0.07176730036735535 -0.03401852026581764 -0.17357683181762695,-0.06680503487586975 -0.08625287562608719 0.10190972685813904,0.04395635798573494 -0.07429678738117218 0.0006586679955944419!-0.05193796753883362 0.06936744600534439 0.08527957648038864,-0.14892949163913727 -0.25932952761650085 -0.19749915599822998,-0.13025718927383423 -0.1619841456413269 -0.026369374245405197!0.04635920003056526 0.08177433162927628 0.12239401787519455,0.027332358062267303 0.051128264516592026 0.0074800727888941765,0.17718206346035004 0.03209184482693672 0.01906086690723896!-0.05929930880665779 0.05167396739125252 0.0715671181678772,-0.021108480170369148 0.1177423968911171 0.1436106413602829,0.011310321278870106 -0.13892096281051636 -0.06955570727586746!0.10008981078863144 0.09154410660266876 0.0086580291390419,0.056442610919475555 0.005658354610204697 0.07394331693649292,0.05103643611073494 0.03174149617552757 0.003084060037508607!0.12587091326713562 0.08263817429542542 0.03735935315489769,0.0889621451497078 -0.07993552833795547 -0.05542220547795296,0.13574008643627167 0.04256187751889229 -0.016238704323768616!-0.0598655603826046 -0.10479297488927841 0.03903216868638992,-0.09061270952224731 -0.08582044392824173 0.21139809489250183,-0.03728850558400154 -0.09241030365228653 0.06326784193515778!0.024691253900527954 -0.023623328655958176 -0.01360565610229969,-0.12078332155942917 -0.24481278657913208 -0.03709733858704567,-0.012061132118105888 -0.06723262369632721 0.05222197249531746!0.0162163358181715 -0.07379757612943649 -0.10245655477046967,-0.16912893950939178 -0.22857697308063507 -0.07841387391090393,0.19387051463127136 0.07689756900072098 -0.0042369128204882145!0.044613346457481384 0.07790548354387283 -0.019757302477955818,-0.10729120671749115 -0.09998273849487305 -0.026244426146149635,0.04273660108447075 0.1132652685046196 -0.025578701868653297!0.09116355329751968 0.1458042711019516 -0.15545456111431122,-0.16801001131534576 -0.11063608527183533 -0.04057379439473152,0.1477886587381363 -0.07883322983980179 0.07821094989776611!0.0368814542889595 -0.018609249964356422 -0.05091746523976326,-0.04701864719390869 -0.33091896772384644 -0.3228470981121063,-0.047893937677145004 -0.06097511574625969 -0.08772491663694382!-0.011425726115703583 0.03556172922253609 0.1250525712966919,0.11410664767026901 0.10571865737438202 -0.14246416091918945,0.06489415466785431 0.28992602229118347 0.1879355013370514!-0.003612668253481388 -0.04221814125776291 0.002900216495618224,-0.1117788627743721 -0.31496408581733704 -0.1662464737892151,-0.10690399259328842 0.006300259381532669 0.023423485457897186!-0.00706141535192728 -0.02868097648024559 -0.012648304924368858,0.14549380540847778 0.1323905885219574 0.05701882392168045,0.03020743653178215 0.17229622602462769 0.03674960136413574!0.1120850145816803 -0.20367737114429474 -0.13052457571029663,-0.10850338637828827 -0.42166101932525635 0.1009976714849472,0.053774092346429825 -0.23407725989818573 0.009309458546340466!0.032208312302827835 -0.014039740897715092 -0.20210616290569305,-0.10311012715101242 -0.3220241367816925 0.015507237054407597,0.024625930935144424 -0.19470372796058655 -0.09275564551353455!-0.027448473498225212 0.016889935359358788 0.055420052260160446,-0.03521857038140297 -0.08158038556575775 -0.060294799506664276,0.13692747056484222 0.2027978152036667 0.02479567937552929!0.057727791368961334 0.06130383908748627 0.05940353870391846,0.17438749969005585 0.12410790473222733 0.15445443987846375,0.13793177902698517 0.10199983417987823 0.0565398670732975!-0.08373110741376877 0.04697485268115997 0.0691801905632019,0.0768372043967247 0.28969818353652954 0.15532855689525604,-0.476733535528183 -0.14658857882022858 -0.10285861790180206!0.0395926870405674 -0.008803585544228554 0.09028643369674683,0.03190707042813301 -0.11229067295789719 0.09040706604719162,0.0791032612323761 0.01701921410858631 0.03359208256006241!0.05842471122741699 -0.21095997095108032 0.12793125212192535,0.039239514619112015 -0.23296138644218445 0.2549046576023102,0.09035296738147736 -0.2989850342273712 -0.04452214017510414!0.004411468282341957 -0.10590869188308716 -0.03972556069493294,-0.057945456355810165 -0.2065286934375763 -0.1693948656320572,-0.08935870975255966 -0.1564365178346634 -0.13610436022281647!0.21976839005947113 0.21739880740642548 0.15337136387825012,0.08837665617465973 0.17428965866565704 0.2116795778274536,0.012060445733368397 -0.09405434876680374 -0.17280948162078857!0.05676604062318802 -0.003908658865839243 0.10116823762655258,-0.009804309345781803 -0.008931294083595276 -0.0007811845280230045,0.020692801102995872 -0.032078683376312256 0.03922471031546593!-0.012181459926068783 -0.041009798645973206 0.002652028575539589,-0.04365356266498566 0.0038507867138832808 0.04337828978896141,-0.08193034678697586 0.04421130195260048 0.02040059119462967
-0.014662719331681728 -0.037570513784885406 -0.050230611115694046,-0.061023108661174774 -0.042610302567481995 0.028232639655470848,-0.01107129454612732 -0.04177470877766609 -0.03177929297089577!-0.012590768747031689 0.004389498848468065 0.007847895845770836,0.011063979007303715 -0.056418322026729584 -0.039090655744075775,-0.07684748619794846 -0.048125434666872025 -0.0751260370016098!-0.01623813435435295 -0.04082375392317772 -0.02998647652566433,0.045774225145578384 0.02694759890437126 0.0014926122967153788,0.02214824967086315 0.014735468663275242 -0.0038753640837967396!0.003283006139099598 -0.014728425070643425 -0.05477413535118103,0.03714520111680031 -0.055004723370075226 -0.04480033367872238,-0.05906941741704941 -0.04521787166595459 0.030963150784373283!-0.005437231622636318 0.01844838447868824 0.014257309958338737,0.04603436216711998 -0.0051086475141346455 -0.015144089236855507,-0.02704254910349846 -0.009014714509248734 -0.004541298374533653!-0.05086510255932808 -0.05254966393113136 -0.03536437824368477,0.024205835536122322 0.013095051050186157 0.019687296822667122,0.012741425074636936 -0.010464507155120373 -0.05902576446533203!0.044305428862571716 0.0014644676120951772 -0.03191426768898964,-0.0031557504553347826 -0.06692338734865189 -0.02359563484787941,0.029009800404310226 -0.00711306044831872 -0.07262270152568817!0.04045353829860687 0.002237414475530386 -0.027026044204831123,0.018594777211546898 0.017174381762742996 0.007547502871602774,0.0021449816413223743 -0.059949737042188644 -0.06966466456651688!0.039727989584207535 -0.0036405534483492374 0.04174842685461044,0.011838137172162533 -0.07424338161945343 0.009709440171718597,0.01194175984710455 -0.078964464366436 -0.019227605313062668!-0.05600417032837868 0.022783806547522545 0.019678553566336632,-0.005915674846619368 0.028886182233691216 -0.05980471894145012,-0.02754117175936699 -0.04415421560406685 0.017475249245762825!0.04206274449825287 -0.020789355039596558 -0.05000278353691101,-0.0020542023703455925 0.0460573248565197 -0.01271493174135685,0.021687356755137444 -0.04283347725868225 -0.039177533239126205!-0.054579075425863266 -0.05417424440383911 -0.030877387151122093,-0.03278525918722153 0.013269794173538685 0.02157033048570156,-0.00085150555241853 0.013012710027396679 -0.06555628031492233!-0.02552492544054985 -0.055049873888492584 0.05022646114230156,-0.011154918931424618 -0.024029618129134178 -0.0711941197514534,-0.011363117955625057 -0.08303412795066833 0.02267051860690117!-0.05780303105711937 0.012613505125045776 0.03196646645665169,-0.06504817306995392 0.017989419400691986 0.031865254044532776,0.022545157000422478 0.028346549719572067 -0.05509059876203537!-0.02142200618982315 0.04329441860318184 0.01626354269683361,-0.06589990854263306 0.03120247647166252 -0.035984303802251816,-0.0447339303791523 -0.019721824675798416 0.03264240920543671!-0.04004308208823204 -0.004358467645943165 -0.01863408088684082,-0.04353121295571327 0.0002971045614685863 -0.022127345204353333,-0.07303377240896225 -0.028060931712388992 0.014681744389235973!-0.03547370061278343 0.05235215276479721 -0.05457925423979759,0.0025337731931358576 0.010700495913624763 -0.006513061001896858,0.014645572751760483 -0.00020511503680609167 -0.04028426483273506!0.031469762325286865 -0.019519018009305 0.044743236154317856,0.028112784028053284 -0.07556650042533875 0.02145938016474247,-0.013624120503664017 -0.04912204295396805 -0.04301542043685913!-0.008128462359309196 0.05507780984044075 0.035977043211460114,-0.03308560699224472 -0.035178378224372864 -0.055368874222040176,-0.029773138463497162 -0.0013365047052502632 -0.06856713443994522!-0.06006160005927086 -0.039452362805604935 0.0048132892698049545,-0.00041021540528163314 -0.009370138868689537 0.023041345179080963,-0.0051228259690105915 -0.050102218985557556 0.005489025730639696!-0.029443541541695595 0.05704966187477112 -0.026161910966038704,-0.05292418599128723 -0.03519169241189957 -0.0502835214138031,-0.005917979404330254 -0.00984796229749918 -0.010483684949576855!-0.0170168224722147 -0.041053153574466705 -0.06537117063999176,-0.07143490016460419 -0.054831791669130325 -0.08620333671569824,0.04514167830348015 0.023780332878232002 -0.0007411005790345371!0.02735380455851555 0.010519079864025116 -0.027094805613160133,-0.031894367188215256 -0.032231248915195465 -0.0008458858937956393,0.004764617886394262 -0.05985904484987259 -0.018274467438459396!-0.055742379277944565 0.03496243804693222 -0.005265871528536081,-0.02744385413825512 -0.06102224066853523 -0.01804155483841896,-0.01919962465763092 -0.013186844997107983 -0.06787130981683731!-0.03646848723292351 -0.05120699107646942 -0.04778559133410454,-0.04412700608372688 -0.05501198396086693 0.03056447021663189,-0.06528077274560928 -0.027242708951234818 -0.024981146678328514!-0.023729434236884117 -0.016366655007004738 0.015925463289022446,-0.021500159054994583 -0.03411349654197693 0.024640776216983795,-0.024296937510371208 -0.03038698434829712 0.011019176803529263!-0.01856209523975849 -0.047003962099552155 0.04537571966648102,-0.0713905319571495 -0.07550788670778275 -0.04756416380405426,-0.009626846760511398 0.030303608626127243 -0.06292439252138138!-0.033744800835847855 0.045829594135284424 0.03868623450398445,0.018904821947216988 -0.060488659888505936 0.004586163908243179,-0.013209368102252483 -0.0553278923034668 0.018234753981232643!-0.05076714977622032 -1.341960614809068e-05 -0.04305887222290039,0.023552099242806435 -0.02552698738873005 -0.041235845535993576,0.006202645134180784 0.025537952780723572 -0.03163506090641022!0.036423902958631516 -0.02606651932001114 -0.038518212735652924,-0.03187061846256256 -0.0782659724354744 0.025613093748688698,0.0028068029787391424 -0.05293381214141846 -0.07871647924184799!0.026334045454859734 -0.006498383358120918 -0.052408911287784576,-0.032560259103775024 -0.04780599847435951 -0.018107501789927483,-0.05019713193178177 -0.05446891114115715 -0.05695657432079315!-0.026313416659832 0.0009455434628762305 0.028673266991972923,-0.004891453310847282 0.02014179714024067 -0.035808026790618896,-0.03777044266462326 -0.05653684213757515 -0.06817015260457993
0.07583505660295486 0.09670752286911011 0.002824480878189206,0.12311253696680069 0.28528136014938354 0.15381962060928345,-0.05284310504794121 0.018015412613749504 0.02675587497651577!-0.18573619425296783 -0.19736261665821075 -0.052843980491161346,-0.036892835050821304 -0.03250735625624657 0.05669322982430458,-0.08313287049531937 -0.041531629860401154 -0.11048862338066101!-0.03391999378800392 -0.20657198131084442 0.03604957088828087,0.002818665001541376 -0.16665436327457428 0.020234717056155205,0.1260751634836197 0.05149337276816368 0.05062342435121536!0.015588385984301567 0.231435164809227 0.22272369265556335,-0.1318099945783615 -0.06690171360969543 -0.06710145622491837,0.0401494987308979 0.07420895993709564 0.0684322938323021!0.01745523139834404 -0.09923844039440155 0.3271268904209137,-0.504645586013794 -0.5553567409515381 -0.3172399401664734,0.1476057469844818 0.18438899517059326 0.1736096441745758!-0.03928732872009277 -0.0614670105278492 0.027128346264362335,-0.11443257331848145 -0.09594487398862839 0.025815187022089958,-0.02727155201137066 -0.09028159081935883 -0.0028816142585128546!-0.11781143397092819 -0.10138477385044098 0.08661520481109619,0.07623930275440216 -0.14961904287338257 -0.22368040680885315,-0.04717477411031723 -0.12876299023628235 0.12273414433002472!-0.17227806150913239 -0.053970884531736374 0.09100401401519775,0.21400508284568787 0.22348269820213318 0.19410483539104462,0.041457947343587875 0.025409648194909096 -0.0010316342813894153!0.042794059962034225 -0.1755063235759735 -0.04099776968359947,0.2583923935890198 0.1966416984796524 0.0034851874224841595,0.08112499117851257 0.09600766748189926 -0.09864932298660278!-0.030265888199210167 -0.18469148874282837 0.06973697990179062,0.0760176032781601 0.024093689396977425 -0.033588699996471405,0.08238966017961502 0.032678741961717606 0.14319929480552673!-0.03091726079583168 -0.10016797482967377 -0.018917815759778023,0.025860846042633057 -0.026972129940986633 -0.021356971934437752,-0.01608523353934288 -0.04039498418569565 0.03209342062473297!0.1234276071190834 0.41706451773643494 -0.10424346476793289,-0.062457188963890076 -0.1791839301586151 0.029086031019687653,0.2455790489912033 -0.1938035488128662 -0.21518124639987946!-0.262789249420166 -0.05775884538888931 0.041985124349594116,0.010941390879452229 -0.060384463518857956 -0.1030801385641098,0.0006097496370784938 -0.13921988010406494 0.024338407441973686!-0.05111469328403473 0.12981843948364258 -0.08656178414821625,-0.12656714022159576 -0.10667763650417328 -0.044346846640110016,0.05097682774066925 -0.04197479039430618 -0.04519226402044296!-0.027785224840044975 -0.08871154487133026 -0.07834917306900024,0.4515407383441925 0.32818281650543213 0.11255370825529099,-0.030793527141213417 -0.20558539032936096 -0.32544824481010437!-0.07379377633333206 -0.42082181572914124 -0.15715563297271729,0.10020621865987778 0.29790106415748596 -0.0050207460299134254,-0.0708853080868721 -0.03835592791438103 -0.10334423929452896!0.09841898828744888 0.05226854607462883 -0.027574440464377403,0.13824278116226196 0.20879191160202026 0.10433271527290344,0.0037184248212724924 -0.25318849086761475 -0.12453637272119522!0.09234776347875595 -0.0911174938082695 -0.0006812167703174055,0.026743240654468536 0.07981084287166595 0.11109311878681183,0.07582075148820877 0.1183822900056839 0.10376351326704025!-0.008473466150462627 0.16595050692558289 -0.07396484911441803,0.1842724233865738 0.3363151252269745 0.4009946584701538,-0.14584501087665558 -0.23691006004810333 -0.14406757056713104!-0.2273944467306137 -0.20538809895515442 0.15931814908981323,-0.06212347000837326 0.045945387333631516 0.09954720735549927,0.15386684238910675 0.06155259162187576 -0.07791976630687714!0.0339716300368309 0.039286281913518906 -0.08166936784982681,0.18883992731571198 0.2750876247882843 0.20972898602485657,-0.3034869432449341 -0.3063645362854004 -0.11952341347932816!0.16832949221134186 0.14067430794239044 0.16905157268047333,0.161232590675354 -0.15491461753845215 -0.3107307255268097,0.036862388253211975 -0.06610464304685593 -0.1396341770887375!-0.021408485248684883 -0.026942569762468338 0.04550284519791603,0.20400580763816833 -0.002929114969447255 -0.2837754487991333,0.07057758420705795 0.010648188181221485 -0.1894923895597458!-0.07418429851531982 -0.2315656542778015 -0.05557795241475105,0.1236034631729126 0.23697097599506378 0.2126656323671341,-0.05679066851735115 -0.10683849453926086 -0.1686488687992096!-0.15119868516921997 -0.0008465663995593786 0.12078997492790222,0.13411845266819 0.22667720913887024 0.18990881741046906,-0.03187963366508484 -0.14687322080135345 -0.09765438735485077!-0.11890632659196854 0.20294880867004395 0.1664961278438568,-0.3392971456050873 -0.2275933027267456 -0.20646528899669647,0.07319678366184235 0.06980497390031815 0.20872515439987183!-0.03762662783265114 -0.07536118477582932 0.0996183454990387,-0.06098061054944992 -0.004144566599279642 0.0364096499979496,0.014488428831100464 -0.09721774607896805 -0.0559593066573143!0.006953739561140537 -0.0017740157200023532 0.1082606166601181,0.1815914362668991 -0.1905800849199295 -0.398406982421875,-0.10596877336502075 0.04662808030843735 -0.03791185840964317!-0.12612225115299225 -0.10147816687822342 0.11928955465555191,-0.22320854663848877 -0.3010382652282715 -0.14733581244945526,0.2065325677394867 0.03184051066637039 -0.06970476359128952!0.19576913118362427 0.15866518020629883 0.18354356288909912,-0.28158634901046753 -0.02166079729795456 -0.047295358031988144,-0.11778303235769272 0.06446230411529541 0.0581788644194603!-0.1964835822582245 -0.10792287439107895 0.02780573070049286,-0.09351226687431335 -0.031919922679662704 -0.04149799793958664,0.05155092477798462 -0.04330768808722496 0.0022705825977027416!0.005610236898064613 -0.08484981209039688 0.0405547209084034,0.00439864257350564 0.05732506141066551 0.06934461742639542,-0.09197118878364563 -0.03541745990514755 -0.025667564943432808
0.13504727184772491 0.06920251995325089 0.08593972027301788,0.0018195719458162785 -0.11346343159675598 -0.2853507101535797,0.13152243196964264 0.10521947592496872 -0.1284402757883072!0.05306321755051613 -0.003194862976670265 0.09485624730587006,-0.01013187225908041 -0.025385286659002304 0.1527879387140274,-0.09479130059480667 0.024029070511460304 0.07850244641304016!0.02283579669892788 0.05485435202717781 0.01989203505218029,-0.030805055052042007 -0.2434060424566269 -0.13500159978866577,0.07245025038719177 -0.1416354924440384 -0.07980120182037354!0.07051188498735428 0.10679978877305984 -0.028889156877994537,-0.07836605608463287 0.15143077075481415 -0.07944903522729874,-0.1378614455461502 -0.11478312313556671 0.01562744937837124!0.1422540545463562 0.2321300059556961 0.1537143737077713,-0.04835071042180061 -0.062383756041526794 0.04024342820048332,-0.034801315516233444 -0.2688644826412201 -0.1509632021188736!0.011866546235978603 -0.0043449560180306435 0.08395352214574814,0.018193800002336502 0.030265232548117638 0.20008356869220734,-0.02345215156674385 -0.08076785504817963 0.006419840268790722!-0.048446979373693466 -0.030623754486441612 -0.04650959372520447,-0.04427039623260498 -0.12828931212425232 -0.12984667718410492,0.108306884765625 0.04524972662329674 -0.10155116021633148!-0.05665833503007889 -0.09315260499715805 0.03623003140091896,-0.1726222187280655 -0.2305220663547516 -0.2961358428001404,-0.07619187980890274 0.08038978278636932 0.02020583674311638!0.20105081796646118 0.14753416180610657 0.09066910296678543,-0.020584462210536003 -0.20181895792484283 -0.15992800891399384,0.17305465042591095 0.07600844651460648 -0.13705390691757202!0.05108316242694855 0.05838797241449356 0.07833123952150345,-0.15204767882823944 -0.19147051870822906 0.06141347438097,0.11597447097301483 0.0394512303173542 -0.08792237192392349!0.052900828421115875 0.07269492000341415 0.11882196366786957,-0.00014628823555540293 0.0329677052795887 0.11141660809516907,0.052217744290828705 0.01287223119288683 0.012861866503953934!0.20403678715229034 0.1326158344745636 0.12632668018341064,0.2756170928478241 0.1403883695602417 0.09654761105775833,0.054645836353302 0.01013532280921936 0.1066870465874672!-0.14280851185321808 -0.060342781245708466 -0.006840602029114962,-0.2016919106245041 -0.2486727386713028 -0.1956326812505722,-0.1526821404695511 -0.12497105449438095 -0.06807608902454376!0.007834352552890778 0.035732172429561615 -0.053283240646123886,-0.04625769704580307 -0.08394941687583923 -0.23096226155757904,-0.0013160466914996505 -0.14690636098384857 -0.12934346497058868!0.13155990839004517 -0.02384919486939907 -0.024297071620821953,0.01700914092361927 -0.028392791748046875 -0.05512063205242157,0.21368885040283203 0.2110292911529541 0.06191600114107132!-0.06311522424221039 0.048184290528297424 0.08944106847047806,0.05325464904308319 -0.10905005037784576 -0.007177701685577631,0.08864638209342957 0.1608375757932663 0.07822180539369583!0.11730462312698364 -0.0023776954039931297 0.012962627224624157,-0.037550851702690125 -0.1315983533859253 -0.04575960338115692,0.03681015223264694 -0.07346131652593613 -0.30869653820991516!0.06276095658540726 0.11355730891227722 -0.02552376501262188,0.05934352055191994 -0.0030415591318160295 -0.1623671054840088,0.06461378186941147 0.018468696624040604 -0.011562027968466282!0.019232554361224174 0.07587317377328873 0.08949533849954605,0.2243979275226593 0.47761303186416626 0.20245811343193054,-0.018234824761748314 0.24975571036338806 0.23910769820213318!0.0027187312953174114 -0.055321674793958664 -0.07182887941598892,-0.056571345776319504 0.0165233314037323 -0.15315689146518707,-0.09918029606342316 0.09153628349304199 0.11893395334482193!-0.00267554959282279 0.07399996370077133 0.008395636454224586,0.11733707040548325 0.3864736258983612 0.13978080451488495,-0.016884688287973404 0.19212399423122406 0.15923795104026794!0.038693130016326904 0.055285874754190445 -0.03321121633052826,0.054807234555482864 -0.12887509167194366 -0.26051831245422363,0.1960526555776596 -0.030281072482466698 -0.12691806256771088!0.04252586141228676 0.051488324999809265 0.0858849585056305,0.00034433306427672505 -0.08858402073383331 -0.17977653443813324,0.12111475318670273 0.10016198456287384 -0.16436292231082916!-0.015869785100221634 -0.11192071437835693 -0.04929773882031441,-0.061730481684207916 -0.05973847210407257 -0.14303162693977356,-0.05226155370473862 0.0723419263958931 0.08224599808454514!0.06606052815914154 0.17782747745513916 0.06235959753394127,0.08057188987731934 0.23799090087413788 0.11039065569639206,0.131927952170372 0.0025825570337474346 0.03238443285226822!0.16347385942935944 0.22885122895240784 0.128446564078331,-0.16472339630126953 -0.015488688834011555 0.12563514709472656,-0.04150211811065674 -0.09187660366296768 -0.04896948114037514!-0.014429806731641293 0.03834392502903938 0.02714638039469719,-0.03725844621658325 -0.06475568562746048 -0.10327561944723129,-0.07160592079162598 -0.1395350992679596 -0.07791212201118469!0.14133766293525696 -0.11805471777915955 -0.18645361065864563,0.011848526075482368 -0.11598072201013565 -0.22422681748867035,0.23474931716918945 0.11854145675897598 -0.055588871240615845!0.048601023852825165 -0.05619227513670921 0.00416494719684124,-0.051249489188194275 -0.22822052240371704 -0.013424762524664402,-0.19919927418231964 -0.25424808263778687 -0.13870958983898163!0.07114150375127792 0.20121704041957855 0.06821422278881073,0.02301032282412052 0.1507958620786667 0.06256408989429474,-0.1704503893852234 -0.19289757311344147 -0.016525059938430786!0.10760509222745895 0.06648099422454834 0.041494663804769516,-0.002989087952300906 -0.053393539041280746 0.037351153790950775,0.05095265060663223 0.0028034094721078873 0.09430496394634247!-0.06257546693086624 0.016925277188420296 -0.01632530614733696,-0.08086902648210526 -0.14006635546684265 -0.14022380113601685,-0.004101316910237074 -0.13208462297916412 0.02317710593342781
