-0.23126307129859924
-0.07280237972736359
0.22812002897262573
0.4323665499687195
-0.13191427290439606
0.4332374930381775
-0.044897545129060745
0.48749032616615295
0.354470431804657
0.2261301726102829
0.35700827836990356
0.7400688529014587
0.48411694169044495
0.09512852877378464
0.2616618275642395
0.35674744844436646
0.4909079968929291
0.3672183156013489
0.28279224038124084
-0.03444856032729149
0.3134007751941681
-0.14873968064785004
0.5130535960197449
0.168544739484787
0.2086339145898819
0.6147214770317078
0.11205475777387619
-0.1137070581316948
0.6133261919021606
0.21124045550823212
0.17790819704532623
0.08696594834327698
-0.07451853156089783
-0.03045237995684147
0.2619396150112152
0.4221789240837097
0.43625780940055847
-0.16745689511299133
0.0998714417219162
-0.15897275507450104
0.5397160649299622
0.3141418397426605
0.08423329144716263
0.7683736681938171
-0.056345563381910324
0.0913456603884697
0.471038818359375
-0.1356169730424881
-0.12953996658325195
0.2843981683254242
-0.12803922593593597
0.3462730944156647
-0.2186071127653122
-0.13242749869823456
0.32535088062286377
0.03421914950013161
-0.03809721767902374
0.02287178859114647
0.0904964879155159
0.4855344295501709
0.19284605979919434
0.12744054198265076
0.13036884367465973
0.00864428374916315
0.4613059461116791
0.3850414752960205
-0.13054689764976501
0.32323360443115234
0.04127096012234688
0.3234809935092926
-0.22060289978981018
0.5869444608688354
0.0868866816163063
0.0212965440005064
0.23060065507888794
-0.008452675305306911
0.08045923709869385
0.20905372500419617
-0.048012685030698776
-0.1755160093307495
0.3438664972782135
0.3209525942802429
-0.10504446178674698
0.1121770367026329
0.23847617208957672
0.16207902133464813
0.31899741291999817
0.19909349083900452
-0.1163787990808487
-0.09200353920459747
0.3840237259864807
0.018863722681999207
-0.3360562026500702
-0.005614403635263443
0.025526849552989006
0.17656266689300537
0.5565487146377563
0.6077184081077576
0.39212551712989807
-0.10488293319940567
0.10652703791856766
0.28641828894615173
0.6833229660987854
0.1786946952342987
-0.001060863258317113
0.4469914138317108
0.041184619069099426
-0.5623639822006226
0.03132171183824539
0.3459898829460144
0.6852709054946899
0.43027615547180176
-0.153848797082901
0.16346345841884613
0.06762108206748962
0.29190483689308167
0.09212400019168854
-0.13366365432739258
0.2986302375793457
0.35373035073280334
0.2515656650066376
0.1579117625951767
-0.0481083057820797
0.23962350189685822
0.09674371778964996
0.10570553690195084
0.1222483292222023
0.01878596656024456