0.022356944158673286 -0.0355931892991066 -0.06312162429094315 -0.4762671887874603 0.07757183909416199 -0.04618232324719429 -0.09577922523021698 -0.12873545289039612 -0.06549964100122452 0.024017877876758575 0.002198167145252228 -0.0076672229915857315 0.10985896736383438 -0.02027631551027298 -0.05271546170115471 -0.09420038759708405 -0.14931030571460724 -0.1264149248600006 0.17674237489700317 -0.06765851378440857 -0.04554816707968712 -0.0945829376578331 0.05016765743494034 0.08801741898059845 0.1476532220840454 -0.053529538214206696 -0.11883818358182907 -0.08914110064506531 0.0794445052742958 -0.004925988614559174 0.1897207349538803 0.18713420629501343 -0.06594822555780411 -0.055056069046258926 0.0647224634885788 -0.03053181804716587 -0.31018728017807007 0.04342477768659592 0.1351395547389984 0.1221110075712204 -0.06637632846832275 -0.0365368016064167 0.0033629562240093946 -0.061960943043231964 0.010588238015770912 -0.05306567624211311 0.19971245527267456 -0.13604147732257843 0.09263280779123306 0.019280193373560905 -0.13604284822940826 -0.26487383246421814 -0.009778901003301144 0.0015965331112965941 -0.04083847254514694 -0.06763982772827148 -0.05530128255486488 -0.15577556192874908 0.0370030552148819 0.10033654421567917 0.24428823590278625 0.018274769186973572 -0.0996541976928711 0.14296337962150574 -0.009499017149209976 -0.10312718898057938 -0.167679563164711 -0.4291223883628845 -0.1079695075750351 0.007976560853421688 -0.18420952558517456 -0.33739137649536133 -0.08293785154819489 0.021229712292551994 0.2494901567697525 -0.016841111704707146 0.055750977247953415 -0.09855294972658157 0.2792326509952545 -0.020238736644387245 0.11869955062866211 0.08201856911182404 -0.07700394093990326 -0.2760680317878723 0.059179432690143585 -0.04771425575017929 0.12783557176589966 -0.43256157636642456 -0.16235463321208954 -0.025710804387927055 0.28152090311050415 0.0224542748183012 -0.025382183492183685 0.10626080632209778 0.10878288000822067 -0.07872266322374344 0.20171499252319336 0.010882227681577206 -0.11492972075939178 -0.1716611683368683 0.05892642214894295 -0.061776407063007355 -0.08682557195425034 -0.033268023282289505 0.10682354122400284 -0.06668981909751892 0.1302187442779541 -0.4669612944126129 -0.04920990392565727 -0.32492756843566895 0.11491961777210236 0.1196436658501625 0.20965035259723663 -0.017752401530742645 0.3018706142902374 -0.04892902448773384 0.09515999257564545 -0.08846097439527512 -0.04569588229060173 -2.5967809051508084e-05 -0.1090470626950264 0.034149136394262314 0.2021840214729309 0.05187275633215904 -0.013755298219621181 0.043842632323503494 0.112911157310009 0.0665859580039978
-0.09008581191301346 0.05852462351322174 0.32651466131210327 0.1256255805492401 -0.12895232439041138 -0.07696273922920227 0.05381205677986145 0.16254092752933502 -0.03809754177927971 -0.05523527041077614 -0.19609694182872772 0.1233639270067215 -0.039627812802791595 -0.18818382918834686 0.09344606846570969 -0.15624786913394928 0.13338275253772736 0.12643882632255554 -0.06470674276351929 0.2447366565465927 0.002253179671242833 0.07292924076318741 0.16981558501720428 -0.22926011681556702 0.005815356504172087 0.04298578202724457 -0.07444577664136887 0.03132691979408264 -0.03598097339272499 -0.14853788912296295 -0.22112587094306946 -0.016997089609503746 0.013351595029234886 0.04896781966090202 0.009895180352032185 -0.04871436953544617 0.10705015808343887 0.05833125114440918 0.13875651359558105 -0.33140021562576294 -0.06862026453018188 0.05063178017735481 0.03001987747848034 0.024699993431568146 -0.1414477527141571 -0.07766093313694 -0.05126764625310898 -0.15258921682834625 -0.1701020747423172 0.011852063238620758 -0.017114127054810524 -0.08384434878826141 0.05266323313117027 0.06344091147184372 0.0722767561674118 -0.00473236758261919 0.051133569329977036 0.14625093340873718 -0.0983557254076004 -0.03928285837173462 0.14724673330783844 0.14706626534461975 -0.324578195810318 -0.18089890480041504 -0.06617420166730881 -0.018372002989053726 -0.1491948962211609 0.06939703971147537 0.062017593532800674 -0.0934067890048027 0.22906312346458435 0.1378636211156845 0.09415923058986664 -0.40758687257766724 -0.13674339652061462 0.3127431571483612 0.04004273936152458 0.01220689993351698 -0.21861325204372406 -0.005712807644158602 -0.019749095663428307 -0.09797818958759308 0.0006542400224134326 -0.10063809901475906 -0.01995927095413208 -0.13198259472846985 -0.1265365183353424 0.04182477295398712 0.012243354693055153 0.10922480374574661 -0.07405634969472885 -0.5478736162185669 -0.20531043410301208 -0.3626137971878052 -0.2847645580768585 -0.07762982696294785 0.005109038669615984 0.04317276179790497 0.13879449665546417 -0.05065891891717911 0.03782540559768677 7.073126471368596e-05 0.029186375439167023 0.04090134799480438 -0.09496578574180603 -0.08963258564472198 -0.13867267966270447 0.040638066828250885 0.07645971328020096 0.21390306949615479 -0.07802671939134598 -0.3075205981731415 -0.17567354440689087 -0.07323335856199265 -0.4371689558029175 0.11177949607372284 -0.1262253075838089 -0.14306187629699707 0.22252823412418365 0.14614605903625488 -0.4152894914150238 -0.21234063804149628 0.0867561548948288 -0.1599571704864502 0.12086539715528488 -0.2638694643974304 -0.19510839879512787 -0.06859134137630463
0.03499988093972206 0.11206866055727005 0.18386270105838776 -0.027797922492027283 -0.025421667844057083 -0.09753524512052536 0.14165423810482025 -0.06561966985464096 0.08714663982391357 -0.06467603147029877 0.19684013724327087 0.3387089967727661 -0.13020934164524078 -0.04758971184492111 -0.05492972210049629 -0.1272382140159607 -0.19244280457496643 -0.05867179110646248 0.07320268452167511 -0.0034454602282494307 0.03860608488321304 0.025192203000187874 0.11293195188045502 0.1282397359609604 -0.10674674063920975 -0.006921478547155857 0.08626560121774673 0.020573314279317856 -0.03698991984128952 -0.042108602821826935 0.14966802299022675 -0.14559386670589447 0.07250925898551941 0.030077805742621422 -0.005625945515930653 -0.032989975064992905 0.01969575136899948 -0.480008602142334 0.16209715604782104 -0.2998906373977661 0.07709397375583649 0.09763790667057037 -0.1047639474272728 0.13224369287490845 -0.07073501497507095 0.017666548490524292 -0.16144897043704987 0.04739084094762802 -0.1313779354095459 0.013547150418162346 -0.022871380671858788 -0.01975632831454277 0.018886739388108253 0.05444071441888809 -0.04388979822397232 -0.020178021863102913 -0.02605978213250637 0.08136448264122009 -0.08471759408712387 -0.09682369232177734 0.04271360859274864 -0.0030668049585074186 -0.11814860254526138 -0.24024181067943573 -0.05211206525564194 -0.05956389009952545 0.20963039994239807 -0.004358113277703524 -0.015331492759287357 0.09089089930057526 0.012357671745121479 0.08169836550951004 -0.01572258397936821 -0.15986157953739166 -0.12024053931236267 -0.07862445712089539 -0.04356861487030983 0.03962749242782593 0.044520556926727295 0.3567070960998535 -0.07792612165212631 0.10242150723934174 -0.02468291111290455 0.13997624814510345 0.04793797433376312 -0.2913582921028137 -0.04752936214208603 0.11736563593149185 0.008017863146960735 -0.04686779901385307 0.11998303979635239 -0.13978853821754456 -0.274882048368454 -0.3682045638561249 -0.07887112349271774 -0.2549721598625183 -0.039937280118465424 0.0901259183883667 -0.09504090249538422 0.1041494831442833 0.08954671770334244 -0.044972483068704605 0.01385288406163454 -0.04512406140565872 -0.42794108390808105 0.006962873972952366 -0.2018899768590927 0.03643433377146721 0.0509052500128746 -0.2347005158662796 -0.12577876448631287 -0.13107657432556152 0.03175682574510574 0.1292552500963211 0.36854997277259827 0.08021747320890427 0.07886315882205963 -0.31404954195022583 0.12521715462207794 -0.017406264320015907 -0.04230214282870293 0.13802354037761688 0.07145731896162033 0.08886032551527023 -0.16497249901294708 -0.02047593705356121 0.06085998937487602 -0.05491297319531441
-0.07902251183986664 0.0640607476234436 0.02524939738214016 0.03786805272102356 0.05336257442831993 -0.25312289595603943 0.14103370904922485 0.015524334274232388 0.11284688860177994 0.004079415928572416 0.03907080367207527 0.01449535321444273 0.03073754534125328 -0.1553676277399063 -0.2169988602399826 -0.132015198469162 -0.131703183054924 -0.1035466343164444 0.006235186476260424 0.03575194627046585 0.16150416433811188 0.2234991490840912 -0.19444702565670013 0.19078601896762848 -0.030293099582195282 -0.14952269196510315 -0.06993674486875534 -0.16869723796844482 -0.03070385567843914 -0.17565172910690308 0.053952619433403015 -0.14945058524608612 -0.05193408206105232 -0.005154591053724289 -0.00905720517039299 0.11145709455013275 0.09143933653831482 -0.08809623122215271 -0.08579575270414352 -0.02126591093838215 0.003733512945473194 0.17403791844844818 -0.02529919706285 0.006796589586883783 -0.2512684762477875 -0.09643873572349548 0.033774107694625854 -0.03751714527606964 0.042104192078113556 -0.09083837270736694 0.003993656951934099 -0.3061511814594269 0.05434991046786308 -0.06750282645225525 -0.028923969715833664 -0.08647559583187103 -0.03870934247970581 0.18107686936855316 -0.024500273168087006 -0.05081374570727348 -0.08692564070224762 0.16176296770572662 -0.10886578261852264 -0.0796022042632103 -0.008870462886989117 -0.020571133121848106 -0.05473228171467781 -0.29378047585487366 -0.12487881630659103 0.0012355581857264042 -0.01907125860452652 -0.5048650503158569 -0.13855956494808197 -0.10218235850334167 0.009073052555322647 -0.03282115235924721 -0.2691400945186615 0.04579286277294159 -0.4890078902244568 -0.05303825065493584 0.18867938220500946 0.024630585685372353 0.18451742827892303 -0.3983023464679718 0.16631241142749786 0.15148411691188812 0.08180123567581177 -0.04866087809205055 0.004357136785984039 -0.12069907039403915 -0.6002067923545837 0.2690832018852234 0.2014499306678772 -0.05733622610569 -0.04533985257148743 0.14745071530342102 -0.029235804453492165 -0.08782505989074707 -0.07042010873556137 0.39778557419776917 0.038279663771390915 0.021249709650874138 -0.0453437902033329 0.04427637159824371 0.008810173720121384 -0.09997452050447464 -0.011568516492843628 -0.1519034504890442 -0.01231076754629612 -0.4788925051689148 -0.25351253151893616 -0.0032686316408216953 -0.15158745646476746 0.0010716569377109408 0.046080514788627625 0.004969664849340916 -0.0011196883860975504 0.10833540558815002 -0.015486725606024265 0.04973306879401207 -0.06593986600637436 0.24158689379692078 0.12330169230699539 -0.04821757227182388 -0.20442838966846466 -0.45741376280784607 -0.05061349272727966 0.08926462382078171
0.03584675490856171 -0.10238701105117798 -0.1610272079706192 -0.33602234721183777 0.04661979526281357 -0.17017613351345062 0.22080589830875397 -0.12562932074069977 -0.11296558380126953 -0.0068304892629384995 0.21984288096427917 -0.0544721893966198 -0.24067699909210205 0.10656367987394333 -0.019101234152913094 -0.027880530804395676 -0.1880926787853241 -0.4671178162097931 0.15639007091522217 -0.040988631546497345 -0.13793201744556427 0.1953936666250229 -0.0052008419297635555 0.21899817883968353 0.07153187692165375 0.03372708335518837 -0.08754449337720871 -0.2391463667154312 -0.17050893604755402 -0.03966985270380974 0.09742697328329086 -0.028694316744804382 0.03451519086956978 0.03181687742471695 -0.02964700572192669 -0.011251648887991905 -0.15670014917850494 -0.18884772062301636 0.10504132509231567 -0.09369250386953354 -0.1530185490846634 -0.07797233760356903 -0.006300805602222681 -0.32610857486724854 -0.12835685908794403 0.04988791421055794 -0.11643072217702866 -0.3643318712711334 -0.37353065609931946 -0.3611985445022583 -0.047720469534397125 0.025146419182419777 0.017565814778208733 -0.034459684044122696 0.05028709024190903 0.05113895237445831 0.24187040328979492 -0.0461103729903698 0.04082734137773514 0.043481841683387756 0.02168308198451996 -0.12645535171031952 0.20229288935661316 0.18507935106754303 0.04135820269584656 -0.14818471670150757 0.04270351678133011 -0.3897627592086792 0.030319448560476303 0.19456630945205688 -0.10901625454425812 -0.147288978099823 0.09167981892824173 -0.2331043928861618 -0.04519307613372803 0.03323584049940109 -0.20967161655426025 0.07031182944774628 0.11983896046876907 -0.008781288750469685 0.07695964723825455 0.2938326299190521 0.18298092484474182 -0.00922316499054432 0.14681611955165863 -0.09394281357526779 0.44999960064888 -0.1316995918750763 -0.33874088525772095 -0.4724430441856384 0.09398007392883301 -0.04330296814441681 0.0395851768553257 -0.020686926320195198 -0.14099253714084625 -0.25298255681991577 0.14178837835788727 0.14295203983783722 -0.11547516286373138 0.008454985916614532 -0.06762736290693283 -0.02884839102625847 0.029218923300504684 -0.03777178376913071 -0.026300419121980667 0.14166687428951263 0.16525667905807495 0.08878853172063828 -0.17283780872821808 -0.4190625250339508 -0.29159480333328247 0.04137204959988594 0.0926797091960907 -0.012969812378287315 -0.07818257808685303 -0.8066314458847046 0.04489990323781967 -0.2716533839702606 0.03305671364068985 0.06334324181079865 -0.15961912274360657 0.13531593978405 0.1657325029373169 -0.06791673600673676 0.04790911078453064 -0.1313241869211197 -0.05495148524641991 0.046375032514333725
-0.03291581943631172 -0.05486810579895973 -0.3190518319606781 -0.4007835388183594 0.022729352116584778 0.23941966891288757 0.14253973960876465 0.04697578027844429 -0.15252238512039185 -0.03364166244864464 0.03549282252788544 -0.6495727896690369 0.12500327825546265 -0.0633530542254448 -0.5257452130317688 -0.11484020948410034 -0.14479218423366547 0.18818022310733795 0.05205894634127617 -0.30327409505844116 0.17866913974285126 0.09212423115968704 -0.031419772654771805 -0.16863352060317993 0.06402840465307236 0.10451430827379227 -0.01422774139791727 -0.031040074303746223 -0.2327873855829239 -0.35672178864479065 0.19671322405338287 -0.10050807148218155 -0.04335785657167435 0.06433670222759247 0.03165682032704353 0.034602586179971695 0.17961379885673523 0.027825256809592247 0.1250365674495697 0.12836430966854095 0.1166333556175232 0.008201000280678272 0.1185045838356018 -0.22977715730667114 -0.06971390545368195 0.13728979229927063 -0.008637195453047752 -0.029936637729406357 -0.19204184412956238 -0.15826132893562317 -0.1344674974679947 -0.045412201434373856 -0.03997292369604111 0.10012589395046234 -0.05497998371720314 0.01866423338651657 -0.060164328664541245 0.01620689406991005 -0.10169031471014023 -0.1730506420135498 -0.03968845680356026 -0.05689018592238426 -0.2912563979625702 -0.25643837451934814 0.018461259081959724 -0.09876759350299835 0.14372137188911438 -0.028221283107995987 0.19361203908920288 0.04343922808766365 -0.36617326736450195 -0.32189440727233887 -0.0893619954586029 -0.07359303534030914 0.12530730664730072 0.13901019096374512 0.22716990113258362 0.04152478277683258 0.07459494471549988 -0.05941899120807648 0.03313162922859192 0.027532115578651428 -0.07060592621564865 0.17760485410690308 -0.0033126715570688248 -0.026180004701018333 -0.033139877021312714 0.049084123224020004 -0.13629543781280518 -0.016859469935297966 -0.0004021827189717442 0.12441103160381317 -0.07176472991704941 0.1118430569767952 0.1420694887638092 -0.08058945089578629 -0.003037441289052367 0.11547121405601501 -0.22396491467952728 0.18032841384410858 0.03248199447989464 -0.03137657046318054 -0.06566128134727478 -0.04632509872317314 -0.004126721061766148 0.2697078287601471 0.037288326770067215 0.07154839485883713 -0.32319313287734985 0.21247845888137817 0.031015262007713318 -0.4111570119857788 -0.37743523716926575 -0.04267077147960663 0.024067113175988197 -0.43126580119132996 0.09035731852054596 0.09403865039348602 -0.15564168989658356 -0.8032620549201965 -0.5333064198493958 -0.3258827328681946 -0.029555125162005424 -0.08530908823013306 -0.0501868911087513 0.08287603408098221 0.10609553754329681 0.0623677633702755
-0.0831679031252861 0.13149972259998322 0.09015758335590363 -0.19347243010997772 0.08992024511098862 -0.26744553446769714 0.09824100881814957 -0.10987666249275208 -0.018463553860783577 -0.027464382350444794 -0.19409307837486267 -0.18928328156471252 -0.00021501707669813186 0.010164376348257065 -0.030409909784793854 0.011953148059546947 0.11076396703720093 0.06223202869296074 0.16583456099033356 0.030187897384166718 0.13509903848171234 0.13400395214557648 -0.1393110156059265 -0.009931975975632668 -0.10212177038192749 -0.17605707049369812 -0.10776229947805405 -0.17689457535743713 0.27573680877685547 -0.20123019814491272 -0.010724253952503204 -0.030522029846906662 0.07174193114042282 -0.018890338018536568 0.0786384716629982 0.023312631994485855 -0.049131158739328384 0.09924212843179703 0.023601101711392403 0.10185753554105759 -0.2356579303741455 0.00577985355630517 -0.03335503861308098 -0.02971460297703743 -0.22250638902187347 0.01831364817917347 0.010847671888768673 -0.13874201476573944 0.09560935944318771 -0.04153798148036003 0.06817124783992767 -0.005636949557811022 0.037728771567344666 -0.011411068961024284 -0.0005107671022415161 -0.06306509673595428 -0.6661568880081177 0.07493624836206436 0.0628587007522583 0.05474291741847992 -0.0064063528552651405 0.0905868411064148 -0.22829359769821167 0.17954736948013306 0.03065536729991436 -0.04469126835465431 0.19192415475845337 -0.224704772233963 0.17524679005146027 0.05988340824842453 -0.019089974462985992 0.0066209654323756695 -0.019676074385643005 0.10818994790315628 0.2483360916376114 0.12216445803642273 -0.5628334879875183 0.026564504951238632 -0.04818296059966087 -0.13879910111427307 -0.6231678128242493 -0.10413047671318054 -0.10769776254892349 -0.48549577593803406 -0.06529045104980469 -0.277946799993515 -0.12526835501194 -0.21110451221466064 -0.14980961382389069 0.04396754503250122 0.03293929994106293 0.2068919688463211 -0.026168284937739372 0.05985129624605179 0.1552996188402176 0.05624447017908096 -0.015981828793883324 -0.2560115158557892 0.047007005661726 -0.21372643113136292 -0.045865315943956375 0.018839195370674133 -0.08382517844438553 0.03242013230919838 -0.7931399345397949 -0.6317499876022339 -0.1366216540336609 -0.3512445092201233 0.01980796456336975 0.08426617830991745 0.2175978571176529 0.04630965739488602 -0.3689688444137573 -0.00236841244623065 -0.022762129083275795 -0.0008585370378568769 0.09690932929515839 -0.20686344802379608 0.2267087996006012 0.054424889385700226 -0.43174633383750916 -0.15627317130565643 -0.08716941624879837 0.05759609863162041 -0.18768472969532013 -0.03930748626589775 0.029507840052247047 -0.010258606635034084
-0.1325465440750122 0.016038650646805763 -0.18213151395320892 0.011461008340120316 -0.047793466597795486 0.05591505393385887 0.09880265593528748 0.04467059299349785 -0.0031323882285505533 0.03156016394495964 -0.04018181189894676 -0.18473465740680695 -0.10010111331939697 0.05766337364912033 0.08474734425544739 0.23861466348171234 -0.023498138412833214 0.017285937443375587 -0.0016990398289635777 -0.09156064689159393 -0.029756708070635796 0.01641867123544216 0.10975437611341476 0.10362935811281204 0.007143224123865366 -0.08696722239255905 0.06682667136192322 -0.10918506979942322 0.026632411405444145 0.046309005469083786 -0.20092305541038513 -0.05718957632780075 -0.013032661750912666 -0.08340214192867279 0.053509440273046494 -0.04071594029664993 0.19672881066799164 0.030626479536294937 0.2878328263759613 -0.07246067374944687 -0.22739757597446442 0.04621119797229767 0.1288873255252838 -0.06962550431489944 -0.18502357602119446 0.03589731827378273 -0.06170197203755379 0.002065615961328149 0.1589030772447586 -0.11920686811208725 -0.21676166355609894 0.03955206274986267 -0.03325153514742851 0.015633385628461838 -0.030265968292951584 0.01439526118338108 -0.14900057017803192 0.09574754536151886 -0.1412239521741867 -0.07347684353590012 -0.016685014590620995 -0.06799852102994919 -0.1824207454919815 -0.22421801090240479 -0.15313366055488586 -0.11199655383825302 -0.22704024612903595 0.33355289697647095 -0.09104570746421814 0.01780320517718792 0.19822993874549866 -0.28651195764541626 -0.10418127477169037 -0.03272759169340134 0.06676752865314484 -0.011086919344961643 -0.189345121383667 -0.00884079746901989 0.14227397739887238 -0.06023402139544487 0.0342230498790741 -0.09644974768161774 -0.10734745860099792 0.30455756187438965 -0.050828877836465836 0.13676407933235168 -0.10693743824958801 -0.11195158958435059 0.22408618032932281 0.015811650082468987 0.15681242942810059 0.06659712642431259 0.09708739072084427 0.018623022362589836 0.03633495792746544 0.05093516781926155 -0.14230382442474365 -0.2290870100259781 -0.3522875905036926 0.4124091863632202 -0.046710919588804245 -0.09595132619142532 0.056042999029159546 -0.027676044031977654 -0.12503588199615479 -0.06276863068342209 0.1749752163887024 0.14785870909690857 -0.129420667886734 0.221199169754982 0.04229345917701721 -0.01871182769536972 -0.35168319940567017 -0.0014919060049578547 -0.07893053442239761 -0.14093123376369476 0.09195459634065628 0.19721172749996185 -0.18011435866355896 -0.13666722178459167 0.10098349303007126 0.10562613606452942 -0.013916470110416412 -0.12866941094398499 -0.2470710426568985 0.11770948022603989 0.06472760438919067 -0.04045451432466507
0.022322548553347588 -0.027342164888978004 0.39978551864624023 -0.3152080774307251 0.04152919724583626 -0.04318543151021004 -0.189410999417305 -0.06500252336263657 0.05268282815814018 0.04469134658575058 -0.09110265970230103 -0.32096022367477417 0.01983913965523243 -0.135733500123024 -0.035573091357946396 0.08989840000867844 -0.016468072310090065 -0.15178853273391724 0.04686950147151947 0.005855380557477474 -0.06050345301628113 -0.28563711047172546 0.005743461195379496 0.12972137331962585 0.06018432602286339 0.06574250757694244 -0.08276421576738358 -0.09737518429756165 -0.11182264238595963 0.2148684561252594 0.009862050414085388 -0.009531475603580475 0.043124474585056305 -0.026751389726996422 -0.09945707768201828 -0.0116898687556386 0.05695047229528427 -0.24442249536514282 0.05430792272090912 -0.31720098853111267 0.001943202456459403 -0.14346440136432648 0.040561702102422714 0.04479672759771347 -0.050905704498291016 0.03417999669909477 -0.07070686668157578 -0.08520064502954483 -0.09114792197942734 -0.101128950715065 0.18156491219997406 -0.05517277866601944 0.07598061114549637 0.0383002795279026 -0.05388828366994858 -0.05728898197412491 0.16036756336688995 -0.06624006479978561 0.0326225608587265 -0.12651555240154266 0.1747158020734787 -0.14931000769138336 -0.035942040383815765 0.029684480279684067 -0.047774624079465866 -0.1055014505982399 -0.01984814554452896 -0.3217737674713135 0.026698507368564606 0.2318722903728485 -0.0698581263422966 -0.05640998110175133 -0.0006299496744759381 -0.020984677597880363 0.07905113697052002 -0.2683868408203125 0.11230580508708954 -0.11927808821201324 -0.13192759454250336 -0.055761002004146576 -0.020928282290697098 0.2444746494293213 0.06808662414550781 0.04888298735022545 -0.05566885322332382 -0.30849969387054443 -0.01451363880187273 0.2571496069431305 0.18143072724342346 -0.47324055433273315 -0.004798328969627619 0.1507648080587387 -0.11780326813459396 -0.0537421777844429 0.07131153345108032 0.27682796120643616 0.04147052764892578 0.2801087498664856 0.015847092494368553 -0.1125466600060463 0.09354887902736664 0.06182855740189552 -0.03454931825399399 -0.06665804982185364 -0.17289653420448303 0.14762893319129944 -0.018432484939694405 -0.14332346618175507 -0.1209605410695076 -0.3115704357624054 -0.028720539063215256 0.046903278678655624 0.08604118973016739 0.036656904965639114 0.05266747996211052 -0.13001322746276855 0.013653288595378399 -0.001599496346898377 -0.004445304162800312 0.014742409810423851 0.13492386043071747 0.1300922930240631 -0.018086574971675873 -0.033869098871946335 -0.006191435735672712 0.018947819247841835 -0.09067758917808533 -0.14361540973186493
0.009007838554680347 0.007106591481715441 -0.0381103977560997 0.24131695926189423 0.012333282269537449 0.030429121106863022 0.03341153636574745 0.08130887150764465 0.014457333832979202 -0.03488853946328163 -0.015066010877490044 -0.3401380181312561 0.17056387662887573 -0.007088353391736746 0.12953218817710876 0.027213046327233315 0.044523488730192184 0.02434976026415825 -0.12423588335514069 0.06192469969391823 -0.06055891141295433 -0.31131839752197266 -0.015487832017242908 -0.01673995889723301 0.013943458907306194 -0.3287326693534851 0.1779700666666031 -0.12447009235620499 0.04617428779602051 -0.19891048967838287 0.0088338702917099 -0.11150329560041428 -0.017008744180202484 0.03431273624300957 0.04371420666575432 -0.03655542805790901 -0.02044716291129589 0.14821018278598785 -0.04639318957924843 0.2211461067199707 -0.1398150622844696 -0.3779629170894623 0.06476592272520065 0.13934360444545746 0.023576393723487854 -0.3138341009616852 -0.06281893700361252 0.10988914966583252 0.04886271804571152 -0.17799697816371918 0.2152135670185089 -0.16304147243499756 0.0834769755601883 -0.002007185248658061 -0.03366285562515259 -0.002436884678900242 -0.00375026254914701 -0.1815325766801834 0.04357784241437912 -0.21211054921150208 -0.21408753097057343 -0.17291070520877838 0.1670476496219635 0.06070106104016304 -0.015199531801044941 -0.06245718151330948 0.07491712272167206 -0.12543945014476776 0.06761721521615982 -0.11347555369138718 0.04059384763240814 -0.26460811495780945 0.1388336420059204 -0.006497205700725317 0.08942081779241562 0.13845442235469818 0.02441362850368023 -0.10103937238454819 0.035653140395879745 -0.14810259640216827 -0.04325106739997864 -0.6809470653533936 -0.02132112719118595 -0.14896097779273987 -0.062089115381240845 -0.17943277955055237 -0.0052428836934268475 0.21313698589801788 -0.08030744642019272 0.009841511957347393 0.12647829949855804 0.12942537665367126 -0.06219741329550743 0.23628558218479156 0.09015341103076935 0.146304190158844 0.2133198082447052 0.11157108098268509 0.07560674846172333 -0.2084837108850479 -0.016560908406972885 0.07563852518796921 -0.08271580934524536 0.01126474142074585 0.17488029599189758 -0.13449418544769287 -0.06995484977960587 -0.07173104584217072 0.0774097815155983 -0.2682766020298004 -0.011299456469714642 0.007554971147328615 0.10042860358953476 0.106273353099823 -0.02241026982665062 -0.039877939969301224 0.10661077499389648 0.06190818175673485 0.1198611855506897 -0.10409899801015854 0.3009481728076935 -0.20255328714847565 0.11905395984649658 -0.14685724675655365 -0.0082848584279418 -0.19590170681476593 0.09869057685136795 -0.012502254918217659
0.09156626462936401 -0.18206675350666046 0.043403252959251404 -0.5155303478240967 0.04251430928707123 0.004575085826218128 0.05306129530072212 0.10235559195280075 -0.001165167079307139 -0.09343752264976501 -0.1767144501209259 0.01585266925394535 -0.03072628751397133 0.11808603256940842 -0.0569145530462265 0.09497303515672684 -0.29445749521255493 -0.015209496952593327 -0.07815118134021759 -0.07857383787631989 0.11195310205221176 0.10877421498298645 0.07077749073505402 0.07672367244958878 0.026686757802963257 0.02586963027715683 0.0192923191934824 -0.17358112335205078 -0.08921050280332565 0.1622943878173828 -0.07605810463428497 0.09138769656419754 -0.08962734043598175 -0.04292885214090347 -0.11000224947929382 -0.005313592031598091 -0.017732026055455208 -0.49579018354415894 0.12859173119068146 -0.12749332189559937 0.0757731944322586 -0.12180576473474503 0.04819447919726372 0.04743439704179764 0.11592024564743042 0.12112557142972946 -0.037336330860853195 -0.06805109232664108 -0.14715196192264557 -0.3424713909626007 -0.26243653893470764 -0.06143235042691231 -0.06051507592201233 -0.02540958672761917 -0.056730858981609344 -0.04813620075583458 0.04422024264931679 -0.0031539814081043005 -0.1119387224316597 -0.045207392424345016 -0.22449348866939545 -0.23561982810497284 -0.16720207035541534 -0.16390450298786163 0.051132965832948685 -0.14956539869308472 -0.3960213363170624 -0.1364865005016327 0.11687561869621277 0.03863760456442833 -0.05573344603180885 0.031056299805641174 0.0802074447274208 0.028908273205161095 0.0006176884635351598 -0.14731153845787048 0.12427868694067001 0.09610852599143982 0.02173316664993763 0.05927935987710953 -0.1713145524263382 -0.016591006889939308 0.048169128596782684 0.05289371684193611 -0.01985812745988369 -0.22438101470470428 -0.14925459027290344 0.24041812121868134 0.04616007208824158 0.1457993984222412 0.015436744317412376 0.05961127206683159 0.022591030225157738 -0.0759103074669838 -0.015565985813736916 -0.1828494668006897 -0.38582104444503784 0.12342723459005356 0.23110473155975342 -0.2326056808233261 -0.07658008486032486 -0.040758442133665085 -0.010724538937211037 -0.06744245439767838 -0.06170909106731415 0.09415778517723083 0.18336452543735504 0.0684933066368103 -0.09342191368341446 0.18443061411380768 0.00500639621168375 0.10648705810308456 0.01594744250178337 -0.013159946538507938 -0.07706355303525925 0.24127314984798431 0.11137255281209946 -0.11672860383987427 0.0007924613310024142 -0.006595076527446508 -0.14588430523872375 -0.03154640272259712 -0.015975510701537132 0.028136391192674637 0.10680849850177765 0.12861432135105133 0.14216718077659607 -0.30258631706237793
-0.05096102133393288 0.055776480585336685 -0.001706165843643248 -0.17337951064109802 -0.03899802640080452 -0.025877008214592934 -0.6387509703636169 -0.06476078182458878 -0.04769580438733101 0.04039973393082619 -0.06716710329055786 -0.08254705369472504 0.05104145035147667 0.055107299238443375 -0.021667616441845894 -0.07966836541891098 0.07751405984163284 -0.13569959998130798 -0.24947239458560944 -0.3134153485298157 0.14325062930583954 0.012401451356709003 0.02442941442131996 0.008985152468085289 -0.041830871254205704 -0.08874078840017319 -0.15783928334712982 0.18370933830738068 0.039438530802726746 -0.1162443682551384 0.13865415751934052 -0.0571284256875515 -0.07325824350118637 0.04859819635748863 -0.02528565749526024 -0.020964687690138817 0.22258104383945465 -0.01229527685791254 0.050587236881256104 0.0099984435364604 0.03087342344224453 -0.05396303907036781 -0.171757310628891 0.031595148146152496 -0.021735111251473427 -0.059155818074941635 -0.29918307065963745 -0.6305308938026428 -0.1491720974445343 0.05545194074511528 0.06768384575843811 0.0907599925994873 0.08636900782585144 0.08459871262311935 0.021598899737000465 0.03752725571393967 0.03945489600300789 0.07456985861063004 0.008862406015396118 -0.012534596025943756 0.05362686887383461 0.028317227959632874 -0.025432759895920753 0.016987698152661324 0.01650834083557129 0.02896515652537346 -0.04600583016872406 -0.7663738131523132 0.0647820234298706 0.10576725751161575 0.053375884890556335 0.17889566719532013 -0.024774136021733284 0.07586068660020828 -0.27348950505256653 0.0031497322488576174 0.08567003160715103 0.012523453682661057 0.0012663897359743714 -0.10873683542013168 0.018034419044852257 0.010863563045859337 -0.00651146424934268 0.021013321354985237 0.19698470830917358 0.02803174778819084 0.14610597491264343 -0.2777920365333557 -0.09678629785776138 0.06536425650119781 -0.14654211699962616 -0.22454501688480377 -0.2571635842323303 0.0320853628218174 0.0014954303624108434 -0.15872721374034882 0.13437692821025848 0.11861451715230942 0.058402448892593384 -0.020637691020965576 -0.0373726561665535 0.05130279064178467 0.05072891339659691 -0.030583621934056282 -0.11653011292219162 0.008660833351314068 -0.09560281038284302 -0.046781428158283234 -0.06659846752882004 -0.10182180255651474 0.004642620217055082 -0.44758859276771545 -0.32147490978240967 -0.005120816174894571 -0.09870098531246185 -0.18626713752746582 -0.00902925617992878 0.05961868539452553 0.18990086019039154 -0.01930665597319603 -0.24559053778648376 -0.09113331884145737 0.17130178213119507 0.08091098815202713 -0.04149239510297775 0.030245935544371605 -0.04918700456619263 -0.023122556507587433
0.00922511424869299 0.12103701382875443 -0.007200966589152813 -0.5500355958938599 0.05456090345978737 0.11662328988313675 -0.0019753507804125547 -0.18795636296272278 0.043945588171482086 -0.023170555010437965 -0.042368508875370026 -0.016681089997291565 0.12245524674654007 -0.17719495296478271 -0.049210432916879654 -0.09987049549818039 -0.054266829043626785 -0.15820643305778503 0.06327616423368454 0.08153484016656876 0.14764486253261566 -0.1582448035478592 0.03809955716133118 -0.06220986694097519 0.04010767862200737 0.010711080394685268 0.06251592189073563 -0.07288762927055359 0.13471664488315582 0.028583701699972153 0.188344806432724 0.15481485426425934 0.07394518703222275 0.03515613451600075 0.045433346182107925 0.07813604176044464 0.002681707264855504 -0.323656290769577 0.06916569173336029 -0.03353293612599373 -0.019442221149802208 0.012806565500795841 0.008335496298968792 -0.3211316764354706 0.07757817953824997 -0.02967577613890171 -0.1017165556550026 -0.2021593600511551 0.009154180996119976 -0.10743079334497452 -0.08574330806732178 0.134647399187088 0.05142073333263397 -0.04501212388277054 -0.020519614219665527 0.03956412896513939 0.01102692261338234 0.008742651902139187 -0.027730563655495644 -0.04675133526325226 0.010914912447333336 -0.01916641928255558 0.11444059014320374 0.09897351264953613 0.09303801506757736 0.09070165455341339 -0.44846537709236145 -0.6367673277854919 0.0746278315782547 -0.06105517968535423 -0.08845227211713791 0.2445136457681656 0.009175621904432774 -0.04672062397003174 -0.0883881226181984 -0.22301457822322845 -0.12656451761722565 -0.03462926298379898 0.05671457573771477 -0.01968580111861229 0.03096347115933895 -0.017539480701088905 -0.021569853648543358 -0.0124757569283247 -0.1134999692440033 -0.10819858312606812 -0.04751475527882576 -0.5776522755622864 -0.3117699921131134 -0.4096899628639221 -0.17717432975769043 -0.1843993216753006 -0.017597226426005363 0.1686226725578308 -0.0613618902862072 -0.5341269373893738 0.019071130082011223 0.14747917652130127 0.11588811129331589 0.01321359071880579 0.04037758335471153 -0.028096139430999756 0.0930585116147995 0.011387069709599018 0.06913573294878006 -0.027891473844647408 0.18861068785190582 -0.05849527195096016 -0.07915868610143661 -0.4012434482574463 -0.03374987840652466 0.13487651944160461 -0.060982540249824524 0.10409996658563614 0.08174167573451996 0.1086355596780777 0.09757392853498459 -0.1751897633075714 -0.04461637884378433 -0.13704146444797516 -0.01224503107368946 0.056511133909225464 0.24849727749824524 0.07438067346811295 0.15900620818138123 0.3667268753051758 0.11986547708511353 -0.12748341262340546
-0.016253169625997543 -0.28197261691093445 0.22637666761875153 0.2354872077703476 -0.05354955047369003 0.17318183183670044 0.1945696771144867 -0.0984342023730278 0.04902298003435135 0.03390229865908623 -0.15055523812770844 -0.15350720286369324 -0.09548387676477432 0.132558211684227 0.025085194036364555 0.0610969178378582 0.08767779916524887 0.27878379821777344 0.10162388533353806 0.3179740011692047 -0.07696156203746796 0.2350350171327591 -0.04452839493751526 -0.4051099419593811 0.06863503158092499 -0.030754433944821358 -0.2866922914981842 0.18407639861106873 -0.060519132763147354 -0.16083954274654388 -0.22594565153121948 -0.03979400545358658 0.06417011469602585 -0.01256298366934061 0.029338806867599487 -0.042366549372673035 0.18341076374053955 -0.10592734813690186 -0.08040418475866318 0.049051616340875626 0.11656572669744492 0.11212420463562012 -0.5596227645874023 0.035134293138980865 0.03465433418750763 0.014054816216230392 -0.07001859694719315 0.008737788535654545 0.07201351970434189 -0.1332993060350418 -0.07464390993118286 0.2039857804775238 -0.027643127366900444 0.06429427862167358 0.0665602833032608 -0.07186903059482574 0.08249474316835403 -0.019808704033493996 -0.11651510000228882 -0.1060088500380516 -0.08274579793214798 -0.05536246299743652 0.18360379338264465 0.05731085687875748 -0.002752358792349696 0.06626760959625244 -0.17261289060115814 -0.10352326184511185 0.027398819103837013 -0.01541263610124588 -0.22161735594272614 -0.21306748688220978 0.1840316355228424 -0.09837375581264496 -0.0823630541563034 -0.008416429162025452 -0.05218112841248512 0.037850916385650635 -0.11207865923643112 -0.1031067967414856 -0.016977837309241295 0.024096423760056496 -0.11222002655267715 -0.0019714387599378824 0.07510070502758026 -0.06300569325685501 -0.2715907394886017 -0.08432340621948242 -0.16565874218940735 0.023092105984687805 -0.29269644618034363 0.09708879142999649 0.008307423442602158 0.052444830536842346 -0.036908913403749466 0.19372141361236572 -0.03718331456184387 -0.027909191325306892 -0.13361355662345886 -0.16982446610927582 -0.06660749763250351 -0.02779318206012249 -0.046400222927331924 -0.037906352430582047 0.07219982892274857 -0.10693684220314026 -0.33804580569267273 -0.1475733369588852 -0.06419217586517334 0.27647924423217773 0.06098328158259392 -0.07842709124088287 -0.1210479587316513 -0.025755377486348152 -0.07135714590549469 0.061897583305835724 -0.112392358481884 -0.1787908673286438 0.11644888669252396 -0.14033673703670502 -0.14039355516433716 -0.17594335973262787 -0.32464703917503357 -0.0031532051507383585 0.1775287687778473 0.05567026510834694 -0.14188213646411896 0.06973530352115631
-0.029148027300834656 -0.044662803411483765 -0.19725747406482697 -0.13020341098308563 -0.20829838514328003 -0.28645408153533936 -0.3419758975505829 -0.050438039004802704 0.03216473013162613 -0.08187073469161987 0.11092118918895721 0.011936930939555168 0.22134070098400116 -0.11624427884817123 -0.12216562777757645 -0.1431048959493637 0.0511036179959774 0.1378418654203415 -0.0578031949698925 0.03739412501454353 0.24337098002433777 -0.08501043170690536 0.11367712914943695 0.15702979266643524 -0.044223833829164505 0.20088183879852295 0.016788961365818977 -0.03740128129720688 -0.13308176398277283 0.008063392713665962 0.20410923659801483 -0.12749822437763214 -0.03948486968874931 0.08200052380561829 0.01803375408053398 -0.048390284180641174 0.28233975172042847 0.12152297049760818 0.06607124954462051 -0.015631647780537605 -0.06714266538619995 -0.01531438622623682 -0.1134968101978302 0.11693199723958969 -0.13144508004188538 -0.3243106007575989 -0.1777527779340744 -0.10840382426977158 -0.18723589181900024 0.06638599932193756 -0.011324484832584858 0.31722697615623474 0.02363654226064682 -0.03734733909368515 0.038947563618421555 0.02241545356810093 -0.07239486277103424 -0.11974795162677765 0.1074150800704956 0.06933615356683731 0.13110218942165375 0.13409803807735443 -0.052009232342243195 0.04847622662782669 -0.011250508949160576 -0.12729288637638092 -0.2514556050300598 0.16112767159938812 -0.09169875085353851 -0.04639751836657524 -0.028277000412344933 0.062463000416755676 -0.5307493805885315 -0.019391069188714027 -0.25443515181541443 0.061913155019283295 0.06543856859207153 -0.0517757385969162 0.26601845026016235 0.16912847757339478 0.2214198112487793 0.12166467308998108 -0.0012014951789751649 0.16583013534545898 0.21448566019535065 0.24727515876293182 0.1667620986700058 0.057034168392419815 0.07675613462924957 -0.05888890475034714 -0.12543600797653198 -0.21048875153064728 -0.10492966324090958 0.010619474574923515 -0.07584334164857864 0.014752840623259544 -0.05327914282679558 -0.001429295283742249 0.0320730060338974 -0.09467674046754837 -0.031575821340084076 0.05838720127940178 -0.07901159673929214 -0.009802281856536865 0.0031718830578029156 -0.027104362845420837 -0.22318246960639954 -0.2762255370616913 -0.1897030621767044 -0.040128160268068314 0.061785388737916946 0.07995656877756119 0.09239577502012253 -0.08972515165805817 -0.12688441574573517 -0.09099053591489792 0.24161919951438904 0.2031121850013733 -0.07403266429901123 0.13226179778575897 0.09198842942714691 0.1684378832578659 0.06355571746826172 -0.06911517679691315 -0.27692246437072754 -0.03408278524875641 -0.03910406306385994 -0.09064702689647675
-0.18988464772701263 -0.054260410368442535 -0.05255464091897011 -0.005821017548441887 -0.32477813959121704 0.041557494550943375 -0.06843864172697067 0.18610993027687073 0.04748639464378357 -0.018066737800836563 0.022126752883195877 -0.13659873604774475 -0.08321228623390198 -0.05581304430961609 -0.12391778826713562 -0.002998495241627097 0.25794023275375366 0.06842414289712906 -0.08488830924034119 -0.13549719750881195 0.048104286193847656 0.07197832316160202 0.07152813673019409 -0.3141123950481415 -0.1817028671503067 -0.2292700707912445 0.08999252319335938 0.028725706040859222 0.10960167646408081 0.08706787973642349 -0.0790456086397171 0.21497474610805511 -0.021569736301898956 0.04504645615816116 0.0040055206045508385 -0.03835771605372429 0.1156279519200325 0.10465765744447708 0.12426777929067612 0.45380377769470215 -0.24803279340267181 -0.00537485396489501 0.16811051964759827 -0.0013686669990420341 -0.35175952315330505 -0.15522661805152893 -0.05072503536939621 -0.1522376835346222 -0.023553946986794472 0.08566699177026749 -0.057999130338430405 -0.1046910434961319 -0.08662176877260208 -0.05244513601064682 -0.06635906547307968 0.01576698012650013 -0.37821146845817566 -0.18026714026927948 0.008306148461997509 0.02262062393128872 0.13454043865203857 0.1927543580532074 -0.15662235021591187 0.047134362161159515 -0.14895746111869812 -0.07091578096151352 -0.08174141496419907 0.04561486095190048 -0.051486268639564514 -0.09789050370454788 0.3739956021308899 0.061312172561883926 -0.36034131050109863 -0.24849648773670197 -0.06240295618772507 0.06128333881497383 -0.2094789445400238 -0.00805732049047947 -0.15244212746620178 -0.03934438154101372 -0.458251029253006 -0.10373622179031372 -0.1101733148097992 -0.2599865198135376 -0.034697674214839935 -0.1001703292131424 -0.23508232831954956 -0.5729262232780457 -0.059258170425891876 0.11781182885169983 0.06834079325199127 -0.37230437994003296 -0.001675786217674613 -0.30717790126800537 -0.06727001816034317 -0.33109050989151 -0.07209844887256622 -0.18794047832489014 0.16260351240634918 0.1293034851551056 -0.08078428357839584 -0.0075906612910330296 -0.05227234214544296 0.05101987347006798 -0.2627424895763397 -0.5534759163856506 -0.14541704952716827 -0.14097121357917786 0.12384115159511566 0.06378185749053955 0.041303180158138275 -0.5603512525558472 -0.0008357230108231306 -0.24037939310073853 -0.4294120967388153 -0.09244091063737869 -0.09058716893196106 -0.1653657853603363 0.12867608666419983 -0.6767615079879761 0.24585896730422974 -0.16522052884101868 0.031352970749139786 0.08297333866357803 -0.2681829035282135 -0.2314291149377823 -0.10422839969396591 0.09868158400058746
0.0416596420109272 -0.08649767190217972 -0.43506374955177307 -0.09776731580495834 0.11933726817369461 0.2779550552368164 0.006302627269178629 -0.013890841044485569 -0.04123753681778908 0.038848698139190674 0.09214668720960617 -0.2897064983844757 0.18721334636211395 -0.012787904590368271 -0.028732609003782272 -0.11703427881002426 -0.24317345023155212 0.07195299118757248 -0.19131824374198914 -0.04045846685767174 0.11002269387245178 0.13606208562850952 0.014453939162194729 -0.02120335027575493 -0.1863069385290146 -0.05521925538778305 0.06544014811515808 -0.002865122864022851 -0.0964825451374054 -0.27941253781318665 0.14315403997898102 0.08120103180408478 0.05691254511475563 0.045069701969623566 0.07160093635320663 -0.006169627420604229 0.06294596940279007 -0.3157346248626709 0.10540113598108292 0.2465466558933258 -0.13912516832351685 0.055856335908174515 0.04759332165122032 -0.20257674157619476 -0.08448902517557144 0.027108967304229736 -0.2429213523864746 -0.3586657643318176 -0.019086331129074097 0.0660264864563942 -0.17210537195205688 0.16550560295581818 0.016233542934060097 0.058620378375053406 -0.07723879814147949 0.01295512169599533 -0.008843997493386269 0.28501349687576294 -0.12251590192317963 -0.10973241180181503 0.05068158730864525 0.022766949608922005 0.04288022965192795 0.14185166358947754 0.12802569568157196 0.12655767798423767 -0.3625252842903137 -0.1698693484067917 0.06397850066423416 -0.08366437256336212 0.08773252367973328 -0.010343118570744991 0.06713606417179108 0.0027048890478909016 -0.1156616359949112 0.048966050148010254 0.019722217693924904 -0.01830645091831684 0.13784551620483398 -0.015531936660408974 -0.03329354524612427 0.041467033326625824 -0.047062795609235764 -0.1467406302690506 0.21483741700649261 0.3306243121623993 -0.03754350170493126 -0.41013434529304504 -0.010170411318540573 0.10606905072927475 -0.1353849172592163 -0.11941026896238327 0.02203928679227829 -0.04845553636550903 -0.006638485472649336 -0.3243117928504944 -0.2315290868282318 -0.11154241114854813 -0.0441497266292572 0.1184578537940979 -0.03557088226079941 -0.0232233963906765 -0.049133289605379105 -0.08187973499298096 -0.07757268846035004 -0.019111212342977524 0.12287180870771408 0.015871254727244377 -0.2570994794368744 0.006490136031061411 -0.1351907104253769 0.06967557221651077 -0.02124883234500885 0.0069997250102460384 -0.05216830596327782 -0.7593528628349304 0.2742108106613159 -0.17167729139328003 -0.054010581225156784 -0.08061717450618744 -0.2970723807811737 -0.09469834715127945 -0.04233870655298233 -0.05527535825967789 -0.019827723503112793 0.04618452861905098 -0.031103290617465973 0.047715965658426285
0.012211008928716183 0.03917987644672394 0.02440572902560234 -0.06166136637330055 0.040588341653347015 -0.363981693983078 0.1728975623846054 -0.04413389787077904 0.011682854034006596 -0.141032874584198 -0.28140223026275635 -0.5544217824935913 -0.054790399968624115 -0.03332686051726341 -0.02001531980931759 0.17669551074504852 -0.14096298813819885 0.1749555617570877 0.02892114967107773 -0.19561368227005005 0.0773482546210289 0.23272082209587097 -0.009621704928576946 -0.02037375420331955 0.016612835228443146 0.03425692766904831 0.020344411954283714 -0.15257064998149872 -0.13398927450180054 0.07145249098539352 0.037745654582977295 -0.3888305723667145 -0.03866852447390556 -0.030642401427030563 0.12455067038536072 -0.043005384504795074 0.09947679191827774 0.27452948689460754 -0.18726636469364166 0.06892300397157669 0.08403829485177994 0.11893823742866516 -0.06524239480495453 -0.06244737654924393 0.017671190202236176 -0.05211333557963371 -0.19683748483657837 -0.358510285615921 -0.043734773993492126 -0.20184314250946045 0.02860814705491066 -0.010791972279548645 -0.002365997526794672 0.08537337183952332 -0.08829338848590851 0.07208161056041718 0.05058209225535393 0.07141955196857452 -0.09720555692911148 -0.08126721531152725 0.04493283852934837 0.18127760291099548 -0.022505976259708405 0.1129438579082489 -0.01631803996860981 -0.04225644841790199 -0.25480371713638306 -0.2201148271560669 0.10943739116191864 -0.01769784279167652 -0.05117558687925339 -0.20262832939624786 -0.025346094742417336 -0.22879427671432495 -0.01969330944120884 -0.14198139309883118 -0.0435195229947567 0.11546200513839722 -0.24835744500160217 -0.1451192945241928 0.09475839883089066 -0.07460160553455353 -0.0049925511702895164 -0.22316274046897888 0.04151776805520058 -0.1180611178278923 0.016629496589303017 0.08867600560188293 -0.15299460291862488 0.0488748773932457 0.0065739573910832405 0.07521868497133255 0.15810570120811462 0.21824999153614044 -0.08196402341127396 0.16803154349327087 0.26192453503608704 0.05298028141260147 0.1089661568403244 0.19935421645641327 -0.03866937384009361 0.06709286570549011 0.07223916053771973 -0.05954502150416374 -0.04812328889966011 -0.05409553647041321 -0.07790582627058029 0.1435750424861908 0.1343120038509369 -0.008207077160477638 -0.04846101626753807 -0.2211361527442932 0.08745262771844864 -0.06799139827489853 -0.5154789090156555 -0.10711892694234848 -0.07469378411769867 0.058643095195293427 0.11509782820940018 0.07352675497531891 0.014626240357756615 0.06862664222717285 0.1309644728899002 -0.34094998240470886 -0.001340936403721571 -0.07594970613718033 -0.0856739953160286 -0.19334402680397034
0.018445676192641258 -0.006717318203300238 0.02104377932846546 -0.17614012956619263 0.0065336632542312145 -0.2146034985780716 -0.08503079414367676 -0.12683743238449097 0.02643081732094288 0.07962409406900406 -0.16554459929466248 0.06637495756149292 -0.046902913600206375 -0.15436740219593048 0.01962384209036827 -0.033563900738954544 0.1242765262722969 0.17255929112434387 0.044753000140190125 -0.02136201784014702 0.22149784862995148 0.1502213478088379 -0.0374789796769619 -0.04287553206086159 -0.11774735897779465 -0.08536304533481598 0.12493838369846344 0.13828366994857788 0.0657019168138504 -0.06067076697945595 -0.0005046300357207656 0.0890946090221405 0.04922077804803848 -0.01005298737436533 -0.06759752333164215 -0.05927293002605438 0.06550788134336472 -0.03998944163322449 -0.07949947565793991 -0.2153538465499878 0.00704173231497407 0.0006804842269048095 -0.10361738502979279 -0.20285119116306305 0.03318753466010094 0.24801746010780334 -0.01883431151509285 0.00902863685041666 0.04721128195524216 0.0652785673737526 -0.029139084741473198 0.1591978222131729 0.04036042094230652 -0.05249425023794174 -0.08545036613941193 -0.08916307240724564 -0.15089131891727448 -0.012202231213450432 0.3101583421230316 0.07700780779123306 -0.07828985899686813 0.11558722704648972 0.22658495604991913 0.012884171679615974 0.09584848582744598 0.1754089593887329 -0.08583661913871765 -0.030744429677724838 -0.020974641665816307 -0.20872461795806885 -0.06959801912307739 0.2582860589027405 -0.12026707828044891 -0.15015383064746857 0.011384058743715286 0.05138665810227394 -0.23665878176689148 0.2538089454174042 0.026654744520783424 -0.2204878032207489 0.05276772752404213 -0.05659271031618118 -0.026124106720089912 -0.060059960931539536 0.0750073716044426 0.19147883355617523 -0.10956992208957672 -0.18694064021110535 0.061566706746816635 0.10465701669454575 -0.17421221733093262 -0.16686496138572693 -0.06385402381420135 -0.13931703567504883 -0.015949951484799385 -0.19673053920269012 -0.24947409331798553 -0.008072441443800926 -0.21015715599060059 0.07645440101623535 0.0156992357224226 0.030567863956093788 -0.06029243394732475 0.012121354229748249 -0.22538849711418152 -0.014231427572667599 -0.08955518901348114 -0.08051523566246033 0.15203678607940674 0.446586012840271 -0.20183373987674713 0.12223849445581436 0.035027433186769485 0.004296519327908754 0.009960106573998928 0.054782684892416 -0.07978294044733047 -0.28564882278442383 -0.1439802199602127 0.019380126148462296 -0.07205390185117722 -0.08027271926403046 0.09162138402462006 0.09272060543298721 -0.10370442271232605 0.052287761121988297 -0.05381210893392563 -0.03075387515127659
-0.3813095688819885 -0.02640742063522339 -0.006561127956956625 0.11491826176643372 -0.7054587602615356 -0.1755911260843277 -0.17459917068481445 -0.11307232081890106 0.06763680279254913 -0.07003279775381088 0.06241704896092415 -0.02043832466006279 -0.2319091409444809 0.1367257982492447 0.15603777766227722 -0.0035810861736536026 0.035813383758068085 -0.09184560179710388 0.15439321100711823 0.12244684249162674 0.03981180116534233 0.14339342713356018 0.04995843768119812 0.08050628006458282 -0.14552773535251617 0.10768608748912811 -0.0390905886888504 -0.009545449167490005 -0.025282923132181168 -0.026517387479543686 0.08404984325170517 0.03589722886681557 -0.04441423341631889 -0.018748614937067032 -0.009399328380823135 0.06872555613517761 0.16096852719783783 -0.09903772920370102 0.004683768842369318 -0.06494174152612686 -0.12131021916866302 0.1019604504108429 -0.09339538216590881 -0.002205565804615617 -0.23745772242546082 -0.09521739929914474 -0.09366907179355621 0.02323295921087265 -0.27406999468803406 0.015756327658891678 -0.2323061227798462 0.011914877220988274 0.07789118587970734 0.05092671141028404 0.0031661661341786385 -0.032875627279281616 0.17652501165866852 -0.08357379585504532 0.16614912450313568 0.012028331868350506 0.028333229944109917 0.09562606364488602 0.047842126339673996 0.07374150305986404 -0.23693227767944336 -0.06364374607801437 0.16377493739128113 0.02285974845290184 -0.32101956009864807 0.15397565066814423 0.030632823705673218 -0.013940246775746346 -0.2743559181690216 0.24508428573608398 -0.12696009874343872 -0.030233843252062798 0.02422618865966797 0.003317907452583313 0.047881972044706345 0.11707089841365814 -0.2231004685163498 0.10842156410217285 -0.19512684643268585 0.19320045411586761 0.1258930265903473 -0.32072684168815613 0.041117262095212936 0.049819495528936386 -0.05617070198059082 -0.04038840904831886 -0.465765118598938 -0.13893380761146545 -0.11712713539600372 -0.08584728091955185 -0.029389403760433197 0.15253739058971405 -0.24021360278129578 0.2553056478500366 -0.07069404423236847 0.1678101122379303 0.012106283567845821 0.009405639953911304 0.08034438639879227 0.034605640918016434 0.04399307444691658 -0.13535694777965546 -0.08105458319187164 -0.04408172518014908 0.03563043102622032 -0.45778021216392517 -0.16077546775341034 -0.1677866280078888 -0.126718208193779 -0.1863000988960266 0.044027019292116165 -0.09216038137674332 -0.15521569550037384 -0.062002550810575485 -0.10658707469701767 -0.05442385375499725 0.3480478525161743 0.1279512494802475 0.0992559939622879 -0.020656565204262733 -0.261942058801651 0.025038644671440125 0.06742030382156372 -0.17121614515781403
-0.07895287871360779 -0.104102723300457 0.23670560121536255 -0.44793564081192017 -0.20436695218086243 0.10708288848400116 -0.11484239995479584 -0.013382643461227417 0.08063103258609772 0.024266842752695084 -0.09002918004989624 -0.11915526539087296 0.02701491303741932 -0.04827350005507469 0.05540213733911514 -0.16511906683444977 0.002585081849247217 0.10754609107971191 0.07025075703859329 0.27393338084220886 0.08210788667201996 0.0954711064696312 -0.313884973526001 -0.12022491544485092 0.0605183020234108 0.10540005564689636 -0.010084392502903938 0.07961834222078323 -0.007844258099794388 -0.03511539846658707 -0.09907034784555435 -0.025407129898667336 0.06650931388139725 -0.03241540119051933 -0.09696061909198761 -0.01798373833298683 0.16346776485443115 -0.16428501904010773 -0.26015612483024597 -0.32555675506591797 0.07837041467428207 0.13402700424194336 -0.03340955078601837 0.065126933157444 -0.03513260558247566 -0.023352917283773422 0.0406629852950573 0.002409630222246051 0.05122537165880203 -0.07030361145734787 0.1838315725326538 0.2064778357744217 0.03793884441256523 0.06443686038255692 0.07314358651638031 0.04415782541036606 0.015087587758898735 -0.2411421835422516 -0.0030256558675318956 -0.025431444868445396 0.2504938840866089 -0.1252053827047348 -0.017984455451369286 -0.12290654331445694 0.031865593045949936 0.12259504944086075 -0.0498356893658638 -0.4922468960285187 0.15603326261043549 -0.029880771413445473 -0.19202418625354767 0.11337706446647644 0.09930090606212616 0.04459424316883087 0.052853044122457504 -0.06890416890382767 0.18015903234481812 -0.015014280565083027 -0.22982542216777802 -0.03794935718178749 0.17444798350334167 -0.10227759927511215 0.17237639427185059 -0.2058040350675583 -0.09195307642221451 0.01210010051727295 0.21747778356075287 -0.172101691365242 0.138096421957016 -0.14727015793323517 -0.03471197932958603 -0.2922024428844452 -0.2042025625705719 0.24096587300300598 -0.051569707691669464 -0.2396630048751831 0.1629881113767624 0.04869721457362175 0.016550883650779724 0.040202364325523376 -0.06531475484371185 -0.08467752486467361 -0.04357577860355377 0.04575077071785927 -0.050226807594299316 0.1774401217699051 0.06517085433006287 -0.058469001203775406 0.003276708535850048 -0.130222886800766 -0.10969110578298569 -0.006419558078050613 -0.4124701917171478 0.07528026401996613 0.11074221134185791 -0.018431255593895912 -0.03018542379140854 0.16285237669944763 0.09853898733854294 -0.0957399234175682 0.12790697813034058 -0.12716302275657654 -0.05825242027640343 0.07706253230571747 0.010186869651079178 -0.1746470183134079 -0.13544069230556488 -0.2860328257083893
0.012449167668819427 0.07006874680519104 0.04703924432396889 0.07875166833400726 0.18847587704658508 0.21727007627487183 -0.2807621359825134 -0.15861009061336517 -0.11936510354280472 0.015704048797488213 0.14777617156505585 0.13102880120277405 0.033901359885931015 -0.08571542799472809 -0.1415064036846161 -0.14452283084392548 -0.012359869666397572 0.00047893173177726567 -0.11128091812133789 0.06650127470493317 0.008340184576809406 -0.04967745766043663 0.0555989146232605 0.2874719798564911 -0.10383158922195435 -0.18211066722869873 -0.21319395303726196 -0.4225350618362427 -0.24489958584308624 -0.07136940211057663 0.11154139041900635 -0.09662918001413345 -0.0445038378238678 0.025276465341448784 0.024701396003365517 -0.026643086224794388 -0.10708221048116684 -0.36184659600257874 0.04234897717833519 -0.08397839218378067 -0.030677082017064095 0.10874786972999573 -0.045460138469934464 -0.2280159294605255 0.10853616893291473 0.004411973990499973 0.16073058545589447 -0.1369602084159851 -0.029291324317455292 -0.056582558900117874 -0.05387276038527489 0.15704575181007385 -0.07868784666061401 -0.05290180444717407 -0.06031181290745735 -0.03785760700702667 -0.2046106457710266 0.02216433174908161 -0.011938972398638725 -0.7850646376609802 -0.16218112409114838 -0.1146271601319313 0.09591188281774521 0.1763443946838379 -0.011648952960968018 -0.02537909336388111 0.18012426793575287 0.32766014337539673 0.01836005598306656 -0.11218485236167908 -0.0820319801568985 0.097003273665905 0.026885539293289185 -0.1376187652349472 -0.1956155002117157 -0.06306735426187515 -0.13480894267559052 0.012609920464456081 -0.07824636995792389 -0.09115881472826004 -0.02456897683441639 -0.06362223625183105 0.037707120180130005 -0.17477792501449585 -0.005961097311228514 -0.16973669826984406 0.19714422523975372 0.24102216958999634 -0.30169805884361267 -0.06469712406396866 0.08789928257465363 0.021263722330331802 -0.003113590646535158 0.14889578521251678 0.04297256842255592 -0.02019539102911949 0.07413425296545029 0.0885109007358551 -0.03600300848484039 0.13532176613807678 -0.06814910471439362 0.07760050892829895 0.07846604287624359 -0.046105675399303436 -0.10112708061933517 -0.20055845379829407 -0.04499338939785957 0.10498024523258209 -0.041752539575099945 0.13845524191856384 -0.023672491312026978 0.13770873844623566 -0.16018205881118774 0.047176018357276917 0.06596233695745468 0.0030942645389586687 0.17055310308933258 0.025053570047020912 -0.0750742182135582 0.28435108065605164 -0.2953765094280243 0.01642770506441593 0.1266053020954132 0.012314431369304657 -0.012900158762931824 0.08548817783594131 -0.21309678256511688 -0.19770489633083344
-0.026249391958117485 0.08315647393465042 0.0439385324716568 -0.11245221644639969 -0.022825084626674652 0.3247799277305603 -0.1552228033542633 0.06784471869468689 -0.02511206455528736 0.08328354358673096 -0.04363051801919937 -0.018533749505877495 -0.05161912739276886 -0.4068715572357178 -0.219343900680542 0.0404975526034832 -0.008071125485002995 0.010662926360964775 0.004187443759292364 0.011452299542725086 0.09045473486185074 -0.05497926101088524 0.06954579055309296 0.09085556864738464 -0.08416185528039932 -0.1534270942211151 -0.07200959324836731 0.0031742590945214033 0.10250810533761978 -0.21390077471733093 0.03618443384766579 0.017391227185726166 -0.01629197970032692 0.061268776655197144 -0.006371556781232357 0.020971480756998062 0.09705022722482681 -0.158503457903862 -0.08171895146369934 0.07269039750099182 -0.34259721636772156 0.012743464671075344 -0.1989467293024063 0.02101982571184635 -0.0778798833489418 -0.004681962076574564 0.02311081998050213 -0.05663461238145828 -0.07598463445901871 -0.06207646429538727 -0.0038388813845813274 -0.1786871701478958 0.07099917531013489 0.06441538035869598 0.031250856816768646 -0.07683965563774109 -0.2007603943347931 0.4228787124156952 0.07792533189058304 -0.07187721878290176 0.08294089138507843 0.2295987904071808 -0.11016111075878143 -0.030188854783773422 0.06681849807500839 0.15159304440021515 0.09732793271541595 -0.39817842841148376 0.023619236424565315 -0.12285322695970535 0.2292311191558838 0.11475710570812225 0.053513120859861374 0.19023707509040833 -0.032139852643013 -0.10908403247594833 -0.3270677328109741 -0.053596291691064835 -0.03251049667596817 0.17076276242733002 -0.004378275480121374 -0.17046670615673065 0.025272684171795845 -0.13539640605449677 0.28402745723724365 0.24877330660820007 -0.06799853593111038 -0.10131775587797165 -0.01735181361436844 0.07657251507043839 -0.003945222590118647 0.12537674605846405 -0.12006442993879318 0.21120929718017578 0.05417066812515259 0.07953128218650818 0.0012411524076014757 -0.40148457884788513 0.13425317406654358 -0.09526018798351288 -0.06580103188753128 0.029722316190600395 0.05391288921236992 -0.028493162244558334 -0.14817048609256744 -0.17811085283756256 -0.12369873374700546 0.040588799864053726 0.04741029441356659 0.04618370532989502 -0.1556781530380249 -0.027373159304261208 0.03460865095257759 0.16456040740013123 0.10161653906106949 0.01028776541352272 0.2430555522441864 -0.16828057169914246 -0.07996799051761627 -0.024731021374464035 -0.2990095317363739 -0.1537262350320816 0.04131455346941948 0.04402416944503784 -0.1276208460330963 0.0033982594031840563 -0.11195266246795654 0.10687952488660812
-0.06378844380378723 0.034975506365299225 0.0751899853348732 0.004012072458863258 -0.010319007560610771 -0.29862210154533386 -0.08847265690565109 -0.02439292147755623 -0.09241083264350891 -0.03095221519470215 -0.1394682079553604 -0.014963741414248943 -0.06503342092037201 0.04560457170009613 -0.002696551149711013 0.025813650339841843 -0.018906299024820328 -0.11655310541391373 0.061463527381420135 0.07712382078170776 -0.05986412242054939 0.3990746736526489 0.030571449548006058 -0.016982560977339745 0.16645218431949615 0.4458796977996826 -0.08726634830236435 -0.17874610424041748 -0.2369927614927292 0.02098817564547062 0.07500230520963669 0.053400006145238876 -0.08595308661460876 -0.008384785614907742 -0.10788445919752121 -0.061334721744060516 0.13005633652210236 -0.07254026085138321 -0.028090080246329308 0.05271218717098236 0.19520212709903717 -0.2158670872449875 -0.12305787205696106 -0.024840526282787323 0.13116134703159332 -0.09185685962438583 -0.022573141381144524 -0.10790198296308517 -0.24321256577968597 0.11418118327856064 -0.019503049552440643 0.04365977272391319 0.044026922434568405 0.04946211725473404 -0.026230933144688606 -0.028489800170063972 0.18613217771053314 0.06279906630516052 0.13804492354393005 -0.014960178174078465 -0.1288059949874878 0.21190084517002106 -0.004702103789895773 0.20426224172115326 -0.10493921488523483 -0.10737437009811401 0.23146279156208038 -0.14852739870548248 0.03829366713762283 0.053724974393844604 0.10998864471912384 -0.05773858353495598 -0.009526700712740421 0.026942437514662743 0.009761099703609943 0.10323172062635422 -0.15573576092720032 0.10177561640739441 -0.0061179278418421745 -0.07432049512863159 0.1401601880788803 0.08985359221696854 -0.06332389265298843 -0.5098177790641785 -0.015677448362112045 0.21959801018238068 0.043164871633052826 0.011710919439792633 -0.18963287770748138 -0.05777137726545334 0.031026694923639297 0.03889573737978935 -0.020683523267507553 0.069066621363163 0.05727333202958107 -0.03077331744134426 0.08641678094863892 0.34238892793655396 -0.3176977038383484 0.15926316380500793 -0.039500657469034195 -0.041253820061683655 -0.07033336162567139 -0.028166867792606354 -0.019021622836589813 0.07566101104021072 -0.09796140342950821 -0.21389155089855194 0.04375068470835686 -0.20609702169895172 -0.012214533984661102 0.02137094736099243 0.008539354428648949 -0.01288512907922268 0.05182867869734764 0.020948003977537155 0.0012826455058529973 -0.3156987428665161 -0.008058943785727024 -0.1800432801246643 0.12913797795772552 0.0059422277845442295 0.024429166689515114 0.012338129803538322 0.10798055678606033 -0.01721116155385971 -0.061011601239442825 0.024192094802856445
-0.00563209131360054 -0.08072271198034286 -0.003632114501670003 -0.005280646029859781 0.19844047725200653 0.006268132012337446 0.12510870397090912 -0.011322034522891045 -0.04621615260839462 -0.06981202960014343 -0.07325620949268341 0.049372561275959015 0.000982208177447319 0.02056078426539898 -0.2781611979007721 0.006695257034152746 -0.5845455527305603 0.14018146693706512 0.0038481769151985645 0.030396925285458565 -0.30271655321121216 0.19571274518966675 -0.003588755615055561 -0.03989553079009056 -0.12314680963754654 -0.08609377592802048 0.009387183003127575 0.030836766585707664 -0.12324271351099014 -0.606456995010376 -0.06349348276853561 -0.055821508169174194 -0.05890360102057457 0.07726828008890152 -0.01828908920288086 -0.002775759669020772 -0.019254624843597412 0.05027512088418007 0.08608699589967728 0.033399298787117004 -0.009313675574958324 0.09763368964195251 0.08055367320775986 0.0022873790003359318 0.07132187485694885 -0.025729157030582428 0.013127929531037807 0.08237580955028534 -0.21979674696922302 -0.053682371973991394 -0.1626596450805664 -0.15188273787498474 0.05954330787062645 -0.025169668719172478 0.014081345871090889 -0.057930588722229004 0.06364098191261292 0.1131112352013588 -0.733780562877655 -0.19445738196372986 0.09345537424087524 0.003097288543358445 -0.5419178009033203 -0.041340526193380356 -0.019673176109790802 0.01270162221044302 -0.04106772691011429 2.4547052817069925e-05 0.06776682287454605 0.01833433099091053 -0.020278936251997948 -0.19828811287879944 0.23306287825107574 -0.22005732357501984 0.09185687452554703 -0.06631998717784882 0.23714056611061096 0.07884272933006287 0.12209922820329666 0.09784764051437378 -0.18078885972499847 -0.017240341752767563 0.16020652651786804 0.011005922220647335 0.10203173756599426 -0.027431605383753777 -0.007903438992798328 0.04355175048112869 -0.5875437259674072 0.04055969789624214 0.18374983966350555 0.18156810104846954 0.08403997868299484 -0.023627102375030518 0.01702018268406391 -0.24181637167930603 0.08389459550380707 0.06628395617008209 0.07251978665590286 0.17254813015460968 0.06767410784959793 0.06953524798154831 0.038704030215740204 0.01793469302356243 0.11511127650737762 -0.30386078357696533 0.2578579783439636 -0.018671687692403793 -0.35341373085975647 0.09186825901269913 0.18369567394256592 0.01720505766570568 -0.07850322127342224 0.011408690363168716 -0.11730466037988663 0.0925522893667221 0.23776887357234955 -0.07668507099151611 0.13864047825336456 -0.21892280876636505 -0.6301390528678894 -0.07680702954530716 0.10083610564470291 0.10421571135520935 0.11114607006311417 -0.056794241070747375 0.19971467554569244 -0.05127163976430893
0.07213377207517624 0.04888361319899559 0.03338511288166046 0.159066841006279 0.17702694237232208 0.05377102643251419 -0.172695130109787 -0.10331487655639648 0.05095907673239708 0.0015118959126994014 -0.2599371075630188 -0.05747976899147034 0.04349416866898537 -0.16791319847106934 -0.13529537618160248 -0.10262398421764374 0.06680673360824585 -0.411591112613678 0.14383871853351593 0.06481276452541351 0.20072881877422333 0.02581007592380047 0.13998918235301971 0.14584918320178986 -0.07471061497926712 -0.09806118905544281 -0.2719660997390747 0.07308158278465271 -0.1656484603881836 -0.2564871907234192 -0.04456097632646561 -0.13487856090068817 0.05045909807085991 0.017256740480661392 0.004567890428006649 -0.02327095903456211 -0.039585310965776443 -0.1458907574415207 -0.19840162992477417 0.05563293769955635 -0.09364441782236099 -0.019019726663827896 -0.29551035165786743 -0.014644430950284004 -0.1013573706150055 -0.0883985236287117 -0.010580906644463539 0.01105229090899229 -0.3378298580646515 0.09940364956855774 -0.05723516270518303 -0.18489427864551544 -0.03179801627993584 0.026384621858596802 -0.05817995220422745 0.030097000300884247 0.11371584981679916 0.041167303919792175 0.29084107279777527 -0.08610214293003082 -0.08097714185714722 0.1900620460510254 -0.02642933651804924 -0.12145563960075378 0.15030592679977417 -0.008012531325221062 0.180887833237648 -0.7215135097503662 0.028196118772029877 0.028020085766911507 0.14071547985076904 -0.11122922599315643 0.02231396734714508 0.0986463874578476 0.11622150242328644 -0.3094598948955536 -0.18931975960731506 0.036811020225286484 -0.2611303925514221 0.11779937893152237 0.010620645247399807 -0.07033000141382217 0.0017890427261590958 -0.04148922115564346 0.16167742013931274 0.14242185652256012 0.057145848870277405 0.12183760106563568 -0.3874550461769104 -0.06984024494886398 -0.15405899286270142 -0.021684572100639343 -0.0010509175481274724 -0.10616301745176315 0.1311509758234024 0.06098683178424835 0.16936667263507843 -0.010707547888159752 0.002595391822978854 0.0379687063395977 0.001991512253880501 -0.07627081125974655 0.047436658293008804 0.0778472051024437 -0.057956669479608536 -0.14500285685062408 -0.2527911365032196 0.11763354390859604 -0.0306888185441494 -0.065509133040905 -0.31591901183128357 -0.3320460617542267 0.17545776069164276 -0.13165709376335144 0.0396387092769146 -0.037536755204200745 0.23558580875396729 0.011007532477378845 -0.23503349721431732 -0.07026100903749466 -0.2553901970386505 -0.1505785435438156 0.07890341430902481 -0.012505798600614071 -0.023130781948566437 -0.13596278429031372 0.012876268476247787 0.1155509278178215
-0.02072066068649292 0.02709847316145897 0.03393308445811272 -0.1995116025209427 -0.05171804502606392 -0.3003349304199219 0.0805637463927269 0.08424391597509384 -0.007118276786059141 0.006177871488034725 0.07524743676185608 -0.04305364191532135 -0.08266439288854599 -0.01740575209259987 0.12130948901176453 0.10231714695692062 -0.06571963429450989 -0.014220659621059895 0.023018142208456993 0.0947117954492569 0.0688236802816391 0.17011646926403046 -0.08709270507097244 0.10677754133939743 -0.00012422561121638864 0.24530449509620667 -0.07896636426448822 -0.503008246421814 -0.08116814494132996 -0.015896333381533623 0.04446413740515709 -0.04745912179350853 -0.007570155896246433 -0.07874090224504471 0.06579333543777466 0.010012177750468254 0.019998876377940178 -0.12029893696308136 0.047119781374931335 0.046034518629312515 0.21953201293945312 0.1163083165884018 -0.10106122493743896 -0.10469964891672134 -0.040757857263088226 -0.07342658936977386 0.01739206165075302 -0.06655104458332062 0.08949003368616104 0.07941685616970062 0.03204885870218277 -0.00353374145925045 0.007786471862345934 -0.0222642719745636 -0.03917494788765907 -0.004853190388530493 -0.022576777264475822 0.2690228521823883 -0.07523388415575027 0.03936396911740303 0.07834507524967194 0.06544487178325653 0.008188574574887753 0.11517161130905151 0.052839022129774094 0.04215822368860245 -0.06724634766578674 -0.002148495754227042 0.0006606252281926572 0.14931751787662506 0.08218573033809662 -0.38735973834991455 -0.096520334482193 -0.10800834000110626 0.0563686229288578 0.07424554228782654 0.2879491448402405 0.04064353182911873 0.13097290694713593 -0.005308632738888264 -0.12399922311306 0.2293696105480194 0.06645867228507996 -0.47704845666885376 0.10367447882890701 0.17958468198776245 -0.09534310549497604 0.05366554483771324 0.1703031361103058 -0.42246589064598083 -0.035567015409469604 0.13965876400470734 -0.06334307044744492 -0.18980003893375397 -0.04361448064446449 0.1031784787774086 -0.2664412558078766 0.08339224010705948 0.09895936399698257 0.1668471395969391 -0.059679917991161346 0.04654647409915924 -0.03208823874592781 -0.0585177056491375 -0.36237671971321106 -0.07382712513208389 0.0459650419652462 0.007573714479804039 -0.014979198575019836 -0.05071839317679405 -0.02365335263311863 0.03638812154531479 -0.00965555664151907 0.006402389146387577 -0.015499488450586796 -0.0204758383333683 -0.05779457092285156 0.08819065243005753 -0.06942106783390045 -0.1224626824259758 0.009101725183427334 0.1186630055308342 -0.019055718556046486 -0.12926790118217468 -0.25926968455314636 -0.013444043695926666 -0.0006509900558739901 0.03729820251464844
-0.2721710205078125 -0.08496038615703583 0.0625632032752037 -0.15609930455684662 -0.4779101312160492 -0.1456836760044098 -0.00627888273447752 -0.27624428272247314 0.03285592794418335 -0.024010304361581802 -0.2571166455745697 -0.030932806432247162 -0.5248828530311584 -0.07320820540189743 -0.10708910971879959 0.0596458800137043 0.23821865022182465 -0.6703841686248779 -0.09352337568998337 0.09072817116975784 -0.02166830562055111 0.11176685243844986 -0.31090646982192993 0.012344948947429657 0.0445210225880146 -0.08742616325616837 0.09780967235565186 0.1161232739686966 -0.014462536200881004 -0.05965866148471832 0.00238222349435091 -0.049190446734428406 -0.05799569562077522 0.03513827919960022 0.03342122584581375 -0.06448793411254883 0.052261099219322205 0.02353825606405735 -0.10187778621912003 0.07032734155654907 -0.014900680631399155 0.12588578462600708 -0.05310402438044548 0.05316326767206192 -0.20295104384422302 -0.11566518992185593 0.1473308801651001 0.06410209089517593 -0.13233992457389832 -0.0015255265170708299 -0.07741094380617142 -0.334354966878891 0.0077725849114358425 0.06021978333592415 -0.012258431874215603 0.01399207953363657 0.18604935705661774 -0.005325880367308855 -0.0675586611032486 0.06989674270153046 0.3112144470214844 0.2957833707332611 -0.15962271392345428 0.05545393005013466 -0.24035479128360748 -0.05321573466062546 -0.10801154375076294 -0.026145806536078453 -0.045774076133966446 0.08739200979471207 -0.189219668507576 -0.28034013509750366 0.10513342171907425 0.13709425926208496 0.08301997929811478 -0.08102685958147049 -0.047073859721422195 0.009499935433268547 -0.0913403108716011 0.07743881642818451 -0.12239666283130646 0.2810535430908203 0.008832383900880814 -0.07201440632343292 0.08824509382247925 0.09438151866197586 -0.00803518109023571 0.17844565212726593 0.1761261373758316 -0.30832210183143616 -0.010286781936883926 0.19515560567378998 0.03821888566017151 -0.0829608216881752 0.1326434463262558 0.04294963181018829 -0.045008596032857895 0.07758292555809021 -0.15364710986614227 0.03545042499899864 0.035839106887578964 0.06484121829271317 -0.04489683359861374 -0.004443025682121515 -0.2073374092578888 0.20483829081058502 -0.043735161423683167 -0.0047139450907707214 0.2219548523426056 -0.6840606331825256 -0.0046712178736925125 -0.18737556040287018 -0.26666751503944397 -0.1520533412694931 0.24122576415538788 0.031027527526021004 -0.3450942933559418 -0.22448261082172394 0.23421069979667664 -0.14058448374271393 0.3798045217990875 0.06983170658349991 0.06339753419160843 0.1504598706960678 0.13591007888317108 -0.19452841579914093 -0.01953318901360035 -0.08785892277956009
-0.07317531853914261 0.0945243313908577 0.04528660327196121 -0.08123147487640381 -0.1169976219534874 0.0647771954536438 -0.18136858940124512 -0.03916068375110626 -0.11428975313901901 -0.09581927955150604 -0.0691547617316246 -0.05353359878063202 -0.16193406283855438 -0.2860039174556732 0.20197126269340515 0.10048496723175049 0.16823822259902954 0.07883769273757935 0.007951050065457821 0.023213768377900124 0.06396141648292542 -0.434374064207077 0.010484992526471615 0.2738023102283478 0.09597120434045792 0.04574233666062355 -0.24483954906463623 -0.16152970492839813 0.05155494436621666 0.10231739282608032 -0.04935619980096817 0.04936226084828377 0.08257731050252914 -0.06327901780605316 0.020836450159549713 0.019474772736430168 0.17400412261486053 -0.14785943925380707 0.09114830195903778 -0.18983152508735657 0.07736654579639435 0.0362514927983284 -0.07473243027925491 -0.022895976901054382 0.1902332752943039 -0.06347325444221497 -0.06279249489307404 0.0184390340000391 -0.05790388211607933 -0.2893187403678894 0.049148350954055786 0.07352720946073532 0.027256883680820465 -0.0744413360953331 0.074379563331604 -0.023346465080976486 -0.11636923253536224 0.053219862282276154 0.09107569605112076 -0.2754342257976532 -0.15641626715660095 -0.16151472926139832 0.1916140764951706 0.05034555122256279 -0.13280418515205383 -0.00013672246132045984 -0.17426016926765442 -0.8192771077156067 -0.15249300003051758 -0.07736839354038239 0.09117479622364044 0.06144028902053833 -0.016738763079047203 -0.05665481835603714 0.08334646373987198 -0.1575067937374115 -0.15340490639209747 -0.060214728116989136 0.17375300824642181 -0.850830614566803 0.11894641816616058 0.06373824924230576 -0.11641798913478851 -0.002665500156581402 -0.08268294483423233 -0.009512816555798054 -0.013137992471456528 -0.11908206343650818 0.0899314135313034 -0.4563296139240265 -0.13703832030296326 -0.13618791103363037 -0.028052663430571556 0.13415469229221344 0.05373397842049599 -0.008836072869598866 -0.11635278165340424 0.050713151693344116 -0.07071496546268463 0.11815802752971649 -0.061162080615758896 0.026004666462540627 0.06512831151485443 -0.031067686155438423 0.09635349363088608 -0.0985189825296402 -0.1031242087483406 -0.1447913646697998 0.2053266316652298 -0.13187873363494873 0.14501826465129852 0.21416671574115753 -0.014356827363371849 0.1693384051322937 0.013225839473307133 0.010907361283898354 -0.1270975023508072 -0.5030262470245361 -0.004932173527777195 0.047607358545064926 0.23075146973133087 0.10156675428152084 -0.12743285298347473 0.0733967050909996 0.07248547673225403 0.22272607684135437 -0.08598442375659943 -0.3107713460922241
0.023612361401319504 -0.08504339307546616 -0.2656547427177429 -0.07669460773468018 -0.1271982640028 0.009465266019105911 -0.3146372437477112 -0.0020379414781928062 -0.04762173071503639 -0.03248494863510132 -0.1249852105975151 0.03276385739445686 0.1666075736284256 -0.06602581590414047 0.10952087491750717 -0.05027955025434494 -0.0014416819903999567 0.09071792662143707 -0.00812649168074131 -0.049278032034635544 0.07851710915565491 -0.1377050131559372 0.07940053939819336 -0.006250243168324232 0.07642030715942383 -0.08370720595121384 0.0435672327876091 0.007286384701728821 0.23606723546981812 0.08282659947872162 -0.18256211280822754 -0.10489356517791748 -0.02633551135659218 -0.05385421961545944 -0.05117679014801979 0.00650543998926878 -0.07156605273485184 0.22677430510520935 -0.011897508054971695 0.043580006808042526 -0.03859926760196686 -0.21303412318229675 -0.12403276562690735 0.08141429722309113 0.006701448932290077 -0.060474693775177 -0.4085153639316559 -0.1292911320924759 -0.008996755816042423 0.2701209783554077 -0.0017335686134174466 0.3411717414855957 -0.034562986344099045 -0.06789325922727585 -0.0015459147980436683 0.006996260490268469 0.05854303762316704 -0.2420438975095749 0.1605132818222046 0.21200425922870636 -0.05711747705936432 -0.08922495692968369 0.07117252051830292 0.048894040286540985 0.04428036883473396 0.005012620706111193 -0.4503304064273834 0.3025570511817932 0.11969558894634247 0.015443420968949795 0.006703919731080532 0.17526589334011078 0.07391569018363953 0.18689531087875366 -0.11848936229944229 0.19400013983249664 -0.0023185533937066793 -0.1489545702934265 0.07214556634426117 -0.35901856422424316 0.2321573793888092 0.166049525141716 0.010102584026753902 -0.11927683651447296 -0.09562501311302185 -0.09073960036039352 0.02204054407775402 -0.06850253790616989 -0.011551332660019398 0.04151850566267967 -0.06115423142910004 0.0023902063257992268 -0.16548508405685425 -0.085718534886837 -0.028111249208450317 -0.13556446135044098 0.17425528168678284 -0.11902566999197006 -0.11113400012254715 -0.1398972123861313 0.010451535694301128 -0.004294212441891432 -0.03403789922595024 -0.018679166212677956 -0.007676313631236553 0.1920951008796692 -0.020691215991973877 0.009619215503334999 -0.1810256540775299 0.45975786447525024 0.10155175626277924 -0.07614999264478683 -0.15031278133392334 0.02453349158167839 -0.4923422932624817 -0.27017560601234436 0.03950541839003563 0.15512803196907043 -0.11253137141466141 0.05840662121772766 0.2501121759414673 -0.10145612806081772 -0.11342298239469528 -0.1697969138622284 -0.12453708052635193 0.19041825830936432 0.029913557693362236 0.013753284700214863
-0.6158491969108582 -0.06661495566368103 0.18154609203338623 -0.08565341681241989 -0.451706200838089 0.03426316753029823 0.13626046478748322 0.07317832857370377 -0.103835329413414 0.07713935524225235 0.19385449588298798 -0.05096844211220741 -0.10202909260988235 -0.04663558676838875 0.06576811522245407 -0.0350482352077961 0.1535538285970688 0.012690288946032524 -0.27205124497413635 0.06980782002210617 0.09736719727516174 0.022667748853564262 -0.257196843624115 0.07361598312854767 -0.11567223072052002 -0.2581288814544678 -0.07904859632253647 0.016805820167064667 -0.09811224788427353 -0.013378134928643703 0.12912149727344513 0.05164778605103493 0.01209171861410141 0.08105137944221497 -0.004323255270719528 0.030885132029652596 0.0675058662891388 -0.0009763331618160009 -0.09733451902866364 0.2701338827610016 -0.1046539843082428 -0.05078333243727684 -0.2758350670337677 0.20902062952518463 -0.1747312992811203 -0.12449170649051666 0.03612126410007477 0.0047332909889519215 -0.2247355431318283 -0.036451730877161026 0.19088344275951385 -0.06917145103216171 0.08220228552818298 0.08132001757621765 -0.05473437160253525 0.09111406654119492 -0.483656108379364 -0.20682978630065918 -0.06543099880218506 -0.008349011652171612 -0.14212703704833984 -0.03317105397582054 -0.20373094081878662 -0.26750603318214417 -0.1855514794588089 0.03379720076918602 0.14514681696891785 -0.11513904482126236 -0.20223172008991241 -0.04129315912723541 -0.005581987556070089 -0.055939529091119766 -0.5748980045318604 -0.24760784208774567 0.13234110176563263 0.05416575074195862 -0.6090146899223328 0.11604483425617218 -0.19881515204906464 -0.19307410717010498 -0.1026700958609581 0.04159623384475708 0.027483811601996422 0.03716454654932022 -0.1651921421289444 0.24680767953395844 -0.021058127284049988 -0.34869906306266785 -0.08072737604379654 0.08245296031236649 -0.1643993854522705 -0.16945870220661163 0.19168981909751892 -0.18427959084510803 -0.0572177991271019 -0.1428021788597107 -0.1431540548801422 -0.0055756294168531895 0.02710401453077793 0.007079424802213907 0.009368686005473137 -0.004405968822538853 0.028904899954795837 -0.036958567798137665 -0.15387581288814545 -0.1778676062822342 0.11974965780973434 0.14201273024082184 0.20034471154212952 0.09955058246850967 -0.2421765923500061 0.01910250075161457 -0.6436237692832947 0.011807914823293686 -0.07522843778133392 0.02163083478808403 -0.23933590948581696 -0.05350785702466965 0.08808028697967529 0.12385406345129013 -0.39633995294570923 -0.2626836597919464 -0.17676949501037598 -0.01473983097821474 -0.3375530540943146 -0.658663272857666 -0.14720697700977325 0.047251857817173004
-0.005977198015898466 0.043174583464860916 0.07409878075122833 -0.28545770049095154 0.03179527074098587 0.24285300076007843 0.22625409066677094 0.07970164716243744 -0.23911522328853607 -0.07176720350980759 -0.058053500950336456 -0.5226271152496338 0.07021262496709824 0.04999158903956413 -0.13630668818950653 -0.13285228610038757 -0.011301933787763119 -0.017762726172804832 0.28763508796691895 0.10691151767969131 -0.009970265440642834 0.06776470690965652 -0.031018417328596115 -0.12231649458408356 -0.05516960844397545 -0.1376592218875885 -0.3882247805595398 -0.01614379696547985 0.03035087138414383 -0.23147812485694885 0.037331756204366684 0.11771688610315323 -0.06399081647396088 0.051632631570100784 0.015613552182912827 0.05745799094438553 0.09372009336948395 0.12010347098112106 -0.02177816443145275 0.1931232511997223 -0.1805606335401535 -0.024654703214764595 -0.05883711576461792 -0.0668831542134285 -0.06337223201990128 -0.07014105468988419 0.11523471027612686 0.020080074667930603 0.019277622923254967 0.00048279165639542043 -0.026655111461877823 0.0793188065290451 0.028406796976923943 0.03351540490984917 -0.07835105061531067 -0.039381690323352814 -0.3755297362804413 0.003330125007778406 -0.7734709978103638 -0.1398637741804123 -0.03736400604248047 0.1349075734615326 -0.7195127010345459 -0.02875290997326374 -0.09689712524414062 -0.05426124110817909 -0.02076692320406437 -0.08129401504993439 0.11920171976089478 0.11968544870615005 -0.6978804469108582 -0.015676677227020264 0.04389576241374016 -0.010475744493305683 0.04432464763522148 0.04225602000951767 -0.3282168209552765 -0.11677101999521255 0.03339081257581711 -0.2904740273952484 -0.11992188543081284 -0.06305614113807678 -0.034703873097896576 -0.03497723489999771 -0.0943966805934906 -0.06430117040872574 0.009548844769597054 -0.029326489195227623 -0.5446407794952393 0.09043250232934952 0.24548400938510895 -0.11315007507801056 -0.10953333973884583 0.019609661772847176 0.03792253136634827 -0.18917231261730194 0.20253215730190277 -0.013430039398372173 0.10468193888664246 0.17991991341114044 0.08469445258378983 0.024509644135832787 -0.06277434527873993 -0.06708994507789612 -0.08882682770490646 -0.008358102291822433 0.10238976031541824 0.04033373296260834 0.0015436367830261588 -0.2416306585073471 0.24440567195415497 0.08608365058898926 -0.4471167325973511 0.008251060731709003 0.08677729964256287 0.014688767492771149 0.20315265655517578 0.13794104754924774 0.10135991126298904 -0.45064079761505127 -0.46385860443115234 -0.23750600218772888 -0.6528469920158386 0.004731880966573954 -0.07785561680793762 -0.17721392214298248 0.044842660427093506 0.04006093740463257
0.010280992835760117 -0.09190874546766281 0.1092214286327362 -0.2279508113861084 0.3686995506286621 0.029981208965182304 0.13553747534751892 0.014178815297782421 0.07430943846702576 -0.11091268062591553 0.08708711713552475 0.05156431719660759 0.12812887132167816 0.11738783866167068 -0.04017096757888794 0.020004641264677048 -0.41649574041366577 0.16254806518554688 0.031776174902915955 -0.041008345782756805 0.0028110910207033157 0.12579087913036346 -0.11871013045310974 -0.12798404693603516 -0.0025971648283302784 -0.018173914402723312 0.047036927193403244 -0.056610915809869766 0.07979273796081543 -0.29271578788757324 -0.03373197093605995 0.0406772717833519 -0.08709027618169785 0.01930953562259674 -0.013835442252457142 0.03059052675962448 -0.01415135245770216 0.021403878927230835 -0.29231685400009155 -0.06062289699912071 -0.02647535130381584 0.04438169673085213 0.04170539975166321 -0.1792680025100708 -0.12324275076389313 0.034235309809446335 0.058872733265161514 -0.18090514838695526 0.14190325140953064 0.07534832507371902 -0.2446366399526596 0.12653474509716034 0.04347715899348259 -0.06574861705303192 -0.035234205424785614 -0.029424874112010002 -0.17223060131072998 0.09274154901504517 -0.06531479209661484 0.040614813566207886 0.03186068311333656 -0.0490034744143486 -0.2709995210170746 0.06300187855958939 0.01928793638944626 0.038114238530397415 -0.05426677316427231 -0.21675381064414978 0.16762253642082214 -0.09652344882488251 -0.06876347213983536 -0.05937535688281059 -0.03770039603114128 -0.21606408059597015 0.1483394205570221 0.12135807424783707 0.12555724382400513 0.1298644095659256 -0.191258504986763 -0.07035811990499496 -0.13322663307189941 0.147248774766922 0.09198235720396042 0.04074351117014885 0.04841214045882225 -0.2141750305891037 -0.1058136522769928 -0.3793189525604248 0.08814980089664459 0.08901674300432205 -0.2540418207645416 -0.16985274851322174 -0.23155847191810608 -0.22699284553527832 0.06729773432016373 -0.18529953062534332 -0.1391507089138031 0.1896948367357254 0.2353494018316269 -0.037418466061353683 -0.060015223920345306 -0.06917289644479752 0.03132959455251694 -0.03633517771959305 -0.11094844341278076 -0.04933686554431915 0.0435081422328949 -0.051753949373960495 -0.5693972110748291 0.27588364481925964 -0.10751547664403915 0.03680173307657242 -0.1516704261302948 -0.050703760236501694 0.05151660740375519 -0.2461780309677124 0.121082603931427 -0.07511173188686371 0.20205596089363098 -0.08185350149869919 -0.1395307034254074 -0.02769581973552704 -0.1251048445701599 0.23719985783100128 -0.17356890439987183 -0.34608668088912964 0.08646982908248901 -0.16225503385066986
-0.2659252882003784 -0.03090968169271946 -0.04018712043762207 -0.29273104667663574 -0.35460391640663147 -0.1269453912973404 0.14049039781093597 0.06841889768838882 0.2053087204694748 0.09201283007860184 -0.05162544548511505 -0.12970730662345886 -0.19206051528453827 0.044169165194034576 0.27985280752182007 0.11492832005023956 0.14956118166446686 -0.09068004786968231 0.1591612845659256 0.033980272710323334 0.11932223290205002 0.11326286196708679 -0.07375995069742203 -0.5069046020507812 -0.19352446496486664 -0.7987406849861145 -0.028350913897156715 0.018978293985128403 0.15376552939414978 0.1896907389163971 -0.23331652581691742 -0.024973709136247635 0.05540473014116287 -0.0030729372519999743 0.018542243167757988 -0.0020801681093871593 0.025540364906191826 0.10012452304363251 -0.1283539980649948 -0.30183911323547363 0.15858744084835052 -0.05709195137023926 -0.08143464475870132 -0.010908706113696098 -0.1315629482269287 -0.7681770920753479 0.03176498785614967 0.08001849055290222 0.08355443924665451 0.07037495076656342 -0.05772782489657402 -0.012939518317580223 0.006311469245702028 0.07469727843999863 0.03507667034864426 0.07946967333555222 -0.4821719229221344 -0.8385021090507507 0.2074550837278366 0.10251084715127945 -0.06802849471569061 -0.11331672966480255 -0.3896690607070923 -0.21626852452754974 -0.163033589720726 -0.23193782567977905 -0.21201568841934204 -0.07169435173273087 -0.36672714352607727 -0.04569195583462715 -0.072665274143219 0.1401246339082718 -0.7740732431411743 -0.18588870763778687 0.20007605850696564 -0.1430431753396988 0.03799384459853172 -0.037352509796619415 0.09822559356689453 -0.06717216223478317 -0.4260164797306061 -0.3506411910057068 -0.15973757207393646 0.3246811032295227 -0.22760647535324097 -0.31915631890296936 -0.07368159294128418 0.07145890593528748 0.08388137072324753 -0.19384737312793732 -0.3166798949241638 -0.6427755355834961 0.2178621143102646 -0.0670648068189621 0.1295754462480545 -0.28158095479011536 -0.14557018876075745 -0.3058870732784271 0.001183436019346118 0.1984642893075943 -0.039679329842329025 0.013202911242842674 -0.033919721841812134 0.07435177266597748 -0.015170672908425331 -0.6029136776924133 -0.09202398359775543 0.07460397481918335 0.09962961822748184 0.19689223170280457 -0.022509383037686348 0.4289654791355133 -0.1965952068567276 0.10441911220550537 0.19251176714897156 -0.012744230218231678 -0.3381826877593994 0.07931633293628693 0.0432104766368866 0.12792876362800598 0.11380264163017273 0.1451268494129181 0.011226432397961617 0.16572272777557373 -0.20770148932933807 -0.07616681605577469 0.16410395503044128 0.05254204943776131
0.045741405338048935 -0.029341185465455055 0.15623168647289276 -0.5112707614898682 0.16506828367710114 0.2568247616291046 0.17805534601211548 -0.031605932861566544 0.05123569443821907 -0.011316977441310883 0.2288224995136261 0.15979884564876556 0.08675520867109299 -0.20716425776481628 -0.02335478365421295 0.13176551461219788 -0.07552561908960342 0.011219683103263378 0.03143518418073654 0.01725482940673828 -0.15896634757518768 -0.15246343612670898 0.03945740684866905 -0.09073568135499954 0.05904805660247803 -0.06761930137872696 -0.036535900086164474 -0.10140269994735718 -0.10021597146987915 0.012847033329308033 0.08403823524713516 -0.005968302022665739 0.06438114494085312 0.05599023029208183 -0.05752423033118248 0.05819431319832802 0.18345871567726135 0.06531866639852524 -0.029496071860194206 0.00871211290359497 -0.029510628432035446 -0.05499116703867912 0.020237527787685394 0.11527799814939499 0.0032093736808747053 0.015283355489373207 0.1101931631565094 -0.06645466387271881 0.15238240361213684 -0.11749420315027237 -0.20265331864356995 -0.0644926130771637 0.04977043345570564 -0.02801748365163803 -0.025747109204530716 -0.02634231001138687 0.054666850715875626 -0.061996933072805405 -0.018243160098791122 -0.11143477261066437 -0.1553466022014618 -0.054657068103551865 -0.017688633874058723 0.12397488206624985 0.013118051923811436 0.08697115629911423 0.17397961020469666 -0.2080235779285431 0.09205930680036545 0.009357781149446964 -0.16223014891147614 -0.035318806767463684 0.08289708942174911 0.21083824336528778 -0.015616249293088913 0.046662382781505585 0.0007961871451698244 -0.012358130887150764 -0.04897383227944374 -0.017904173582792282 -0.04476776346564293 -0.3637728989124298 -0.12635236978530884 -0.13599474728107452 0.07346269488334656 0.136129692196846 -0.06536748260259628 -0.34065037965774536 -0.06474050879478455 -0.18328870832920074 -0.032097600400447845 0.007105235941708088 0.00652876403182745 0.05973182991147041 0.04352125525474548 -0.2155904769897461 -0.03753411024808884 -0.14318975806236267 0.10006336867809296 -0.14226894080638885 0.06948694586753845 0.003009296953678131 -0.06655988842248917 -0.002348895650357008 0.01967986300587654 0.007361891213804483 0.11033925414085388 -0.1954837143421173 -0.23256927728652954 0.015674693509936333 0.06133108213543892 0.1953529566526413 -0.06202882155776024 0.06933217495679855 0.13431021571159363 0.2654755413532257 0.2507403790950775 0.30249738693237305 -0.05575387924909592 -0.14903077483177185 -0.03874040022492409 -0.09880532324314117 -0.057303134351968765 0.15839999914169312 0.15981556475162506 0.2924004793167114 0.15688644349575043 -0.04956252872943878
0.11615367978811264 0.0652419850230217 0.10696593672037125 -0.009441522881388664 0.3032779097557068 0.14361104369163513 -0.1021748036146164 0.00047332869144156575 0.2008129358291626 0.007488764822483063 -0.18875724077224731 -0.05550827458500862 -0.33205851912498474 -0.19551515579223633 0.16893921792507172 0.006908651906996965 0.0537671335041523 -0.21590346097946167 -0.1360257863998413 -0.09209182858467102 0.3460191488265991 -0.3938487470149994 -0.061106059700250626 0.10827933251857758 -0.11422636359930038 -0.08393894881010056 -0.39552438259124756 -0.021784624084830284 -0.1791142076253891 -1.0413380550744478e-05 -0.09510627388954163 0.12790900468826294 -0.08984887599945068 0.0018568624509498477 0.006564142648130655 0.037325285375118256 -0.24270670115947723 -0.1532813161611557 -0.08656768500804901 -0.3418370485305786 -0.036267202347517014 -0.028340931981801987 -0.01012332458049059 0.07213045656681061 0.1070229634642601 0.00969662144780159 -0.09314101934432983 0.012477299198508263 -0.3774569630622864 -0.11316095292568207 0.19400125741958618 0.02934405393898487 -0.04841052368283272 -0.01556421723216772 -0.06698647141456604 -0.0652303695678711 0.006712550763040781 0.05058906227350235 0.1666315197944641 -0.27443504333496094 -0.1629982888698578 0.01803647167980671 0.0437859371304512 -0.07518896460533142 -0.04616516828536987 -0.08171233534812927 0.001241605612449348 -0.07044926285743713 -0.27964144945144653 -0.07922080159187317 0.04675007611513138 -0.05118274688720703 0.16473212838172913 -0.0880194902420044 0.14837734401226044 -0.23700262606143951 -0.24862071871757507 0.04306697100400925 -0.15387439727783203 -0.18568824231624603 -0.04839234799146652 -0.030837243422865868 -0.1770477443933487 0.004138769116252661 0.012519286945462227 -0.004892320837825537 0.12020093202590942 0.05755450576543808 -0.1017148345708847 -0.0004949982976540923 -0.02957763709127903 -0.041790030896663666 0.04905477911233902 -0.09890022873878479 0.1135614737868309 0.10866422206163406 0.05173931270837784 -0.03462837263941765 0.05739984288811684 0.010831782594323158 0.07278810441493988 0.0488567017018795 0.013779163360595703 0.05954631045460701 -0.10782172530889511 -0.02339702472090721 -0.14850375056266785 -0.06769230961799622 0.21108105778694153 -0.31127631664276123 0.11280293762683868 0.13652652502059937 0.27428218722343445 0.13681648671627045 0.040833164006471634 0.03216252103447914 0.09159423410892487 -0.16469012200832367 -0.03486303985118866 0.15079864859580994 -0.021892717108130455 0.09723284095525742 -0.37552687525749207 0.018681762740015984 0.04555049538612366 -0.12059804052114487 -0.13322986662387848 -0.19976958632469177
0.08171790093183517 -0.018826372921466827 0.27754002809524536 0.12039536237716675 0.0634550005197525 0.0582709014415741 -0.07515297085046768 0.01848280243575573 0.08541298657655716 0.028025668114423752 -0.2529909610748291 -0.49143463373184204 0.03754892200231552 -0.06443890929222107 -0.005888595711439848 -0.12130242586135864 0.13793760538101196 -0.07840951532125473 -0.2325965315103531 -0.22945751249790192 0.12388164550065994 0.12891550362110138 -0.053563956171274185 0.02673291601240635 0.08084111660718918 -0.06939064711332321 0.11440178006887436 0.048131246119737625 0.09534547477960587 -0.03626381605863571 -0.21085354685783386 -0.6773889064788818 -0.06975220143795013 -0.0070385099388659 -0.03342108055949211 0.044724710285663605 0.16035805642604828 -0.306759774684906 -0.1961459368467331 0.10212812572717667 -0.0034822660963982344 0.0233936607837677 -0.3242414593696594 -0.0012962137116119266 -0.0523182712495327 -0.012835806235671043 -0.24107812345027924 -0.2690940499305725 0.01876935176551342 0.08475570380687714 0.053991399705410004 0.08322758227586746 -0.025340938940644264 -0.0632384717464447 -0.04303431138396263 -0.0009377041715197265 0.08273489773273468 0.009075745940208435 0.00723797595128417 -0.13250364363193512 0.2680221199989319 0.1582692265510559 -0.043781839311122894 -0.003168614348396659 0.004396611358970404 0.12629334628582 -0.11411947011947632 -0.14757046103477478 -0.008026928640902042 -0.03747665882110596 -0.09768125414848328 -0.6087665557861328 0.060837164521217346 0.18151609599590302 -0.07898186892271042 -0.13563737273216248 -0.19458918273448944 -0.246421679854393 -0.05662354826927185 -0.2300131618976593 0.022674402222037315 0.04225538671016693 0.15599705278873444 -0.04374975338578224 0.18077172338962555 0.05173971503973007 -0.16974857449531555 0.08360753953456879 -0.32765302062034607 -0.18396581709384918 0.008279884234070778 0.08572753518819809 -0.019649464637041092 -0.1488734483718872 0.02568070963025093 0.16090992093086243 -0.05834227800369263 0.03065773844718933 0.09656302630901337 0.025249779224395752 0.07164249569177628 -0.04554126039147377 0.027722742408514023 0.022607306018471718 0.08005604892969131 -0.04441741853952408 -0.1948850452899933 -0.009951217100024223 -0.24401868879795074 0.2039015293121338 0.026468083262443542 -0.13469448685646057 -0.11486354470252991 0.002569508505985141 -0.38235974311828613 -0.02363421767950058 0.11057151108980179 0.03620347008109093 0.16079019010066986 0.006642492953687906 -0.011601829901337624 0.05958060175180435 -0.09555628895759583 -0.37654194235801697 0.005250444635748863 0.16085506975650787 -0.20096339285373688 -0.11672098934650421
