0.10420278459787369 0.06154718995094299 0.09669289737939835 -0.15881116688251495 0.2391015738248825 0.06352057307958603 0.2300490289926529 -0.4181669056415558 0.025553308427333832 -0.33558785915374756 0.22774453461170197 -0.45986852049827576 0.03723839297890663 -0.05242786183953285 -0.15409265458583832 -0.17130957543849945 0.09774075448513031 -0.2921183109283447 0.10018234699964523 -0.18755412101745605 0.24943700432777405 -0.3344199061393738 0.059332359582185745 0.09253916144371033 0.10305281728506088 -0.37251681089401245 0.16220097243785858 -0.2290927916765213 -0.5749094486236572 -0.18141259253025055 0.05199788138270378 0.1396496593952179 0.22286221385002136 0.1578924059867859 0.08314802497625351 -0.1545085459947586 -0.3556775152683258 -0.3123202919960022 -0.05443662777543068 -0.28580012917518616 -0.2754666209220886 -0.09192295372486115 -0.12791873514652252 -0.30096954107284546 0.15854676067829132 0.046205341815948486 -0.4132601320743561 0.1335599720478058 -0.17387880384922028 -0.386870801448822 0.39382582902908325 -0.3875499367713928 0.23822158575057983 0.047868408262729645 -0.36882928013801575 -0.14976263046264648 -0.0487382672727108 0.27532681822776794 0.1893872767686844 -0.17491289973258972 -0.3027631640434265 -0.13267213106155396 -0.25132912397384644 -0.0954095646739006 -0.4218097925186157 -0.45566827058792114 0.23094017803668976 0.20814186334609985 -0.32727357745170593 0.08231951296329498 0.07226990163326263 -0.11647816002368927 -0.48971012234687805 0.36651909351348877 -0.3266024589538574 0.30541297793388367 0.1944192349910736 0.042424436658620834 0.1945054680109024 0.2434903383255005 -0.15277451276779175 -0.24034693837165833 -0.2728368937969208 0.17563870549201965 0.20970654487609863 -0.0993729904294014 -0.01994425617158413 0.04056777060031891 0.19554343819618225 0.10580162703990936 -0.37062758207321167 -0.04891753941774368 0.09423062950372696 0.25466570258140564 0.13951969146728516 -0.05127037689089775 -0.2746292054653168 -0.3917018175125122 -0.24283532798290253 0.07589087635278702 0.21650218963623047 0.1036144345998764 -0.5146352052688599 0.002206265227869153 0.02857314981520176 0.1016855239868164 -0.4050276577472687 0.28841060400009155 -0.4426805078983307 -0.3013497591018677 -0.11255498975515366 -0.149760901927948 -0.1594804972410202 0.23880717158317566 -0.055891986936330795 -0.0502682626247406 0.06213029846549034 0.19782429933547974 0.13066506385803223 -0.034312717616558075 0.12485866248607635 0.027883926406502724 -0.35627326369285583 -0.05758240818977356 0.16410839557647705 0.0461256243288517 0.07645588368177414 0.23474597930908203
0.038525909185409546 -0.10303174704313278 0.06525172293186188 0.1255781501531601 -0.3595990240573883 -0.0879874974489212 0.27425506711006165 0.10998062789440155 0.06956227868795395 0.18212133646011353 0.09377730637788773 -0.09391950815916061 -0.29192689061164856 0.05122264847159386 0.2634150981903076 0.2373686283826828 -0.37535497546195984 0.15296772122383118 -0.20024655759334564 0.29059913754463196 -0.14621837437152863 0.2564055919647217 -0.40223804116249084 0.035718709230422974 0.28922730684280396 -0.15923021733760834 0.04229685664176941 0.06539382040500641 -0.21031469106674194 0.2407849282026291 0.042637791484594345 -0.11511099338531494 0.0662761852145195 -0.20160631835460663 0.018936410546302795 -0.2102975696325302 -0.279895156621933 0.11994687467813492 -0.5407354831695557 0.1132575049996376 -0.03824298083782196 0.12963086366653442 0.03382351994514465 -0.26660677790641785 -0.36987000703811646 -0.1478264182806015 -0.18289536237716675 -0.1535547375679016 0.03888894245028496 0.141098752617836 0.037555597722530365 -0.01917274110019207 -0.3020414710044861 -0.05038271099328995 0.05780944600701332 -0.13128754496574402 0.06364809721708298 -0.1359386295080185 0.05201667547225952 -0.37775662541389465 0.4516187012195587 0.07073861360549927 -0.23413284122943878 -0.32721275091171265 -0.23198501765727997 0.18933847546577454 0.11699461191892624 -0.2444736659526825 0.23205798864364624 -0.42293787002563477 0.2888661026954651 0.06109852343797684 0.15997499227523804 0.2074025720357895 -0.23046116530895233 0.11901214718818665 0.08294395357370377 -0.28041625022888184 0.08687954396009445 -0.039188534021377563 0.08460630476474762 -0.22099487483501434 0.2041071206331253 -0.48031535744667053 -0.21353194117546082 0.06678520888090134 -0.1241367757320404 -0.3614371716976166 0.22146320343017578 0.023744693025946617 -0.359434574842453 0.21404168009757996 0.2251015603542328 0.15864671766757965 -0.25678160786628723 -0.13038451969623566 0.07594992220401764 -0.08006498962640762 0.13165320456027985 0.1859111785888672 0.1412021368741989 -0.39489540457725525 0.09899783134460449 -0.17647364735603333 0.30615007877349854 -0.41765353083610535 0.1271461546421051 0.40124350786209106 0.031447190791368484 -0.25498807430267334 -0.25862330198287964 -0.24604347348213196 0.0066268472000956535 0.2765313386917114 0.1021295115351677 0.042419809848070145 -0.43857046961784363 0.23938992619514465 -0.39003339409828186 -0.2991153597831726 -0.35950565338134766 0.11249975115060806 0.022080475464463234 -0.015897562727332115 -0.29389286041259766 0.06240260601043701 0.1929207295179367 0.09108566492795944
-0.017047902569174767 0.180085226893425 0.10588918626308441 -0.17270684242248535 -0.24638038873672485 -0.17231109738349915 -0.31490519642829895 -0.018609071150422096 0.12855343520641327 0.09905284643173218 -0.011850261129438877 -0.2359171062707901 -0.21505708992481232 0.32049623131752014 0.10776445269584656 -0.11806056648492813 -0.21454156935214996 -0.2971447706222534 0.09150402992963791 0.1355835348367691 -0.026517411693930626 0.15855777263641357 -0.22556501626968384 0.07198134064674377 -0.17882277071475983 -0.083362877368927 0.0781201720237732 0.2385796308517456 -0.2770055830478668 0.11979340761899948 -0.3564399480819702 -0.3766113519668579 -0.20271381735801697 -0.29554611444473267 0.018324198201298714 -0.04826286435127258 -0.09158172458410263 0.06363557279109955 -0.25656619668006897 0.07358952611684799 0.13967937231063843 0.1126946434378624 0.2262890338897705 -0.09120512008666992 -0.007070442661643028 -0.2061116248369217 -0.28576773405075073 -0.06922902166843414 0.24059677124023438 0.07392581552267075 0.21768096089363098 -0.27669695019721985 -0.001620376599021256 0.13923338055610657 -0.393009215593338 0.28043729066848755 -0.0379735492169857 -0.07532422244548798 0.22297239303588867 0.17500613629817963 -0.005998136475682259 -0.3173067271709442 0.07592961192131042 0.07963532209396362 -0.2500944137573242 0.10775429010391235 -0.4381701648235321 0.09980706125497818 -0.17534005641937256 0.21704405546188354 0.13302500545978546 -0.25658169388771057 -0.20528270304203033 -0.055483605712652206 -0.25477340817451477 -0.09406581521034241 0.038770150393247604 0.12757466733455658 -0.0845738872885704 0.12897367775440216 -0.22407470643520355 0.1983429342508316 0.27599388360977173 0.1492510288953781 0.10099853575229645 -0.1976330578327179 -0.040976088494062424 0.12104381620883942 -0.3046865463256836 -0.13129642605781555 -0.19358907639980316 0.21232374012470245 0.1489676833152771 -0.21603085100650787 0.11734914779663086 -0.4633815288543701 -0.3096525967121124 -0.3165714144706726 -0.04834279417991638 -0.20719636976718903 0.04248015210032463 -0.23628701269626617 -0.2801474928855896 0.1478154957294464 -0.2079154998064041 0.08407269418239594 -0.06018494442105293 -0.042059194296598434 -0.1563686579465866 -0.10019323229789734 -0.17642471194267273 0.12266713380813599 0.21497152745723724 -0.1589992642402649 0.16468098759651184 0.053476203233003616 0.04324612766504288 0.06891554594039917 -0.06822822242975235 0.0579235702753067 -0.025568420067429543 0.1676892787218094 0.20407545566558838 -0.217533677816391 0.11045578867197037 0.12168332189321518 0.003134907456114888 0.1509893536567688
0.2761145234107971 -0.3478904664516449 0.09781283140182495 0.11947968602180481 -0.07790650427341461 -0.2544509470462799 -0.28576067090034485 0.0024017714895308018 0.04155604913830757 -0.23654955625534058 -0.18041899800300598 0.16137169301509857 0.19473561644554138 0.11586770415306091 0.1039641872048378 -0.33367377519607544 -0.060727402567863464 0.1533489227294922 0.07308407127857208 0.14578421413898468 0.21272483468055725 -0.18608161807060242 -0.27559199929237366 0.06030316650867462 -0.206580251455307 -0.16788208484649658 0.028080252930521965 0.18208946287631989 0.07448098063468933 0.209834486246109 -0.024694738909602165 0.03776146098971367 -0.2281007170677185 -0.03975864127278328 -0.0635627880692482 -0.12431603670120239 -0.14982867240905762 0.21524550020694733 -0.2093498706817627 0.1370287388563156 -0.07461763918399811 0.042140040546655655 0.21669191122055054 0.15201441943645477 0.12763425707817078 0.18416628241539001 -0.0757603719830513 0.2637156844139099 0.03089890442788601 0.09928539395332336 -0.3136802315711975 -0.16053412854671478 -0.21750901639461517 -0.23529048264026642 -0.24207831919193268 -0.05928461626172066 -0.02753644622862339 0.15528056025505066 -0.1331183910369873 -0.005492016673088074 0.23444607853889465 -0.26289308071136475 -0.14520962536334991 0.017801545560359955 0.3150041699409485 -0.3387671709060669 -0.46042492985725403 -0.2644762396812439 -0.18974916636943817 -0.012366637587547302 0.1281418353319168 0.1601012796163559 0.29349005222320557 -0.24314169585704803 -0.19211971759796143 0.1505800187587738 -0.012428861111402512 -0.1825830042362213 -0.17596787214279175 -0.20483724772930145 -0.18476104736328125 -0.09488552808761597 0.023882580921053886 -0.020173290744423866 -0.11851627379655838 -0.3472979962825775 -0.4171987473964691 0.18951818346977234 -0.28022006154060364 -0.154910609126091 -0.0468226782977581 0.02340351976454258 -0.07703422009944916 -0.24414050579071045 -0.22631441056728363 -0.2926046848297119 0.18973785638809204 0.08541764318943024 0.17011526226997375 -0.32157233357429504 0.07713503390550613 -0.07280457019805908 0.012351088225841522 0.16501499712467194 -0.16242407262325287 0.062468431890010834 0.25115758180618286 -0.25438907742500305 0.19663627445697784 0.17401273548603058 0.07670097798109055 -0.3339167833328247 0.053907688707113266 -0.3098277151584625 -0.27474433183670044 0.16101042926311493 -0.335967093706131 0.07264210283756256 -0.0008710864349268377 0.0756712555885315 0.08423245698213577 0.10506100207567215 -0.13368527591228485 -0.4915424883365631 -0.08723852783441544 -0.10449697077274323 0.14314064383506775 -0.22578085958957672
-0.2427159547805786 0.09517057240009308 -0.2229270339012146 -0.061054777354002 -0.04203848913311958 0.31581875681877136 -0.2488321214914322 0.09667285531759262 0.11777323484420776 0.16126258671283722 0.04211965948343277 0.18152260780334473 -0.28643399477005005 -0.1751067340373993 0.021845392882823944 0.23141659796237946 -0.01869673654437065 -0.22399218380451202 -0.06644301861524582 0.039366718381643295 -0.3752768039703369 -0.005301959812641144 -0.018133176490664482 -0.3728697597980499 -0.04345162212848663 0.17156681418418884 -0.15254467725753784 -0.4308588206768036 0.1343848556280136 0.18415144085884094 0.14359980821609497 0.04497353360056877 -0.03676101192831993 -0.1748911291360855 0.04407716915011406 0.10988392680883408 0.2477111965417862 0.08375865966081619 -0.25397852063179016 0.14558041095733643 0.13880281150341034 0.07023941725492477 -0.3346204459667206 -0.041240476071834564 -0.09118232131004333 -0.3884558081626892 0.13838334381580353 0.05323086306452751 -0.28677666187286377 0.057119354605674744 0.16564467549324036 -0.03999375179409981 0.27360934019088745 0.07896853238344193 0.19896544516086578 0.20815235376358032 -0.043260011821985245 -0.3109012842178345 -0.2927170693874359 -0.301927775144577 -0.15475310385227203 0.182437926530838 0.08809133619070053 0.16610187292099 -0.0723503828048706 0.1308259665966034 -0.1784963309764862 0.14263977110385895 -0.28723785281181335 0.18008364737033844 0.05369138717651367 0.03340688720345497 -0.18367275595664978 -0.14216111600399017 0.21299830079078674 0.14637115597724915 -0.20365211367607117 -0.10919088125228882 0.19718167185783386 -0.2927393913269043 0.0759894922375679 0.179291233420372 -0.320108026266098 -0.1318565011024475 0.15820088982582092 0.08450539410114288 0.38544216752052307 -0.053691036999225616 -0.09730567783117294 -0.15661083161830902 0.13300491869449615 0.17145679891109467 -0.3002393841743469 -0.16035166382789612 0.16536790132522583 -0.017547335475683212 -0.013924079947173595 0.11055167764425278 0.04795217141509056 0.11919546872377396 -0.2630052864551544 0.17047715187072754 0.21175603568553925 -0.34965506196022034 -0.12663684785366058 -0.2069755345582962 -0.23158569633960724 -0.10023748129606247 -0.29173845052719116 0.01921999454498291 0.12335151433944702 -0.056869156658649445 0.048938557505607605 -0.21630094945430756 0.09507212042808533 -0.3602214753627777 0.27766144275665283 0.10494769364595413 0.17575763165950775 -0.18979761004447937 -0.3781795799732208 0.06548941135406494 -0.25881996750831604 0.2077542394399643 -0.23701220750808716 -0.059169791638851166 0.05016551911830902 0.13785722851753235
-0.04989676922559738 -0.12334875017404556 0.05454828962683678 -0.2810421884059906 -0.22612163424491882 -0.06550093740224838 -0.11084883660078049 -0.09154079109430313 -0.4745297431945801 -0.11584153771400452 -0.2027117908000946 0.1469227522611618 0.21794520318508148 0.20993250608444214 0.04619674012064934 -0.39458930492401123 0.19353243708610535 0.01813843660056591 0.10192078351974487 -0.16228941082954407 0.09469737112522125 -0.030436405912041664 0.12317013740539551 -0.08115103095769882 -0.09737639129161835 -0.07513527572154999 0.024776436388492584 -0.10318541526794434 0.08353342115879059 -0.11620191484689713 0.16631962358951569 -0.1911589503288269 -0.18659032881259918 -0.1439097672700882 0.0825192853808403 0.08525651693344116 0.0021308548748493195 -0.03079635463654995 0.24982641637325287 -0.14373445510864258 -0.3209245800971985 -0.40265271067619324 -0.27286291122436523 0.12642933428287506 0.10190325975418091 0.17595690488815308 0.17312850058078766 -0.05030413344502449 0.07565627247095108 0.15316544473171234 -0.30134281516075134 -0.0578874871134758 -0.013826897367835045 -0.24240873754024506 0.10643824189901352 -0.0048543186858296394 0.04998075217008591 0.005974621046334505 -0.008135498501360416 -0.17239028215408325 0.009294978342950344 -0.1617882251739502 0.22143058478832245 -0.2140754610300064 0.1933063119649887 -0.36821019649505615 0.0015131996478885412 -0.12083934247493744 0.24392759799957275 -0.09994704276323318 -0.4393058121204376 0.18050940334796906 0.21292079985141754 -0.12166111916303635 0.015610184520483017 -0.11885412782430649 0.09088347107172012 0.07889331877231598 0.10229628533124924 0.1196712777018547 -0.2341354489326477 -0.048673391342163086 -0.166847363114357 -0.11642871797084808 -0.027735160663723946 0.17006805539131165 -0.3049440085887909 -0.02759648859500885 0.039898816496133804 0.01925942860543728 0.15175290405750275 -0.194871723651886 -0.00788817834109068 -0.11495309323072433 -0.1848791390657425 0.18031921982765198 0.1366049349308014 0.11108788847923279 -0.21219848096370697 -0.08100005984306335 -0.11750762909650803 0.09689407795667648 -0.28177881240844727 -0.24741657078266144 0.010510626249015331 0.08437932282686234 0.2518480122089386 -0.28596439957618713 0.21821920573711395 0.13903704285621643 0.11109905689954758 -0.19734159111976624 0.04421742632985115 -0.08981923758983612 -0.13777492940425873 -0.09205299615859985 -0.21982941031455994 -0.08502509444952011 -0.06815161556005478 0.11233103275299072 0.009232922457158566 -0.30217674374580383 0.09079188853502274 0.24057160317897797 0.2234751135110855 0.06568507850170135 0.17280054092407227 0.17373378574848175
0.12766313552856445 0.1571347713470459 0.002133019967004657 -0.5508369207382202 -0.03394054248929024 -0.19088412821292877 0.13279691338539124 -0.38132786750793457 -0.18723250925540924 0.07139312475919724 -0.06961750239133835 -0.1289292573928833 0.19913087785243988 -0.06981776654720306 -0.28332147002220154 -0.22837266325950623 0.20203308761119843 -0.39068305492401123 -0.39951178431510925 0.1945905089378357 0.060739725828170776 0.12761420011520386 0.14083217084407806 -0.3703601360321045 0.27981263399124146 -0.12119150161743164 -0.38797226548194885 0.1003369614481926 -0.16042184829711914 -0.21221992373466492 -0.046764783561229706 0.1321670264005661 0.14720562100410461 -0.21622827649116516 0.13506944477558136 -0.024660851806402206 -0.05149179324507713 0.06400453299283981 0.3027511239051819 0.08474211394786835 -0.1620025783777237 -0.17739419639110565 -0.06544207036495209 -0.44528695940971375 0.17039835453033447 0.14182083308696747 0.16809912025928497 0.13067501783370972 -0.08204279839992523 0.029930463060736656 0.0853545069694519 0.20262807607650757 0.13674859702587128 -0.3529079556465149 0.11566473543643951 -0.07877807319164276 -0.06079187989234924 0.10012822598218918 -0.038429632782936096 -0.19937950372695923 0.13902916014194489 -0.1833423525094986 0.052003100514411926 0.1169101893901825 -0.30151474475860596 -0.2047930508852005 0.12785057723522186 0.12087317556142807 0.28156235814094543 0.06266216933727264 -0.252189576625824 -0.3191484212875366 -0.33768823742866516 0.24538299441337585 0.23843112587928772 -0.20114301145076752 -0.17524728178977966 -0.022257568314671516 -0.004939965438097715 0.21091967821121216 -0.07821551710367203 -0.36609551310539246 0.07268159091472626 -0.23401515185832977 0.13204656541347504 0.199611634016037 0.03430802375078201 0.14025580883026123 0.22591489553451538 0.14295141398906708 0.10711061209440231 0.1884181797504425 0.16201354563236237 0.04901321604847908 0.06872724741697311 0.2092146873474121 -0.3593882620334625 -0.3107741177082062 -0.29210424423217773 0.21783524751663208 -0.3713158965110779 0.1941954493522644 -0.47102344036102295 -0.1407041698694229 -0.15705953538417816 0.08821946382522583 -0.010236585512757301 0.018688810989260674 0.13736239075660706 -0.4334908723831177 -0.37784165143966675 0.1113816648721695 -0.08130089938640594 -0.1180197149515152 0.027592863887548447 -0.3776620626449585 0.21353495121002197 0.09450909495353699 0.2894481420516968 -0.12880946695804596 -0.2760683298110962 -0.5381940007209778 0.3184584677219391 0.2586953639984131 0.08078791946172714 0.10969728976488113 -0.21864764392375946 -0.035225119441747665
-0.30068567395210266 -0.30065664649009705 -0.38634803891181946 0.05267280712723732 -0.019103994593024254 -0.21702487766742706 -0.2676049470901489 0.11382348090410233 0.0944456160068512 0.13049305975437164 0.019531577825546265 0.08984091877937317 -0.3997120261192322 0.07333113253116608 0.12356705218553543 0.008474556729197502 0.10284940898418427 0.14174988865852356 0.060696668922901154 0.13141630589962006 -0.01841317117214203 -0.1909560263156891 -0.09368079155683517 0.07752341032028198 -0.2904593348503113 -0.16792592406272888 0.05760282650589943 0.2697798013687134 -0.059092022478580475 0.09764732420444489 -0.2518462836742401 -0.12081450968980789 -0.2543809711933136 0.2256397157907486 -0.35033491253852844 -0.24053464829921722 0.21066299080848694 -0.2750445604324341 -0.38788652420043945 0.12539294362068176 0.022202612832188606 0.08168692886829376 0.1434064656496048 0.0820356234908104 -0.43063971400260925 -0.4085027873516083 0.06243877485394478 -0.12264862656593323 0.2044619917869568 -0.24331165850162506 -0.15430325269699097 0.2726585268974304 -0.04707908630371094 0.1595192551612854 -0.3637058436870575 -0.06117301061749458 0.043247099965810776 0.12673291563987732 0.2214578539133072 0.15842919051647186 -0.1378389596939087 0.2983434796333313 0.07503893971443176 0.12978410720825195 0.1430669128894806 0.19663821160793304 -0.515477180480957 0.001463573076762259 -0.027380390092730522 -0.22996625304222107 0.012837249785661697 0.026974646374583244 -0.26309409737586975 -0.38138073682785034 0.1157035157084465 0.1793317198753357 0.1451992243528366 0.3615703880786896 -0.03508356958627701 -0.06097172200679779 0.1713462918996811 0.18640097975730896 0.12707719206809998 0.06973928213119507 -0.3535226881504059 -0.3617156445980072 0.01810489408671856 -0.10763631761074066 -0.4611607789993286 0.13096679747104645 -0.02626718208193779 -0.3241642713546753 -0.22261303663253784 0.15814879536628723 -0.14666450023651123 -0.08114627003669739 0.05056875944137573 -0.06000448018312454 -0.054252129048109055 -0.27496814727783203 0.09348423033952713 0.02503880299627781 0.13035458326339722 0.010648292489349842 0.3570510745048523 -0.15280656516551971 -0.34960445761680603 0.050807029008865356 -0.3600897490978241 0.028872672468423843 0.0899486169219017 0.0016119129722937942 0.18684397637844086 0.3483678698539734 0.08487919718027115 0.10258996486663818 -0.31275254487991333 -0.14260368049144745 -0.36137405037879944 0.11789841204881668 0.08643385022878647 0.05029092729091644 -0.031053155660629272 -0.38799798488616943 0.047015685588121414 -0.2592996656894684 0.021199163049459457 0.041964247822761536
0.12577150762081146 0.12279139459133148 0.11072540283203125 0.2208179235458374 -0.29317083954811096 -0.20236754417419434 0.15694452822208405 0.19315563142299652 0.11205479502677917 -0.12022340297698975 0.18418461084365845 -0.3205612897872925 0.10393765568733215 -0.15457680821418762 -0.32518270611763 0.21396450698375702 -0.16236785054206848 -0.08233386278152466 0.02014463022351265 -0.17154446244239807 0.06726586818695068 -0.2706240117549896 0.12896475195884705 0.038891274482011795 0.11342065781354904 0.29731330275535583 0.043482787907123566 -0.051510874181985855 0.17940835654735565 -0.08407603204250336 0.055129293352365494 -0.3130929172039032 0.14514218270778656 -0.28136739134788513 0.1140841543674469 0.2420741766691208 -0.22615663707256317 -0.09150360524654388 -0.20010694861412048 -0.014877920970320702 0.1672949641942978 0.08625227212905884 -0.1961788386106491 0.20573706924915314 0.03454139083623886 0.07078252732753754 0.05004167556762695 -0.26638150215148926 -0.14318281412124634 0.08279238641262054 -0.18895810842514038 -0.2582401633262634 -0.2659900188446045 -0.10759425908327103 0.10369245707988739 0.15572234988212585 0.044057223945856094 0.11737550050020218 -0.26963910460472107 0.10905254632234573 -0.09381341934204102 -0.31351104378700256 0.061199434101581573 0.1626112014055252 0.1451675444841385 -0.0893707349896431 0.0603954941034317 -0.20519818365573883 -0.1383262425661087 -0.2457507997751236 -0.21725541353225708 -0.19590604305267334 0.05991039052605629 0.03103834204375744 -0.04995936527848244 -0.2951211631298065 -0.37699398398399353 -0.35071200132369995 -0.10688408464193344 -0.27623414993286133 0.07512257993221283 -0.26941120624542236 -0.14709481596946716 -0.073165163397789 -0.17229871451854706 0.13148222863674164 -0.40281912684440613 0.10283777862787247 -0.01221213024109602 0.1909898966550827 0.16946764290332794 -0.06675970554351807 -0.19385406374931335 0.06401493400335312 0.08719975501298904 -0.04841029644012451 0.09808765351772308 0.18787075579166412 0.08582842350006104 -0.027579421177506447 -0.05840696394443512 -0.2870329022407532 -0.26358121633529663 0.09627313911914825 -0.05177187919616699 0.08947963267564774 0.22004163265228271 -0.13077449798583984 0.14030885696411133 -0.4307507574558258 0.08771786838769913 0.1484755277633667 -0.17682835459709167 0.143006831407547 0.06074162572622299 0.128078892827034 -0.19054503738880157 -0.10251371562480927 -0.24942611157894135 0.1439637690782547 -0.1049182191491127 0.09954815357923508 -0.18543818593025208 -0.1216898262500763 -0.056705228984355927 0.08810452371835709 -0.4570804536342621 -0.10498396307229996
-0.3499312400817871 -0.12923115491867065 -0.033816177397966385 0.09349649399518967 0.1607619673013687 0.27921271324157715 -0.028134670108556747 0.12360347807407379 0.14778226613998413 -0.033859409391880035 0.07215007394552231 0.2320484220981598 0.012968329712748528 -0.3274275064468384 -0.20036417245864868 0.23057547211647034 0.14261068403720856 0.17062783241271973 0.061310429126024246 -0.3125723898410797 -0.3338395357131958 0.05496378242969513 0.078865647315979 0.01528976485133171 0.10377354919910431 0.11647942662239075 0.029893599450588226 -0.3472110629081726 0.12056785821914673 -0.20084235072135925 0.154036283493042 0.28758201003074646 0.10714150965213776 0.1878420114517212 -0.303500771522522 0.1724107265472412 0.09364157170057297 -0.21092639863491058 0.013060045428574085 -0.3991888165473938 0.10223019868135452 0.07649338990449905 -0.36230483651161194 0.11940187960863113 -0.009222358465194702 0.00462362403050065 0.05890422314405441 0.08059071749448776 -0.2708277106285095 0.02538158930838108 -0.052866131067276 0.28686895966529846 0.28817301988601685 0.03758498653769493 0.07324347645044327 -0.33866405487060547 0.03583664447069168 -0.3752579689025879 -0.24638508260250092 0.05833671987056732 0.12242789566516876 0.12370248883962631 -0.21675123274326324 -0.20622527599334717 -0.031736038625240326 0.14165523648262024 -0.03453100845217705 0.1123720332980156 -0.31356528401374817 0.2177094966173172 -0.03747977688908577 0.1579625904560089 0.13866448402404785 -0.1687004566192627 -0.23797191679477692 -0.03755094110965729 -0.18095098435878754 0.2314946949481964 -0.25776222348213196 -0.14586500823497772 0.03885481506586075 0.18634922802448273 -0.1301511824131012 0.2611667811870575 0.2106686681509018 -0.24656817317008972 0.2844800353050232 -0.3727604150772095 -0.0019266523886471987 -0.28512030839920044 0.20866841077804565 -0.3345162570476532 -0.33284077048301697 -0.10308153182268143 -0.014051441103219986 0.14460045099258423 0.07091949135065079 0.1474524885416031 0.21622724831104279 -0.037996288388967514 0.047272104769945145 0.18727679550647736 0.24875657260417938 0.1702020764350891 -0.18438312411308289 0.03973621129989624 -0.1694122552871704 -0.1500163972377777 -0.08720140904188156 0.1214161217212677 0.14449281990528107 -0.0222482793033123 -0.29218950867652893 -0.14917799830436707 -0.2169284075498581 0.01629280112683773 0.28156647086143494 -0.297439843416214 0.19241830706596375 0.029302960261702538 0.024288510903716087 0.13001036643981934 -0.10715609788894653 -0.10807549953460693 0.09450118243694305 -0.05573650076985359 0.056066177785396576 -0.11962327361106873